booster[0]:
0:[RealPower_-1q<100.334] yes=1,no=2,missing=1
	1:[RealPower_-1q<34.0649986] yes=3,no=4,missing=3
		3:[RealPower_-1q<11.6829996] yes=7,no=8,missing=7
			7:[RealPower_-1q<1.977] yes=15,no=16,missing=15
				15:[RealPower_-1q<0.504000008] yes=31,no=32,missing=31
					31:[RealPower_-1q<0.0599999987] yes=63,no=64,missing=63
						63:leaf=-0.119478621
						64:leaf=0.046111498
					32:[RealPower_-7q<1.49000001] yes=65,no=66,missing=66
						65:leaf=0.716112852
						66:leaf=-0.128117278
				16:[hour<15] yes=33,no=34,missing=34
					33:[RealPower_-1q<7.06799984] yes=67,no=68,missing=68
						67:leaf=2.23050356
						68:leaf=3.84562802
					34:[RealPower_-1q<7.06799984] yes=69,no=70,missing=70
						69:leaf=0.147382498
						70:leaf=0.893657267
			8:[hour<15] yes=17,no=18,missing=18
				17:[RealPower_-1q<22.7299995] yes=35,no=36,missing=36
					35:[RealPower_-1q<16.9990005] yes=71,no=72,missing=72
						71:leaf=5.11166763
						72:leaf=6.58679676
					36:[RealPower_-1q<27.323] yes=73,no=74,missing=74
						73:leaf=7.91560459
						74:leaf=9.50787735
				18:[RealPower_-1q<22.7299995] yes=37,no=38,missing=38
					37:[RealPower_-1q<16.9990005] yes=75,no=76,missing=76
						75:leaf=1.80159712
						76:leaf=2.88106847
					38:[RealPower_-1q<29.0039997] yes=77,no=78,missing=78
						77:leaf=4.12235451
						78:leaf=5.32472134
		4:[RealPower_-1q<66.2109985] yes=9,no=10,missing=10
			9:[hour<15] yes=19,no=20,missing=20
				19:[RealPower_-1q<49.2280006] yes=39,no=40,missing=40
					39:[RealPower_-1q<41.4399986] yes=79,no=80,missing=80
						79:leaf=11.2325449
						80:leaf=13.3035212
					40:[RealPower_-1q<57.4819984] yes=81,no=82,missing=82
						81:leaf=15.1913433
						82:leaf=17.361208
				20:[RealPower_-1q<51.2900009] yes=41,no=42,missing=42
					41:[RealPower_-1q<41.4399986] yes=83,no=84,missing=84
						83:leaf=6.5221734
						84:leaf=8.43763447
					42:[RealPower_-1q<59.5550003] yes=85,no=86,missing=86
						85:leaf=10.2927456
						86:leaf=12.0450697
			10:[hour<14] yes=21,no=22,missing=22
				21:[RealPower_-1q<82.6750031] yes=43,no=44,missing=44
					43:[RealPower_-1q<75.4260025] yes=87,no=88,missing=88
						87:leaf=19.956213
						88:leaf=22.0820961
					44:[RealPower_-20q<1.09800005] yes=89,no=90,missing=90
						89:leaf=25.6105576
						90:leaf=22.6787987
				22:[RealPower_-1q<85.1800003] yes=45,no=46,missing=46
					45:[RealPower_-24q<77.7149963] yes=91,no=92,missing=92
						91:leaf=16.8427143
						92:leaf=14.6276979
					46:[RealPower_-24q<59.5779991] yes=93,no=94,missing=94
						93:leaf=20.6441612
						94:leaf=18.700386
	2:[RealPower_-1q<196.970001] yes=5,no=6,missing=6
		5:[RealPower_-1q<145.559006] yes=11,no=12,missing=12
			11:[RealPower_-22q<24.2450008] yes=23,no=24,missing=24
				23:[RealPower_-1q<121.403999] yes=47,no=48,missing=48
					47:[RealPower_-1q<110.871002] yes=95,no=96,missing=96
						95:leaf=28.3962097
						96:leaf=30.6460476
					48:[dayofyear<290] yes=97,no=98,missing=98
						97:leaf=35.22118
						98:leaf=32.4600029
				24:[RealPower_-1q<124.042] yes=49,no=50,missing=50
					49:[RealPower_-1q<110.871002] yes=99,no=100,missing=100
						99:leaf=22.2985649
						100:leaf=24.8582687
					50:[RealPower_-1q<134.451996] yes=101,no=102,missing=102
						101:leaf=27.7070465
						102:leaf=30.3761272
			12:[RealPower_-1q<172.718994] yes=25,no=26,missing=26
				25:[hour<13] yes=51,no=52,missing=52
					51:[RealPower_-1q<159.128998] yes=103,no=104,missing=104
						103:leaf=38.8693542
						104:leaf=41.9758186
					52:[RealPower_-1q<159.128998] yes=105,no=106,missing=106
						105:leaf=33.7277985
						106:leaf=36.7912865
				26:[RealPower_-18q<43.1590004] yes=53,no=54,missing=54
					53:[RealPower_-1q<183.559998] yes=107,no=108,missing=108
						107:leaf=44.321434
						108:leaf=47.1390533
					54:[RealPower_-1q<186.181] yes=109,no=110,missing=110
						109:leaf=40.3359871
						110:leaf=43.144928
		6:[RealPower_-1q<249.485001] yes=13,no=14,missing=14
			13:[RealPower_-1q<222.964005] yes=27,no=28,missing=28
				27:[RealPower_-23q<32.3699989] yes=55,no=56,missing=56
					55:[RealPower_-1q<205.098999] yes=111,no=112,missing=112
						111:leaf=48.861248
						112:leaf=52.166748
					56:[RealPower_-1q<213.776993] yes=113,no=114,missing=114
						113:leaf=46.1394844
						114:leaf=49.3887863
				28:[hour<13] yes=57,no=58,missing=58
					57:[RealPower_-1q<235.792007] yes=115,no=116,missing=116
						115:leaf=56.0639229
						116:leaf=59.0951385
					58:[RealPower_-1q<238.847] yes=117,no=118,missing=118
						117:leaf=53.0102921
						118:leaf=56.2428093
			14:[RealPower_-1q<277.839996] yes=29,no=30,missing=30
				29:[RealPower_-1q<260.372009] yes=59,no=60,missing=60
					59:[RealPower_-21q<39.5429993] yes=119,no=120,missing=120
						119:leaf=62.0163918
						120:leaf=58.8012161
					60:[RealPower_-23q<12.875] yes=121,no=122,missing=122
						121:leaf=64.8421631
						122:leaf=62.8334389
				30:[RealPower_-1q<292.157013] yes=61,no=62,missing=62
					61:[RealPower_-1q<287.21701] yes=123,no=124,missing=124
						123:leaf=67.0860367
						124:leaf=68.7725372
					62:[RealPower_-1q<299.651001] yes=125,no=126,missing=126
						125:leaf=70.3189392
						126:leaf=72.569252
booster[1]:
0:[RealPower_-1q<97.7750015] yes=1,no=2,missing=1
	1:[RealPower_-1q<30.7490005] yes=3,no=4,missing=3
		3:[RealPower_-1q<9.30599976] yes=7,no=8,missing=7
			7:[RealPower_-1q<1.49000001] yes=15,no=16,missing=15
				15:[RealPower_-1q<0.648000002] yes=31,no=32,missing=31
					31:[RealPower_-1q<0.0209999997] yes=63,no=64,missing=63
						63:leaf=-0.0913140178
						64:leaf=0.0298884157
					32:[RealPower_-19q<0.0209999997] yes=65,no=66,missing=66
						65:leaf=0.536697507
						66:leaf=-0.103545651
				16:[RealPower_-11q<15.5909996] yes=33,no=34,missing=34
					33:[RealPower_-1q<5.11499977] yes=67,no=68,missing=68
						67:leaf=1.35688746
						68:leaf=2.45269179
					34:[RealPower_-1q<5.11499977] yes=69,no=70,missing=70
						69:leaf=-0.00348418346
						70:leaf=0.378132224
			8:[hour<13] yes=17,no=18,missing=18
				17:[RealPower_-1q<19.7900009] yes=35,no=36,missing=36
					35:[RealPower_-1q<14.1660004] yes=71,no=72,missing=72
						71:leaf=3.435045
						72:leaf=4.44470549
					36:[RealPower_-1q<25.7229996] yes=73,no=74,missing=74
						73:leaf=5.6748271
						74:leaf=6.78937244
				18:[RealPower_-1q<19.7900009] yes=37,no=38,missing=38
					37:[RealPower_-1q<14.1660004] yes=75,no=76,missing=76
						75:leaf=1.00817466
						76:leaf=1.8195703
					38:[RealPower_-1q<25.7229996] yes=77,no=78,missing=78
						77:leaf=2.68537378
						78:leaf=3.59214735
		4:[RealPower_-1q<63.9480019] yes=9,no=10,missing=10
			9:[hour<14] yes=19,no=20,missing=20
				19:[RealPower_-1q<45.2130013] yes=39,no=40,missing=40
					39:[RealPower_-1q<39.5309982] yes=79,no=80,missing=80
						79:leaf=8.10315609
						80:leaf=9.59982109
					40:[RealPower_-1q<53.3380013] yes=81,no=82,missing=82
						81:leaf=11.0210781
						82:leaf=12.8487539
				20:[RealPower_-1q<47.2280006] yes=41,no=42,missing=42
					41:[RealPower_-1q<37.6930008] yes=83,no=84,missing=84
						83:leaf=4.46308041
						84:leaf=5.78286409
					42:[RealPower_-1q<55.3919983] yes=85,no=86,missing=86
						85:leaf=7.25255775
						86:leaf=8.64268303
			10:[hour<13] yes=21,no=22,missing=22
				21:[RealPower_-1q<77.7020035] yes=43,no=44,missing=44
					43:[RealPower_-7q<19.8029995] yes=87,no=88,missing=88
						87:leaf=15.9686346
						88:leaf=14.6042118
					44:[RealPower_-1q<90.262001] yes=89,no=90,missing=90
						89:leaf=17.8868408
						90:leaf=19.8214607
				22:[RealPower_-1q<80.0439987] yes=45,no=46,missing=46
					45:[RealPower_-1q<70.8509979] yes=91,no=92,missing=92
						91:leaf=10.0434732
						92:leaf=11.6466274
					46:[RealPower_-24q<59.5779991] yes=93,no=94,missing=94
						93:leaf=15.5776224
						94:leaf=13.5308914
	2:[RealPower_-1q<191.688004] yes=5,no=6,missing=6
		5:[RealPower_-1q<142.75] yes=11,no=12,missing=12
			11:[RealPower_-24q<1.99100006] yes=23,no=24,missing=24
				23:[RealPower_-1q<126.702003] yes=47,no=48,missing=48
					47:[RealPower_-1q<110.871002] yes=95,no=96,missing=96
						95:leaf=21.634491
						96:leaf=23.711832
					48:[RealPower_-6q<82.6829987] yes=97,no=98,missing=98
						97:leaf=27.3085499
						98:leaf=24.9360332
				24:[RealPower_-1q<118.975998] yes=49,no=50,missing=50
					49:[RealPower_-24q<87.6289978] yes=99,no=100,missing=100
						99:leaf=18.684536
						100:leaf=16.6004276
					50:[RealPower_-1q<129.373001] yes=101,no=102,missing=102
						101:leaf=20.2252102
						102:leaf=22.4075298
			12:[RealPower_-1q<164.507996] yes=25,no=26,missing=26
				25:[RealPower_-13q<90.2779999] yes=51,no=52,missing=52
					51:[dayofyear<285] yes=103,no=104,missing=104
						103:leaf=30.6540527
						104:leaf=28.239603
					52:[RealPower_-1q<153.813995] yes=105,no=106,missing=106
						105:leaf=24.6681862
						106:leaf=26.7539539
				26:[RealPower_-19q<59.5779991] yes=53,no=54,missing=54
					53:[RealPower_-1q<178.177994] yes=107,no=108,missing=108
						107:leaf=32.6081123
						108:leaf=34.7188873
					54:[RealPower_-1q<178.177994] yes=109,no=110,missing=110
						109:leaf=28.7034054
						110:leaf=31.2729416
		6:[RealPower_-1q<242.195999] yes=13,no=14,missing=14
			13:[RealPower_-1q<216.968002] yes=27,no=28,missing=28
				27:[RealPower_-17q<47.2410011] yes=55,no=56,missing=56
					55:[RealPower_-1q<202.302994] yes=111,no=112,missing=112
						111:leaf=37.0174828
						112:leaf=39.1686363
					56:[RealPower_-1q<202.302994] yes=113,no=114,missing=114
						113:leaf=33.7603302
						114:leaf=36.3373871
				28:[RealPower_-20q<10.4519997] yes=57,no=58,missing=58
					57:[RealPower_-1q<228.988007] yes=115,no=116,missing=116
						115:leaf=42.0051155
						116:leaf=44.0592918
					58:[RealPower_-1q<228.988007] yes=117,no=118,missing=118
						117:leaf=38.9825516
						118:leaf=41.5690842
			14:[RealPower_-1q<270.463013] yes=29,no=30,missing=30
				29:[RealPower_-1q<253.322006] yes=59,no=60,missing=60
					59:[RealPower_-20q<57.5219994] yes=119,no=120,missing=120
						119:leaf=45.8303413
						120:leaf=43.0964012
					60:[hour<14] yes=121,no=122,missing=122
						121:leaf=47.9277344
						122:leaf=45.7482338
				30:[RealPower_-1q<287.21701] yes=61,no=62,missing=62
					61:[hour<14] yes=123,no=124,missing=124
						123:leaf=50.8240433
						124:leaf=49.0158081
					62:[RealPower_-1q<299.651001] yes=125,no=126,missing=126
						125:leaf=52.859108
						126:leaf=55.1542206
booster[2]:
0:[RealPower_-1q<102.963997] yes=1,no=2,missing=1
	1:[RealPower_-1q<35.9140015] yes=3,no=4,missing=3
		3:[RealPower_-1q<10.4440002] yes=7,no=8,missing=7
			7:[RealPower_-1q<2.57999992] yes=15,no=16,missing=15
				15:[RealPower_-1q<0.843999982] yes=31,no=32,missing=31
					31:[RealPower_-1q<0.134000003] yes=63,no=64,missing=63
						63:leaf=-0.06877397
						64:leaf=0.0566145629
					32:[RealPower_-7q<1.49000001] yes=65,no=66,missing=66
						65:leaf=0.630953789
						66:leaf=-0.0722465366
				16:[RealPower_-20q<9.31799984] yes=33,no=34,missing=34
					33:[RealPower_-1q<5.11499977] yes=67,no=68,missing=68
						67:leaf=1.25390983
						68:leaf=1.95683599
					34:[RealPower_-1q<8.17599964] yes=69,no=70,missing=70
						69:leaf=0.142826542
						70:leaf=0.504620969
			8:[hour<15] yes=17,no=18,missing=18
				17:[RealPower_-1q<24.2150002] yes=35,no=36,missing=36
					35:[RealPower_-1q<18.2929993] yes=71,no=72,missing=72
						71:leaf=2.98305178
						72:leaf=4.02234316
					36:[RealPower_-5q<4.20800018] yes=73,no=74,missing=74
						73:leaf=5.95134306
						74:leaf=4.79370451
				18:[RealPower_-1q<22.7299995] yes=37,no=38,missing=38
					37:[RealPower_-1q<15.5699997] yes=75,no=76,missing=76
						75:leaf=0.878011465
						76:leaf=1.60064673
					38:[RealPower_-1q<27.323] yes=77,no=78,missing=78
						77:leaf=2.26630998
						78:leaf=3.07050419
		4:[RealPower_-1q<68.4199982] yes=9,no=10,missing=10
			9:[RealPower_-23q<24.2450008] yes=19,no=20,missing=20
				19:[RealPower_-1q<53.3380013] yes=39,no=40,missing=40
					39:[RealPower_-11q<0.252000004] yes=79,no=80,missing=80
						79:leaf=8.14731216
						80:leaf=6.69221544
					40:[RealPower_-15q<9.31200027] yes=81,no=82,missing=82
						81:leaf=10.3812799
						82:leaf=8.2783823
				20:[RealPower_-1q<53.3380013] yes=41,no=42,missing=42
					41:[RealPower_-1q<43.1430016] yes=83,no=84,missing=84
						83:leaf=3.96267414
						84:leaf=5.17036819
					42:[clouds_all<43] yes=85,no=86,missing=86
						85:leaf=6.04708099
						86:leaf=7.3619833
			10:[RealPower_-24q<17.0100002] yes=21,no=22,missing=22
				21:[RealPower_-1q<85.1800003] yes=43,no=44,missing=44
					43:[RealPower_-19q<0.00499999989] yes=87,no=88,missing=88
						87:leaf=12.8048906
						88:leaf=11.0572319
					44:[hour<11] yes=89,no=90,missing=90
						89:leaf=15.5190887
						90:leaf=13.5563221
				22:[RealPower_-1q<87.6159973] yes=45,no=46,missing=46
					45:[RealPower_-22q<148.251007] yes=91,no=92,missing=92
						91:leaf=9.6715517
						92:leaf=8.44082546
					46:[hour<17] yes=93,no=94,missing=94
						93:leaf=11.9240675
						94:leaf=10.5541124
	2:[RealPower_-1q<202.302994] yes=5,no=6,missing=6
		5:[RealPower_-1q<153.813995] yes=11,no=12,missing=12
			11:[RealPower_-14q<77.7070007] yes=23,no=24,missing=24
				23:[RealPower_-1q<131.962997] yes=47,no=48,missing=48
					47:[RealPower_-1q<116.280998] yes=95,no=96,missing=96
						95:leaf=17.0125866
						96:leaf=18.6020508
					48:[dayofyear<278] yes=97,no=98,missing=98
						97:leaf=21.9297104
						98:leaf=20.0966377
				24:[RealPower_-1q<129.373001] yes=49,no=50,missing=50
					49:[RealPower_-1q<116.280998] yes=99,no=100,missing=100
						99:leaf=13.3040895
						100:leaf=15.1845055
					50:[RealPower_-1q<139.804001] yes=101,no=102,missing=102
						101:leaf=16.7458
						102:leaf=18.5579548
			12:[RealPower_-1q<178.177994] yes=25,no=26,missing=26
				25:[RealPower_-13q<61.6679993] yes=51,no=52,missing=52
					51:[quarter<4] yes=103,no=104,missing=104
						103:leaf=25.3117619
						104:leaf=23.2269077
					52:[RealPower_-23q<82.7060013] yes=105,no=106,missing=106
						105:leaf=22.2585201
						106:leaf=20.4196815
				26:[hour<15] yes=53,no=54,missing=54
					53:[hour<12] yes=107,no=108,missing=108
						107:leaf=27.6280174
						108:leaf=25.8064823
					54:[hour<16] yes=109,no=110,missing=110
						109:leaf=24.3772907
						110:leaf=22.888958
		6:[RealPower_-1q<249.485001] yes=13,no=14,missing=14
			13:[RealPower_-1q<225.936005] yes=27,no=28,missing=28
				27:[hour<14] yes=55,no=56,missing=56
					55:[RealPower_-1q<213.776993] yes=111,no=112,missing=112
						111:leaf=29.240118
						112:leaf=31.0625172
					56:[hour<16] yes=113,no=114,missing=114
						113:leaf=28.0672493
						114:leaf=26.2085171
				28:[RealPower_-21q<57.5229988] yes=57,no=58,missing=58
					57:[RealPower_-1q<235.792007] yes=115,no=116,missing=116
						115:leaf=32.4802818
						116:leaf=34.0002785
					58:[RealPower_-1q<235.792007] yes=117,no=118,missing=118
						117:leaf=30.2395248
						118:leaf=31.9629517
			14:[RealPower_-1q<273.859009] yes=29,no=30,missing=30
				29:[hour<14] yes=59,no=60,missing=60
					59:[RealPower_-1q<267.02301] yes=119,no=120,missing=120
						119:leaf=35.9493141
						120:leaf=37.5442162
					60:[RealPower_-1q<263.608002] yes=121,no=122,missing=122
						121:leaf=33.9091454
						122:leaf=35.8230782
				30:[RealPower_-1q<292.157013] yes=61,no=62,missing=62
					61:[RealPower_-1q<282.68399] yes=123,no=124,missing=124
						123:leaf=38.1697998
						124:leaf=39.5078125
					62:[RealPower_-1q<299.651001] yes=125,no=126,missing=126
						125:leaf=40.7589035
						126:leaf=41.9184113
booster[3]:
0:[RealPower_-1q<95.3069992] yes=1,no=2,missing=1
	1:[RealPower_-1q<29.0039997] yes=3,no=4,missing=3
		3:[RealPower_-1q<9.30599976] yes=7,no=8,missing=7
			7:[RealPower_-1q<1.09200001] yes=15,no=16,missing=15
				15:[RealPower_-1q<0.252000004] yes=31,no=32,missing=31
					31:[RealPower_-2q<0.368999988] yes=63,no=64,missing=63
						63:leaf=-0.050158646
						64:leaf=-0.140246734
					32:[RealPower_-2q<0.135000005] yes=65,no=66,missing=66
						65:leaf=0.274722606
						66:leaf=-0.030905474
				16:[hour<16] yes=33,no=34,missing=34
					33:[RealPower_-1q<4.20699978] yes=67,no=68,missing=68
						67:leaf=0.656752944
						68:leaf=1.3489486
					34:[RealPower_-1q<6.05900002] yes=69,no=70,missing=70
						69:leaf=-0.00859432667
						70:leaf=0.253496349
			8:[RealPower_-14q<1.09599996] yes=17,no=18,missing=18
				17:[RealPower_-1q<19.7900009] yes=35,no=36,missing=36
					35:[clouds_all_-1h<90] yes=71,no=72,missing=72
						71:leaf=2.509305
						72:leaf=1.72111118
					36:[RealPower_-4q<6.06400013] yes=73,no=74,missing=74
						73:leaf=3.8412931
						74:leaf=2.90233374
				18:[RealPower_-1q<18.2929993] yes=37,no=38,missing=38
					37:[RealPower_-21q<113.612999] yes=75,no=76,missing=76
						75:leaf=1.23777962
						76:leaf=0.625677049
					38:[clouds_all_-1h<43] yes=77,no=78,missing=78
						77:leaf=1.32554686
						78:leaf=1.88857424
		4:[RealPower_-1q<61.6529999] yes=9,no=10,missing=10
			9:[RealPower_-24q<45.2410011] yes=19,no=20,missing=20
				19:[RealPower_-1q<45.2130013] yes=39,no=40,missing=40
					39:[RealPower_-8q<0.505999982] yes=79,no=80,missing=80
						79:leaf=5.43041086
						80:leaf=4.29784298
					40:[RealPower_-11q<0.505999982] yes=81,no=82,missing=82
						81:leaf=7.4038949
						82:leaf=5.98838806
				20:[RealPower_-1q<45.2130013] yes=41,no=42,missing=42
					41:[RealPower_-7q<97.7979965] yes=83,no=84,missing=84
						83:leaf=3.29283094
						84:leaf=2.45962834
					42:[clouds_all<43] yes=85,no=86,missing=86
						85:leaf=3.80507159
						86:leaf=4.77810574
			10:[RealPower_-20q<59.5779991] yes=21,no=22,missing=22
				21:[RealPower_-1q<73.189003] yes=43,no=44,missing=44
					43:[RealPower_-4q<39.5340004] yes=87,no=88,missing=88
						87:leaf=8.93154812
						88:leaf=7.7405777
					44:[RealPower_-19q<0.061999999] yes=89,no=90,missing=90
						89:leaf=10.6189051
						90:leaf=9.12465954
				22:[RealPower_-1q<75.4260025] yes=45,no=46,missing=46
					45:[clouds_all<43] yes=91,no=92,missing=92
						91:leaf=5.25964117
						92:leaf=6.22228575
					46:[RealPower_-1q<87.6159973] yes=93,no=94,missing=94
						93:leaf=7.0784688
						94:leaf=8.22226429
	2:[RealPower_-1q<191.688004] yes=5,no=6,missing=6
		5:[RealPower_-1q<136.994995] yes=11,no=12,missing=12
			11:[hour<14] yes=23,no=24,missing=24
				23:[RealPower_-1q<116.280998] yes=47,no=48,missing=48
					47:[hour<11] yes=95,no=96,missing=96
						95:leaf=13.1838045
						96:leaf=11.2783146
					48:[dayofyear<296] yes=97,no=98,missing=98
						97:leaf=14.8099031
						98:leaf=13.1638355
				24:[RealPower_-1q<116.280998] yes=49,no=50,missing=50
					49:[RealPower_-24q<172.723007] yes=99,no=100,missing=100
						99:leaf=10.1712608
						100:leaf=8.89328575
					50:[hour<17] yes=101,no=102,missing=102
						101:leaf=12.0332842
						102:leaf=10.5900927
			12:[RealPower_-1q<167.201996] yes=25,no=26,missing=26
				25:[RealPower_-23q<6.93999984e-18] yes=51,no=52,missing=52
					51:[dayofyear<255] yes=103,no=104,missing=104
						103:leaf=18.1298428
						104:leaf=16.6987247
					52:[RealPower_-22q<82.7060013] yes=105,no=106,missing=106
						105:leaf=15.6365147
						106:leaf=13.9581041
				26:[RealPower_-6q<126.709] yes=53,no=54,missing=54
					53:[dayofyear<295] yes=107,no=108,missing=108
						107:leaf=20.6794186
						108:leaf=18.0853901
					54:[hour<16] yes=109,no=110,missing=110
						109:leaf=18.3614521
						110:leaf=16.3526459
		6:[RealPower_-1q<242.195999] yes=13,no=14,missing=14
			13:[RealPower_-1q<216.968002] yes=27,no=28,missing=28
				27:[RealPower_-11q<82.6949997] yes=55,no=56,missing=56
					55:[temp_-12h<17.7800007] yes=111,no=112,missing=112
						111:leaf=21.0307522
						112:leaf=22.9374847
					56:[hour<15] yes=113,no=114,missing=114
						113:leaf=21.0996399
						114:leaf=19.4131813
				28:[hour<12] yes=57,no=58,missing=58
					57:[RealPower_-1q<232.085007] yes=115,no=116,missing=116
						115:leaf=24.7356205
						116:leaf=25.8386211
					58:[RealPower_-1q<232.085007] yes=117,no=118,missing=118
						117:leaf=22.7326832
						118:leaf=24.2103291
			14:[RealPower_-1q<273.859009] yes=29,no=30,missing=30
				29:[RealPower_-1q<256.860992] yes=59,no=60,missing=60
					59:[RealPower_-19q<22.7450008] yes=119,no=120,missing=120
						119:leaf=27.0853558
						120:leaf=25.1852684
					60:[RealPower_-23q<2.58899999] yes=121,no=122,missing=122
						121:leaf=28.5436878
						122:leaf=27.1964474
				30:[RealPower_-1q<292.157013] yes=61,no=62,missing=62
					61:[hour<13] yes=123,no=124,missing=124
						123:leaf=30.288805
						124:leaf=28.9498253
					62:[RealPower_-24q<29.0330009] yes=125,no=126,missing=126
						125:leaf=31.777771
						126:leaf=30.7073956
booster[4]:
0:[RealPower_-1q<100.334] yes=1,no=2,missing=1
	1:[RealPower_-1q<34.0649986] yes=3,no=4,missing=3
		3:[RealPower_-1q<12.8570004] yes=7,no=8,missing=7
			7:[RealPower_-1q<2.57999992] yes=15,no=16,missing=15
				15:[RealPower_-1q<0.843999982] yes=31,no=32,missing=31
					31:[RealPower_-2q<0.843999982] yes=63,no=64,missing=63
						63:leaf=-0.0350277871
						64:leaf=-0.142362341
					32:[RealPower_-2q<0.252000004] yes=65,no=66,missing=66
						65:leaf=0.770025373
						66:leaf=0.0898640081
				16:[RealPower_-18q<34.0890007] yes=33,no=34,missing=34
					33:[year<2017] yes=67,no=68,missing=68
						67:leaf=1.34374726
						68:leaf=0.827418923
					34:[RealPower_-1q<7.06799984] yes=69,no=70,missing=70
						69:leaf=0.0556178652
						70:leaf=0.273271471
			8:[hour<12] yes=17,no=18,missing=18
				17:[RealPower_-1q<25.7229996] yes=35,no=36,missing=36
					35:[clouds_all_-2h<90] yes=71,no=72,missing=72
						71:leaf=2.38684607
						72:leaf=1.5153749
					36:[RealPower_-4q<11.684] yes=73,no=74,missing=74
						73:leaf=3.43824124
						74:leaf=2.68820405
				18:[RealPower_-1q<24.2150002] yes=37,no=38,missing=38
					37:[RealPower_-10q<113.602997] yes=75,no=76,missing=76
						75:leaf=1.14964283
						76:leaf=0.712818623
					38:[RealPower_-5q<66.2190018] yes=77,no=78,missing=78
						77:leaf=2.01409984
						78:leaf=1.35195005
		4:[RealPower_-1q<63.9480019] yes=9,no=10,missing=10
			9:[RealPower_-19q<18.3139992] yes=19,no=20,missing=20
				19:[RealPower_-1q<47.2280006] yes=39,no=40,missing=40
					39:[RealPower_-8q<0.505999982] yes=79,no=80,missing=80
						79:leaf=4.59076166
						80:leaf=3.60460806
					40:[RealPower_-1q<57.4819984] yes=81,no=82,missing=82
						81:leaf=5.16542292
						82:leaf=6.12950706
				20:[RealPower_-1q<49.2280006] yes=41,no=42,missing=42
					41:[RealPower_-24q<124.071999] yes=83,no=84,missing=84
						83:leaf=3.20738101
						84:leaf=2.16790748
					42:[clouds_all<43] yes=85,no=86,missing=86
						85:leaf=3.16975474
						86:leaf=3.96131372
			10:[RealPower_-19q<63.9679985] yes=21,no=22,missing=22
				21:[RealPower_-1q<80.0439987] yes=43,no=44,missing=44
					43:[clouds_all_-3h<75] yes=87,no=88,missing=88
						87:leaf=7.26726151
						88:leaf=6.17756081
					44:[year<2017] yes=89,no=90,missing=90
						89:leaf=8.84872437
						90:leaf=7.80740833
				22:[RealPower_-1q<82.6750031] yes=45,no=46,missing=46
					45:[hour<18] yes=91,no=92,missing=92
						91:leaf=4.91303205
						92:leaf=3.80968785
					46:[temp_-11h<16.4599991] yes=93,no=94,missing=94
						93:leaf=5.49774218
						94:leaf=6.55681086
	2:[RealPower_-1q<196.970001] yes=5,no=6,missing=6
		5:[RealPower_-1q<150.983002] yes=11,no=12,missing=12
			11:[RealPower_-23q<0.0209999997] yes=23,no=24,missing=24
				23:[RealPower_-1q<124.042] yes=47,no=48,missing=48
					47:[dayofyear<285] yes=95,no=96,missing=96
						95:leaf=10.6901817
						96:leaf=9.13568974
					48:[dayofyear<45] yes=97,no=98,missing=98
						97:leaf=10.533287
						98:leaf=12.3006268
				24:[RealPower_-1q<121.403999] yes=49,no=50,missing=50
					49:[RealPower_-20q<105.622002] yes=99,no=100,missing=100
						99:leaf=8.72946548
						100:leaf=7.38863897
					50:[hour<16] yes=101,no=102,missing=102
						101:leaf=10.3179016
						102:leaf=9.0248642
			12:[RealPower_-15q<85.1989975] yes=25,no=26,missing=26
				25:[RealPower_-1q<183.559998] yes=51,no=52,missing=52
					51:[dayofyear<296] yes=103,no=104,missing=104
						103:leaf=14.5384903
						104:leaf=13.0462379
					52:[dayofyear<263] yes=105,no=106,missing=106
						105:leaf=16.4155064
						106:leaf=14.7359295
				26:[RealPower_-1q<172.718994] yes=53,no=54,missing=54
					53:[RealPower_-24q<121.441002] yes=107,no=108,missing=108
						107:leaf=12.2415924
						108:leaf=11.216423
					54:[RealPower_-24q<105.625999] yes=109,no=110,missing=110
						109:leaf=14.2379055
						110:leaf=12.9752417
		6:[RealPower_-1q<245.725998] yes=13,no=14,missing=14
			13:[RealPower_-1q<219.981003] yes=27,no=28,missing=28
				27:[RealPower_-15q<53.355999] yes=55,no=56,missing=56
					55:[dayofyear<288] yes=111,no=112,missing=112
						111:leaf=17.6491566
						112:leaf=15.6496105
					56:[RealPower_-1q<207.757004] yes=113,no=114,missing=114
						113:leaf=15.192873
						114:leaf=16.4324093
				28:[hour<15] yes=57,no=58,missing=58
					57:[RealPower_-14q<55.4129982] yes=115,no=116,missing=116
						115:leaf=19.4394875
						116:leaf=18.417963
					58:[RealPower_-1q<235.792007] yes=117,no=118,missing=118
						117:leaf=16.4695702
						118:leaf=17.620388
			14:[RealPower_-1q<277.839996] yes=29,no=30,missing=30
				29:[RealPower_-1q<263.608002] yes=59,no=60,missing=60
					59:[RealPower_-19q<41.4570007] yes=119,no=120,missing=120
						119:leaf=20.8085938
						120:leaf=19.5345516
					60:[hour<12] yes=121,no=122,missing=122
						121:leaf=22.5151863
						122:leaf=21.2334099
				30:[hour<14] yes=61,no=62,missing=62
					61:[RealPower_-1q<299.651001] yes=123,no=124,missing=124
						123:leaf=23.1712132
						124:leaf=24.4996395
					62:leaf=22.0578671
booster[5]:
0:[RealPower_-1q<108.124001] yes=1,no=2,missing=1
	1:[RealPower_-1q<39.5309982] yes=3,no=4,missing=3
		3:[RealPower_-1q<14.1660004] yes=7,no=8,missing=7
			7:[RealPower_-1q<3.35299993] yes=15,no=16,missing=15
				15:[RealPower_-1q<0.368999988] yes=31,no=32,missing=31
					31:[RealPower_-3q<1.49000001] yes=63,no=64,missing=63
						63:leaf=-0.0288846474
						64:leaf=-0.0826613903
					32:[RealPower_-4q<0.368999988] yes=65,no=66,missing=66
						65:leaf=0.241908759
						66:leaf=-0.0801356435
				16:[RealPower_-8q<0.0209999997] yes=33,no=34,missing=34
					33:[RealPower_-1q<7.06799984] yes=67,no=68,missing=68
						67:leaf=0.65290904
						68:leaf=1.12687874
					34:[RealPower_-23q<159.143005] yes=69,no=70,missing=70
						69:leaf=0.367959082
						70:leaf=0.107328624
			8:[RealPower_-23q<92.7210007] yes=17,no=18,missing=18
				17:[RealPower_-1q<27.323] yes=35,no=36,missing=36
					35:[RealPower_-5q<1.09300005] yes=71,no=72,missing=72
						71:leaf=2.03982735
						72:leaf=1.35661602
					36:[RealPower_-5q<12.8579998] yes=73,no=74,missing=74
						73:leaf=2.77134395
						74:leaf=2.01330543
				18:[RealPower_-1q<25.7229996] yes=37,no=38,missing=38
					37:[RealPower_-10q<90.2779999] yes=75,no=76,missing=76
						75:leaf=1.13605535
						76:leaf=0.60080421
					38:[RealPower_-4q<66.2109985] yes=77,no=78,missing=78
						77:leaf=1.60622501
						78:leaf=0.973642945
		4:[RealPower_-1q<73.189003] yes=9,no=10,missing=10
			9:[RealPower_-15q<14.1800003] yes=19,no=20,missing=20
				19:[RealPower_-1q<55.3919983] yes=39,no=40,missing=40
					39:[RealPower_-8q<1.49100006] yes=79,no=80,missing=80
						79:leaf=4.1177702
						80:leaf=3.1960113
					40:[year<2017] yes=81,no=82,missing=82
						81:leaf=5.21769381
						82:leaf=4.49493837
				20:[RealPower_-1q<55.3919983] yes=41,no=42,missing=42
					41:[RealPower_-24q<61.6769981] yes=83,no=84,missing=84
						83:leaf=2.93171167
						84:leaf=2.03565073
					42:[RealPower_-23q<121.426003] yes=85,no=86,missing=86
						85:leaf=3.60869241
						86:leaf=2.8437171
			10:[RealPower_-20q<0.65200001] yes=21,no=22,missing=22
				21:[RealPower_-1q<87.6159973] yes=43,no=44,missing=44
					43:[clouds_all_-3h<75] yes=87,no=88,missing=88
						87:leaf=6.02755594
						88:leaf=5.43511009
					44:[dayofyear<253] yes=89,no=90,missing=90
						89:leaf=7.44269228
						90:leaf=6.33146524
				22:[RealPower_-1q<90.262001] yes=45,no=46,missing=46
					45:[temp_-12h<16.4599991] yes=91,no=92,missing=92
						91:leaf=3.4210484
						92:leaf=4.48235607
					46:[RealPower_-2q<100.334] yes=93,no=94,missing=94
						93:leaf=6.24287081
						94:leaf=5.02967262
	2:[RealPower_-1q<207.757004] yes=5,no=6,missing=6
		5:[RealPower_-1q<161.740997] yes=11,no=12,missing=12
			11:[RealPower_-1q<134.451996] yes=23,no=24,missing=24
				23:[RealPower_-11q<59.5600014] yes=47,no=48,missing=48
					47:[dayofyear<309] yes=95,no=96,missing=96
						95:leaf=8.55038738
						96:leaf=7.3065896
					48:[hour<17] yes=97,no=98,missing=98
						97:leaf=6.87440252
						98:leaf=5.69446421
				24:[RealPower_-23q<6.93999984e-18] yes=49,no=50,missing=50
					49:[feels_like<14.9399996] yes=99,no=100,missing=100
						99:leaf=9.30336571
						100:leaf=10.3644295
					50:[hour<17] yes=101,no=102,missing=102
						101:leaf=8.42017365
						102:leaf=6.88252592
			12:[hour<13] yes=25,no=26,missing=26
				25:[temp_-7h<16.3400002] yes=51,no=52,missing=52
					51:[RealPower_-1q<188.759995] yes=103,no=104,missing=104
						103:leaf=10.3778934
						104:leaf=11.5890932
					52:[dayofyear<256] yes=105,no=106,missing=106
						105:leaf=12.7519531
						106:leaf=11.3472834
				26:[RealPower_-1q<186.181] yes=53,no=54,missing=54
					53:[RealPower_-24q<116.297997] yes=107,no=108,missing=108
						107:leaf=10.11444
						108:leaf=9.08360958
					54:[RealPower_-16q<238.848999] yes=109,no=110,missing=110
						109:leaf=11.5806446
						110:leaf=10.4187212
		6:[RealPower_-1q<256.860992] yes=13,no=14,missing=14
			13:[RealPower_-1q<232.085007] yes=27,no=28,missing=28
				27:[RealPower_-16q<90.2860031] yes=55,no=56,missing=56
					55:[month<3] yes=111,no=112,missing=112
						111:leaf=12.8130131
						112:leaf=14.0900583
					56:[feels_like_-12h<17.6200008] yes=113,no=114,missing=114
						113:leaf=11.8404961
						114:leaf=12.8563671
				28:[hour<15] yes=57,no=58,missing=58
					57:[dayofyear<78] yes=115,no=116,missing=116
						115:leaf=14.1415796
						116:leaf=15.2189884
					58:[feels_like_-12h<16.7999992] yes=117,no=118,missing=118
						117:leaf=12.9953995
						118:leaf=13.7487717
			14:[RealPower_-1q<282.68399] yes=29,no=30,missing=30
				29:[hour<13] yes=59,no=60,missing=60
					59:[RealPower_-1q<267.02301] yes=119,no=120,missing=120
						119:leaf=16.1977196
						120:leaf=17.0230732
					60:[RealPower_-1q<267.02301] yes=121,no=122,missing=122
						121:leaf=15.3237085
						122:leaf=16.112606
				30:[hour<14] yes=61,no=62,missing=62
					61:[RealPower_-1q<292.157013] yes=123,no=124,missing=124
						123:leaf=17.6410084
						124:leaf=18.3867168
					62:leaf=17.0495777
booster[6]:
0:[RealPower_-1q<105.608002] yes=1,no=2,missing=1
	1:[RealPower_-1q<32.3499985] yes=3,no=4,missing=3
		3:[RealPower_-1q<10.4440002] yes=7,no=8,missing=7
			7:[RealPower_-1q<1.09200001] yes=15,no=16,missing=15
				15:[RealPower_-1q<0.0209999997] yes=31,no=32,missing=31
					31:[RealPower_-3q<0.504999995] yes=63,no=64,missing=63
						63:leaf=-0.0240597874
						64:leaf=-0.0420039818
					32:[RealPower_-2q<-0.00400000019] yes=65,no=66,missing=66
						65:leaf=0.34701255
						66:leaf=0.000686916406
				16:[hour<16] yes=33,no=34,missing=34
					33:[year<2017] yes=67,no=68,missing=68
						67:leaf=0.729099095
						68:leaf=0.281677574
					34:[RealPower_-1q<4.20699978] yes=69,no=70,missing=70
						69:leaf=-0.0647876486
						70:leaf=0.0832138807
			8:[RealPower_-18q<61.6679993] yes=17,no=18,missing=18
				17:[RealPower_-1q<21.2520008] yes=35,no=36,missing=36
					35:[RealPower_-4q<1.49000001] yes=71,no=72,missing=72
						71:leaf=1.27563727
						72:leaf=0.730854571
					36:[clouds_all<90] yes=73,no=74,missing=74
						73:leaf=1.887357
						74:leaf=1.21227658
				18:[RealPower_-1q<21.2520008] yes=37,no=38,missing=38
					37:[RealPower_-20q<183.585007] yes=75,no=76,missing=76
						75:leaf=0.509852648
						76:leaf=0.261427909
					38:[RealPower_-5q<61.6539993] yes=77,no=78,missing=78
						77:leaf=1.11741173
						78:leaf=0.659772694
		4:[RealPower_-1q<70.8509979] yes=9,no=10,missing=10
			9:[RealPower_-24q<66.2450027] yes=19,no=20,missing=20
				19:[RealPower_-1q<51.2900009] yes=39,no=40,missing=40
					39:[RealPower_-13q<0.0610000007] yes=79,no=80,missing=80
						79:leaf=2.59596038
						80:leaf=1.906039
					40:[RealPower_-10q<0.0209999997] yes=81,no=82,missing=82
						81:leaf=4.03745317
						82:leaf=3.01821089
				20:[RealPower_-1q<55.3919983] yes=41,no=42,missing=42
					41:[clouds_all_-2h<75] yes=83,no=84,missing=84
						83:leaf=1.03019154
						84:leaf=1.64173436
					42:[feels_like_-8h<19.1000004] yes=85,no=86,missing=86
						85:leaf=1.9552635
						86:leaf=2.73053622
			10:[hour<15] yes=21,no=22,missing=22
				21:[RealPower_-1q<90.262001] yes=43,no=44,missing=44
					43:[year<2017] yes=87,no=88,missing=88
						87:leaf=4.72570229
						88:leaf=3.82245469
					44:[dayofyear<315] yes=89,no=90,missing=90
						89:leaf=5.54455948
						90:leaf=3.94418979
				22:[feels_like_-5h<14.7700005] yes=45,no=46,missing=46
					45:[temp_min_-2h<11.3299999] yes=91,no=92,missing=92
						91:leaf=2.00363755
						92:leaf=2.73197699
					46:[hour<17] yes=93,no=94,missing=94
						93:leaf=4.12165785
						94:leaf=2.93249822
	2:[RealPower_-1q<194.397995] yes=5,no=6,missing=6
		5:[RealPower_-1q<148.240997] yes=11,no=12,missing=12
			11:[RealPower_-11q<47.2360001] yes=23,no=24,missing=24
				23:[RealPower_-1q<124.042] yes=47,no=48,missing=48
					47:[month<12] yes=95,no=96,missing=96
						95:leaf=6.2212019
						96:leaf=4.86664438
					48:[dayofyear<54] yes=97,no=98,missing=98
						97:leaf=5.91689682
						98:leaf=7.24493694
				24:[RealPower_-1q<129.373001] yes=49,no=50,missing=50
					49:[temp_-4h<14.6300001] yes=99,no=100,missing=100
						99:leaf=4.25120354
						100:leaf=5.10805368
					50:[feels_like_-11h<15.9700003] yes=101,no=102,missing=102
						101:leaf=5.09049845
						102:leaf=6.06286716
			12:[RealPower_-17q<126.724998] yes=25,no=26,missing=26
				25:[dayofyear<55] yes=51,no=52,missing=52
					51:[RealPower_-1q<164.507996] yes=103,no=104,missing=104
						103:leaf=6.41165257
						104:leaf=7.5915494
					52:[dayofyear<253] yes=105,no=106,missing=106
						105:leaf=9.37255573
						106:leaf=7.66376781
				26:[RealPower_-1q<169.917007] yes=53,no=54,missing=54
					53:[RealPower_-1q<156.451996] yes=107,no=108,missing=108
						107:leaf=6.02890396
						108:leaf=6.68107653
					54:[RealPower_-16q<238.848999] yes=109,no=110,missing=110
						109:leaf=8.06293392
						110:leaf=7.19865417
		6:[RealPower_-1q<242.195999] yes=13,no=14,missing=14
			13:[RealPower_-1q<210.647003] yes=27,no=28,missing=28
				27:[RealPower_-8q<105.613998] yes=55,no=56,missing=56
					55:[wind_deg_-2h<190] yes=111,no=112,missing=112
						111:leaf=9.74304962
						112:leaf=10.8262272
					56:[hour<15] yes=113,no=114,missing=114
						113:leaf=9.20927334
						114:leaf=8.23535824
				28:[hour<14] yes=57,no=58,missing=58
					57:[month<3] yes=115,no=116,missing=116
						115:leaf=9.91927147
						116:leaf=10.9014301
					58:[RealPower_-1q<225.936005] yes=117,no=118,missing=118
						117:leaf=9.33510303
						118:leaf=10.0770369
			14:[RealPower_-1q<267.02301] yes=29,no=30,missing=30
				29:[RealPower_-21q<110.897003] yes=59,no=60,missing=60
					59:[dayofyear<65] yes=119,no=120,missing=120
						119:leaf=10.8384342
						120:leaf=12.0315399
					60:[clouds_all_-1h<43] yes=121,no=122,missing=122
						121:leaf=11.3421402
						122:leaf=10.634059
				30:[RealPower_-1q<282.68399] yes=61,no=62,missing=62
					61:[hour<12] yes=123,no=124,missing=124
						123:leaf=13.4576206
						124:leaf=12.3793831
					62:[hour<13] yes=125,no=126,missing=126
						125:leaf=14.0018129
						126:leaf=13.2781181
booster[7]:
0:[RealPower_-1q<92.7109985] yes=1,no=2,missing=1
	1:[RealPower_-1q<30.7490005] yes=3,no=4,missing=3
		3:[RealPower_-1q<8.17599964] yes=7,no=8,missing=7
			7:[RealPower_-1q<1.49000001] yes=15,no=16,missing=15
				15:[RealPower_-1q<0.0209999997] yes=31,no=32,missing=31
					31:[RealPower_-3q<0.252000004] yes=63,no=64,missing=63
						63:leaf=-0.0182500873
						64:leaf=-0.0313022137
					32:[RealPower_-2q<0.252000004] yes=65,no=66,missing=66
						65:leaf=0.102940209
						66:leaf=-0.0558540709
				16:[RealPower_-3q<0.252000004] yes=33,no=34,missing=34
					33:[RealPower_-1q<4.20699978] yes=67,no=68,missing=68
						67:leaf=0.416093409
						68:leaf=0.902182519
					34:[RealPower_-8q<32.3580017] yes=69,no=70,missing=70
						69:leaf=0.172125891
						70:leaf=-0.0143712293
			8:[RealPower_-10q<0.0209999997] yes=17,no=18,missing=18
				17:[RealPower_-1q<18.2929993] yes=35,no=36,missing=36
					35:[clouds_all<43] yes=71,no=72,missing=72
						71:leaf=1.01851988
						72:leaf=0.523014426
					36:[humidity_-3h<63] yes=73,no=74,missing=74
						73:leaf=2.02237868
						74:leaf=1.23054314
				18:[RealPower_-1q<21.2520008] yes=37,no=38,missing=38
					37:[RealPower_-1q<15.5699997] yes=75,no=76,missing=76
						75:leaf=0.167879
						76:leaf=0.364136428
					38:[clouds_all<40] yes=77,no=78,missing=78
						77:leaf=0.317149103
						78:leaf=0.744651616
		4:[RealPower_-1q<59.5550003] yes=9,no=10,missing=10
			9:[RealPower_-15q<0.135000005] yes=19,no=20,missing=20
				19:[RealPower_-1q<43.1430016] yes=39,no=40,missing=40
					39:[clouds_all_-3h<75] yes=79,no=80,missing=80
						79:leaf=1.95210218
						80:leaf=1.34354055
					40:[RealPower_-2q<45.2130013] yes=81,no=82,missing=82
						81:leaf=2.55276489
						82:leaf=1.91417372
				20:[RealPower_-1q<41.4399986] yes=41,no=42,missing=42
					41:[humidity_-1h<69] yes=83,no=84,missing=84
						83:leaf=0.431879878
						84:leaf=0.97841388
					42:[RealPower_-2q<57.4819984] yes=85,no=86,missing=86
						85:leaf=1.8574264
						86:leaf=1.1942445
			10:[RealPower_-18q<77.7109985] yes=21,no=22,missing=22
				21:[RealPower_-3q<113.595001] yes=43,no=44,missing=44
					43:[RealPower_-8q<25.7259998] yes=87,no=88,missing=88
						87:leaf=3.30090165
						88:leaf=2.43015122
					44:leaf=6.23459339
				22:[RealPower_-6q<183.578995] yes=45,no=46,missing=46
					45:[RealPower_-1q<77.7020035] yes=89,no=90,missing=90
						89:leaf=1.73384297
						90:leaf=2.33743858
					46:leaf=3.22046566
	2:[RealPower_-1q<188.759995] yes=5,no=6,missing=6
		5:[RealPower_-1q<142.75] yes=11,no=12,missing=12
			11:[RealPower_-20q<105.622002] yes=23,no=24,missing=24
				23:[dayofyear<279] yes=47,no=48,missing=48
					47:[dayofyear<44] yes=91,no=92,missing=92
						91:leaf=3.67236948
						92:leaf=5.11416149
					48:[RealPower_-12q<0.252000004] yes=93,no=94,missing=94
						93:leaf=5.28267717
						94:leaf=3.65213752
				24:[RealPower_-1q<113.595001] yes=49,no=50,missing=50
					49:[RealPower_-6q<148.240997] yes=95,no=96,missing=96
						95:leaf=3.78401399
						96:leaf=2.80160069
					50:[dayofyear<71] yes=97,no=98,missing=98
						97:leaf=3.1081593
						98:leaf=3.81271553
			12:[hour<12] yes=25,no=26,missing=26
				25:[RealPower_-1q<164.507996] yes=51,no=52,missing=52
					51:[year<2018] yes=99,no=100,missing=100
						99:leaf=6.13984919
						100:leaf=5.16493177
					52:[dayofyear<51] yes=101,no=102,missing=102
						101:leaf=5.85171318
						102:leaf=6.96286106
				26:[RealPower_-1q<167.201996] yes=53,no=54,missing=54
					53:[RealPower_-2q<150.983002] yes=103,no=104,missing=104
						103:leaf=5.94947672
						104:leaf=4.81281567
					54:[temp_-11h<15.8699999] yes=105,no=106,missing=106
						105:leaf=4.96654034
						106:leaf=5.96691418
		6:[RealPower_-1q<238.847] yes=13,no=14,missing=14
			13:[hour<15] yes=27,no=28,missing=28
				27:[dayofyear<64] yes=55,no=56,missing=56
					55:[RealPower_-1q<213.776993] yes=107,no=108,missing=108
						107:leaf=6.25517845
						108:leaf=7.52425861
					56:[dayofyear<232] yes=109,no=110,missing=110
						109:leaf=8.43062496
						110:leaf=7.23725939
				28:[RealPower_-1q<210.647003] yes=57,no=58,missing=58
					57:[year<2018] yes=111,no=112,missing=112
						111:leaf=5.9180932
						112:leaf=7.09235382
					58:[temp_-12h<16.9300003] yes=113,no=114,missing=114
						113:leaf=6.40051794
						114:leaf=7.24827814
			14:[RealPower_-1q<267.02301] yes=29,no=30,missing=30
				29:[RealPower_-18q<19.8099995] yes=59,no=60,missing=60
					59:[temp_-12h<18.4799995] yes=115,no=116,missing=116
						115:leaf=8.55524731
						116:leaf=9.61305428
					60:[RealPower_-1q<253.322006] yes=117,no=118,missing=118
						117:leaf=8.22548866
						118:leaf=8.91037369
				30:[RealPower_-3q<238.847] yes=61,no=62,missing=62
					61:leaf=7.96491814
					62:[RealPower_-1q<292.157013] yes=119,no=120,missing=120
						119:leaf=9.80046558
						120:leaf=10.6893435
booster[8]:
0:[RealPower_-1q<108.124001] yes=1,no=2,missing=1
	1:[RealPower_-1q<39.5309982] yes=3,no=4,missing=3
		3:[RealPower_-1q<15.5699997] yes=7,no=8,missing=7
			7:[RealPower_-1q<4.20699978] yes=15,no=16,missing=15
				15:[RealPower_-1q<0.648000002] yes=31,no=32,missing=31
					31:[RealPower_-2q<1.49000001] yes=63,no=64,missing=63
						63:leaf=-0.0124537563
						64:leaf=-0.0938560143
					32:[RealPower_-3q<0.0599999987] yes=65,no=66,missing=66
						65:leaf=0.301743865
						66:leaf=-0.0137407556
				16:[RealPower_-7q<0.00999999978] yes=33,no=34,missing=34
					33:[feels_like<14.4200001] yes=67,no=68,missing=68
						67:leaf=0.806617618
						68:leaf=0.390087366
					34:[year<2017] yes=69,no=70,missing=70
						69:leaf=-0.0103969732
						70:leaf=0.178823233
			8:[hour<10] yes=17,no=18,missing=18
				17:[clouds_all<43] yes=35,no=36,missing=36
					35:[humidity<70] yes=71,no=72,missing=72
						71:leaf=1.76014352
						72:leaf=1.13453329
					36:[temp_min_-1h<13.5699997] yes=73,no=74,missing=74
						73:leaf=1.34551311
						74:leaf=0.736690879
				18:[humidity<61] yes=37,no=38,missing=38
					37:[clouds_all_-2h<40] yes=75,no=76,missing=76
						75:leaf=-0.0170160718
						76:leaf=0.27881512
					38:[RealPower_-23q<129.386002] yes=77,no=78,missing=78
						77:leaf=0.706195354
						78:leaf=0.449090779
		4:[RealPower_-1q<77.7020035] yes=9,no=10,missing=10
			9:[RealPower_-24q<87.6289978] yes=19,no=20,missing=20
				19:[RealPower_-1q<61.6529999] yes=39,no=40,missing=40
					39:[RealPower_-10q<2.58400011] yes=79,no=80,missing=80
						79:leaf=1.87163448
						80:leaf=1.31129956
					40:[year<2017] yes=81,no=82,missing=82
						81:leaf=2.50581288
						82:leaf=1.80501521
				20:[RealPower_-9q<216.968002] yes=41,no=42,missing=42
					41:[feels_like_-6h<14.54] yes=83,no=84,missing=84
						83:leaf=0.475680053
						84:leaf=1.19281054
					42:leaf=2.19796038
			10:[RealPower_-18q<0.061999999] yes=21,no=22,missing=22
				21:[year<2017] yes=43,no=44,missing=44
					43:[wind_speed_-2h<2.56999993] yes=85,no=86,missing=86
						85:leaf=3.60285568
						86:leaf=2.7963593
					44:[dayofyear<276] yes=87,no=88,missing=88
						87:leaf=2.97843528
						88:leaf=2.13558245
				22:[RealPower_-5q<186.181] yes=45,no=46,missing=46
					45:[temp_min_-3h<14.6700001] yes=89,no=90,missing=90
						89:leaf=1.58372438
						90:leaf=2.32307625
					46:leaf=3.74948907
	2:[RealPower_-1q<205.098999] yes=5,no=6,missing=6
		5:[RealPower_-1q<156.451996] yes=11,no=12,missing=12
			11:[RealPower_-24q<49.2550011] yes=23,no=24,missing=24
				23:[dayofyear<276] yes=47,no=48,missing=48
					47:[dayofyear<44] yes=91,no=92,missing=92
						91:leaf=3.14876294
						92:leaf=4.43389797
					48:[RealPower_-12q<0.252000004] yes=93,no=94,missing=94
						93:leaf=4.56328583
						94:leaf=3.06200337
				24:[hour<17] yes=49,no=50,missing=50
					49:[feels_like_-4h<13.7399998] yes=95,no=96,missing=96
						95:leaf=2.54699898
						96:leaf=3.38556027
					50:[RealPower_-1q<126.702003] yes=97,no=98,missing=98
						97:leaf=2.09143209
						98:leaf=2.66741633
			12:[hour<14] yes=25,no=26,missing=26
				25:[month<2] yes=51,no=52,missing=52
					51:[dayofyear<14] yes=99,no=100,missing=100
						99:leaf=3.33977771
						100:leaf=4.38442516
					52:[dayofyear<300] yes=101,no=102,missing=102
						101:leaf=5.53638268
						102:leaf=4.39029837
				26:[RealPower_-1q<180.992004] yes=53,no=54,missing=54
					53:[hour<16] yes=103,no=104,missing=104
						103:leaf=4.16300631
						104:leaf=3.61186886
					54:[hour<16] yes=105,no=106,missing=106
						105:leaf=4.91045094
						106:leaf=4.30707455
		6:[RealPower_-1q<253.322006] yes=13,no=14,missing=14
			13:[RealPower_-1q<225.936005] yes=27,no=28,missing=28
				27:[RealPower_-16q<17.0079994] yes=55,no=56,missing=56
					55:[dayofmonth<7] yes=107,no=108,missing=108
						107:leaf=6.90853548
						108:leaf=6.1328764
					56:[temp_-7h<16.6599998] yes=109,no=110,missing=110
						109:leaf=4.92309141
						110:leaf=5.65525961
				28:[hour<15] yes=57,no=58,missing=58
					57:[temp_-6h<15.8400002] yes=111,no=112,missing=112
						111:leaf=6.0505724
						112:leaf=6.69049883
					58:[temp_-11h<17.9899998] yes=113,no=114,missing=114
						113:leaf=5.45660973
						114:leaf=5.99675703
			14:[RealPower_-1q<282.68399] yes=29,no=30,missing=30
				29:[hour<12] yes=59,no=60,missing=60
					59:[wind_deg_-2h<220] yes=115,no=116,missing=116
						115:leaf=7.88039064
						116:leaf=7.34809208
					60:[RealPower_-7q<196.970001] yes=117,no=118,missing=118
						117:leaf=6.01017189
						118:leaf=7.01504517
				30:[hour<13] yes=61,no=62,missing=62
					61:[dayofmonth<13] yes=119,no=120,missing=120
						119:leaf=7.77856731
						120:leaf=8.47370052
					62:[RealPower_-2q<299.651001] yes=121,no=122,missing=122
						121:leaf=7.39514637
						122:leaf=8.24244595
booster[9]:
0:[RealPower_-1q<110.871002] yes=1,no=2,missing=1
	1:[RealPower_-1q<43.1430016] yes=3,no=4,missing=3
		3:[RealPower_-1q<15.5699997] yes=7,no=8,missing=7
			7:[RealPower_-1q<6.05900002] yes=15,no=16,missing=15
				15:[RealPower_-1q<0.843999982] yes=31,no=32,missing=31
					31:[RealPower_-2q<1.09200001] yes=61,no=62,missing=61
						61:leaf=-0.0090958029
						62:leaf=-0.0637547299
					32:[RealPower_-3q<0.135000005] yes=63,no=64,missing=64
						63:leaf=0.282557726
						64:leaf=-0.00719843339
				16:[RealPower_-4q<1.09300005] yes=33,no=34,missing=34
					33:[temp_min<12.4700003] yes=65,no=66,missing=66
						65:leaf=0.856811702
						66:leaf=0.365809172
					34:[year<2017] yes=67,no=68,missing=68
						67:leaf=-0.0415877812
						68:leaf=0.179171294
			8:[hour<10] yes=17,no=18,missing=18
				17:[humidity<70] yes=35,no=36,missing=36
					35:[temp_min<15.5500002] yes=69,no=70,missing=70
						69:leaf=1.43938529
						70:leaf=0.891358793
					36:[RealPower_-1q<29.0039997] yes=71,no=72,missing=72
						71:leaf=0.539142907
						72:leaf=0.903362036
				18:[clouds_all_-1h<43] yes=37,no=38,missing=38
					37:[humidity_-3h<65] yes=73,no=74,missing=74
						73:leaf=-0.0393899977
						74:leaf=0.289505988
					38:[RealPower_-17q<11.6999998] yes=75,no=76,missing=76
						75:leaf=0.120156124
						76:leaf=0.543741822
		4:[RealPower_-1q<77.7020035] yes=9,no=10,missing=10
			9:[RealPower_-2q<57.4819984] yes=19,no=20,missing=20
				19:[RealPower_-1q<63.9480019] yes=39,no=40,missing=40
					39:[RealPower_-2q<37.6949997] yes=77,no=78,missing=78
						77:leaf=1.76812792
						78:leaf=1.25349379
					40:[clouds_all_-1h<75] yes=79,no=80,missing=80
						79:leaf=2.50116682
						80:leaf=1.85042405
				20:[RealPower_-6q<172.720993] yes=41,no=42,missing=42
					41:[temp_-9h<18.6200008] yes=81,no=82,missing=82
						81:leaf=0.721197486
						82:leaf=1.24507642
					42:leaf=2.33061385
			10:[RealPower_-2q<92.7109985] yes=21,no=22,missing=22
				21:[year<2017] yes=43,no=44,missing=44
					43:[RealPower_-1q<87.6159973] yes=83,no=84,missing=84
						83:leaf=2.08160019
						84:leaf=3.03069806
					44:[RealPower_-4q<61.6539993] yes=85,no=86,missing=86
						85:leaf=2.30466461
						86:leaf=1.51714122
				22:[temp_-10h<16.2099991] yes=45,no=46,missing=46
					45:[temp_min<9.94999981] yes=87,no=88,missing=88
						87:leaf=1.54128456
						88:leaf=0.924609721
					46:[dayofyear<255] yes=89,no=90,missing=90
						89:leaf=1.93909514
						90:leaf=1.37925494
	2:[RealPower_-1q<183.559998] yes=5,no=6,missing=6
		5:[RealPower_-1q<136.994995] yes=11,no=12,missing=12
			11:[RealPower_-13q<175.537003] yes=23,no=24,missing=24
				23:[humidity_-1h<87] yes=47,no=48,missing=48
					47:[year<2017] yes=91,no=92,missing=92
						91:leaf=3.25198746
						92:leaf=2.62599516
					48:[wind_deg_-2h<30] yes=93,no=94,missing=94
						93:leaf=2.42272234
						94:leaf=1.63646746
				24:[year<2017] yes=49,no=50,missing=50
					49:[temp_max<15.9499998] yes=95,no=96,missing=96
						95:leaf=1.1287154
						96:leaf=1.95068729
					50:[RealPower_-24q<172.723007] yes=97,no=98,missing=98
						97:leaf=2.51025295
						98:leaf=1.92647552
			12:[rain_1h<0.230000004] yes=25,no=26,missing=25
				25:[RealPower_-5q<124.050003] yes=51,no=52,missing=52
					51:[clouds_all_-2h<90] yes=99,no=100,missing=100
						99:leaf=3.46835542
						100:leaf=4.75517702
					52:[hour<15] yes=101,no=102,missing=102
						101:leaf=3.25744677
						102:leaf=2.6882863
				26:leaf=1.14922822
		6:[RealPower_-1q<228.988007] yes=13,no=14,missing=14
			13:[hour<12] yes=27,no=28,missing=28
				27:[dayofyear<303] yes=53,no=54,missing=54
					53:[dayofyear<68] yes=103,no=104,missing=104
						103:leaf=4.04187965
						104:leaf=4.83665609
					54:leaf=3.7143476
				28:[dayofyear<72] yes=55,no=56,missing=56
					55:[clouds_all_-2h<40] yes=105,no=106,missing=106
						105:leaf=3.8549509
						106:leaf=3.00276637
					56:[hour<16] yes=107,no=108,missing=108
						107:leaf=4.21645308
						108:leaf=3.3731277
			14:[RealPower_-1q<260.372009] yes=29,no=30,missing=30
				29:[RealPower_-12q<282.68399] yes=57,no=58,missing=58
					57:[RealPower_-22q<6.93999984e-18] yes=109,no=110,missing=110
						109:leaf=5.4385767
						110:leaf=4.87698364
					58:[dayofyear<156] yes=111,no=112,missing=112
						111:leaf=3.75539732
						112:leaf=4.42636585
				30:[hour<14] yes=59,no=60,missing=60
					59:[RealPower_-8q<124.061996] yes=113,no=114,missing=114
						113:leaf=4.76012564
						114:leaf=5.91879463
					60:[feels_like_-10h<15.7600002] yes=115,no=116,missing=116
						115:leaf=4.48962212
						116:leaf=5.33475733
booster[10]:
0:[RealPower_-1q<105.608002] yes=1,no=2,missing=1
	1:[RealPower_-1q<35.9140015] yes=3,no=4,missing=3
		3:[RealPower_-1q<12.8570004] yes=7,no=8,missing=7
			7:[RealPower_-1q<3.35299993] yes=15,no=16,missing=15
				15:[RealPower_-2q<1.09200001] yes=31,no=32,missing=31
					31:[RealPower_-1q<0.0599999987] yes=59,no=60,missing=59
						59:leaf=-0.00887152925
						60:leaf=0.0621900558
					32:[year<2016] yes=61,no=62,missing=62
						61:leaf=-0
						62:leaf=-0.0660713464
				16:[RealPower_-4q<0.135000005] yes=33,no=34,missing=34
					33:[wind_deg_-2h<160] yes=63,no=64,missing=64
						63:leaf=0.594453454
						64:leaf=0.290759087
					34:[year<2017] yes=65,no=66,missing=66
						65:leaf=-0.0406432152
						66:leaf=0.116403408
			8:[RealPower_-24q<105.625999] yes=17,no=18,missing=18
				17:[clouds_all_-3h<75] yes=35,no=36,missing=36
					35:[wind_deg_-2h<110] yes=67,no=68,missing=68
						67:leaf=0.838779986
						68:leaf=0.507225037
					36:[clouds_all_-2h<90] yes=69,no=70,missing=70
						69:leaf=0.449192852
						70:leaf=0.202512145
				18:[feels_like_-5h<14.9399996] yes=37,no=38,missing=38
					37:[RealPower_-5q<85.1849976] yes=71,no=72,missing=72
						71:leaf=0.109663777
						72:leaf=-0.100808442
					38:[dayofyear<203] yes=73,no=74,missing=74
						73:leaf=0.389497697
						74:leaf=0.1240374
		4:[RealPower_-1q<59.5550003] yes=9,no=10,missing=10
			9:[RealPower_-2q<51.2949982] yes=19,no=20,missing=20
				19:[RealPower_-1q<51.2900009] yes=39,no=40,missing=40
					39:[RealPower_-2q<34.0649986] yes=75,no=76,missing=76
						75:leaf=1.01914108
						76:leaf=0.641466975
					40:[clouds_all_-1h<90] yes=77,no=78,missing=78
						77:leaf=1.4786998
						78:leaf=0.880334198
				20:[pressure<1018] yes=41,no=42,missing=42
					41:[hour<18] yes=79,no=80,missing=80
						79:leaf=0.76260525
						80:leaf=0.199838743
					42:[year<2018] yes=81,no=82,missing=82
						81:leaf=-0.0426421352
						82:leaf=0.484302968
			10:[hour<15] yes=21,no=22,missing=22
				21:[RealPower_-4q<148.240997] yes=43,no=44,missing=44
					43:[RealPower_-5q<45.2130013] yes=83,no=84,missing=84
						83:leaf=1.61635065
						84:leaf=1.18644464
					44:leaf=3.85504651
				22:[dayofyear<308] yes=45,no=46,missing=46
					45:[hour<18] yes=85,no=86,missing=86
						85:leaf=1.12772059
						86:leaf=0.310088605
					46:leaf=-0.254261374
	2:[RealPower_-1q<210.647003] yes=5,no=6,missing=6
		5:[RealPower_-1q<159.128998] yes=11,no=12,missing=12
			11:[hour<16] yes=23,no=24,missing=24
				23:[dayofyear<276] yes=47,no=48,missing=48
					47:[dayofyear<62] yes=87,no=88,missing=88
						87:leaf=1.71380901
						88:leaf=2.67777205
					48:[RealPower_-13q<0.370999992] yes=89,no=90,missing=90
						89:leaf=2.5786984
						90:leaf=1.63317466
				24:[hour<17] yes=49,no=50,missing=50
					49:[dayofyear<229] yes=91,no=92,missing=92
						91:leaf=2.11846542
						92:leaf=1.10340297
					50:[temp_max<20.4599991] yes=93,no=94,missing=94
						93:leaf=0.906200647
						94:leaf=1.4863646
			12:[temp_-12h<17.5200005] yes=25,no=26,missing=26
				25:[RealPower_-3q<136.994995] yes=51,no=52,missing=52
					51:leaf=0.630352736
					52:[RealPower_-19q<10.4519997] yes=95,no=96,missing=96
						95:leaf=3.06228924
						96:leaf=2.40631914
				26:[dayofyear<215] yes=53,no=54,missing=54
					53:[hour<16] yes=97,no=98,missing=98
						97:leaf=3.39673829
						98:leaf=2.31940866
					54:[temp_-12h<22.7700005] yes=99,no=100,missing=100
						99:leaf=2.48840475
						100:leaf=3.03789258
		6:[RealPower_-1q<260.372009] yes=13,no=14,missing=14
			13:[rain_1h_-3h<0.150000006] yes=27,no=28,missing=27
				27:[hour<12] yes=55,no=56,missing=56
					55:[wind_speed<2.56999993] yes=101,no=102,missing=102
						101:leaf=4.10251045
						102:leaf=3.58392119
					56:[RealPower_-1q<228.988007] yes=103,no=104,missing=104
						103:leaf=3.20495939
						104:leaf=3.64571762
				28:leaf=2.14861846
			14:[hour<15] yes=29,no=30,missing=30
				29:[dayofyear<79] yes=57,no=58,missing=58
					57:leaf=3.61746693
					58:[RealPower_-8q<121.417] yes=105,no=106,missing=106
						105:leaf=3.35512447
						106:leaf=4.49267626
				30:leaf=3.21014977
booster[11]:
0:[RealPower_-1q<121.403999] yes=1,no=2,missing=1
	1:[RealPower_-1q<43.1430016] yes=3,no=4,missing=3
		3:[RealPower_-1q<21.2520008] yes=7,no=8,missing=7
			7:[RealPower_-1q<6.05900002] yes=15,no=16,missing=15
				15:[year<2017] yes=31,no=32,missing=32
					31:[RealPower_-1q<0.134000003] yes=57,no=58,missing=57
						57:leaf=-0.00498882169
						58:leaf=0.134105891
					32:[RealPower_-2q<0.0209999997] yes=59,no=60,missing=60
						59:leaf=-0.00766711775
						60:leaf=-0.0502756797
				16:[RealPower_-4q<1.49000001] yes=33,no=34,missing=34
					33:[wind_deg_-2h<160] yes=61,no=62,missing=62
						61:leaf=0.51396054
						62:leaf=0.173682824
					34:[rain_1h_-3h<0.150000006] yes=63,no=64,missing=63
						63:leaf=0.0225196294
						64:leaf=0.292534947
			8:[RealPower_-13q<0.00999999978] yes=17,no=18,missing=18
				17:[temp_min_-1h<13.8500004] yes=35,no=36,missing=36
					35:[temp_-11h<17.2700005] yes=65,no=66,missing=66
						65:leaf=0.486940205
						66:leaf=1.10099673
					36:[clouds_all<43] yes=67,no=68,missing=68
						67:leaf=0.713909209
						68:leaf=0.356092006
				18:[wind_speed_-2h<2.56999993] yes=37,no=38,missing=38
					37:[temp_-8h<15.8199997] yes=69,no=70,missing=70
						69:leaf=-0.0111852009
						70:leaf=0.264850676
					38:[weather_main<8] yes=71,no=72,missing=72
						71:leaf=0.339161575
						72:leaf=0.802541494
		4:[RealPower_-1q<87.6159973] yes=9,no=10,missing=10
			9:[RealPower_-4q<148.240997] yes=19,no=20,missing=20
				19:[RealPower_-4q<90.2639999] yes=39,no=40,missing=40
					39:[dayofyear<253] yes=73,no=74,missing=74
						73:leaf=0.976577342
						74:leaf=0.613717556
					40:[temp_-9h<20.4799995] yes=75,no=76,missing=76
						75:leaf=0.296306998
						76:leaf=0.873669386
				20:leaf=2.51414895
			10:[RealPower_-2q<97.7750015] yes=21,no=22,missing=22
				21:[year<2017] yes=41,no=42,missing=42
					41:[RealPower_-8q<18.3029995] yes=77,no=78,missing=78
						77:leaf=1.48387301
						78:leaf=2.5044806
					42:[RealPower_-4q<61.6539993] yes=79,no=80,missing=80
						79:leaf=1.62122941
						80:leaf=0.900498748
				22:[wind_deg_-3h<230] yes=43,no=44,missing=44
					43:[year<2018] yes=81,no=82,missing=82
						81:leaf=0.703009844
						82:leaf=1.17058063
					44:[pressure<1014] yes=83,no=84,missing=84
						83:leaf=0.79204917
						84:leaf=1.39217603
	2:[RealPower_-1q<213.776993] yes=5,no=6,missing=6
		5:[RealPower_-1q<175.531006] yes=11,no=12,missing=12
			11:[RealPower_-4q<124.050003] yes=23,no=24,missing=24
				23:[dayofyear<25] yes=45,no=46,missing=46
					45:leaf=0.943308055
					46:[dayofyear<246] yes=85,no=86,missing=86
						85:leaf=2.30438781
						86:leaf=1.67464101
				24:[RealPower_-1q<145.559006] yes=47,no=48,missing=48
					47:[RealPower_-22q<113.612999] yes=87,no=88,missing=88
						87:leaf=1.55880213
						88:leaf=1.17041445
					48:[dayofyear<41] yes=89,no=90,missing=90
						89:leaf=1.22335076
						90:leaf=1.77752364
			12:[dayofyear<68] yes=25,no=26,missing=26
				25:[hour<14] yes=49,no=50,missing=50
					49:[clouds_all<40] yes=91,no=92,missing=92
						91:leaf=2.44982171
						92:leaf=1.67735255
					50:leaf=0.897085369
				26:[hour<15] yes=51,no=52,missing=52
					51:[dayofyear<219] yes=93,no=94,missing=94
						93:leaf=3.11474681
						94:leaf=2.23284936
					52:[wind_speed<3.16000009] yes=95,no=96,missing=96
						95:leaf=2.08939719
						96:leaf=1.18802726
		6:[RealPower_-1q<273.859009] yes=13,no=14,missing=14
			13:[rain_1h_-1h<0.180000007] yes=27,no=28,missing=27
				27:[hour<15] yes=53,no=54,missing=54
					53:[dayofyear<248] yes=97,no=98,missing=98
						97:leaf=3.04242253
						98:leaf=2.54735255
					54:[RealPower_-22q<105.625999] yes=99,no=100,missing=100
						99:leaf=1.81122017
						100:leaf=2.49294209
				28:leaf=1.11111784
			14:[RealPower_-3q<253.322006] yes=29,no=30,missing=30
				29:leaf=2.09672642
				30:[hour<13] yes=55,no=56,missing=56
					55:[year<2016] yes=101,no=102,missing=102
						101:leaf=3.51154923
						102:leaf=3.98112106
					56:[RealPower_-1q<299.651001] yes=103,no=104,missing=104
						103:leaf=3.20248723
						104:leaf=3.88704801
booster[12]:
0:[RealPower_-1q<92.7109985] yes=1,no=2,missing=1
	1:[RealPower_-1q<27.323] yes=3,no=4,missing=3
		3:[RealPower_-1q<8.17599964] yes=7,no=8,missing=7
			7:[RealPower_-1q<3.35299993] yes=15,no=16,missing=15
				15:[RealPower_-2q<1.09200001] yes=29,no=30,missing=29
					29:[RealPower_-1q<0.0599999987] yes=53,no=54,missing=53
						53:leaf=-0.00515814312
						54:leaf=0.043942716
					30:[RealPower_-1q<0.0599999987] yes=55,no=56,missing=56
						55:leaf=0.0175667815
						56:leaf=-0.0591898076
				16:[RealPower_-2q<1.49000001] yes=31,no=32,missing=32
					31:[wind_deg_-1h<150] yes=57,no=58,missing=58
						57:leaf=0.405979365
						58:leaf=0.195361987
					32:[temp_min<13.5699997] yes=59,no=60,missing=60
						59:leaf=0.123516053
						60:leaf=-0.0447985418
			8:[RealPower_-8q<0.00999999978] yes=17,no=18,missing=18
				17:[dayofyear<126] yes=33,no=34,missing=34
					33:[humidity_-3h<83] yes=61,no=62,missing=62
						61:leaf=0.588487506
						62:leaf=0.203323767
					34:[dayofyear<258] yes=63,no=64,missing=64
						63:leaf=-0.000319159124
						64:leaf=0.363202095
				18:[rain_1h<0.25999999] yes=35,no=36,missing=35
					35:[wind_speed_-2h<3.5999999] yes=65,no=66,missing=66
						65:leaf=0.0164567903
						66:leaf=0.185709074
					36:leaf=0.394401968
		4:[RealPower_-3q<134.451996] yes=9,no=10,missing=10
			9:[RealPower_-24q<134.468002] yes=19,no=20,missing=20
				19:[dayofyear<17] yes=37,no=38,missing=38
					37:[temp_min<10.7700005] yes=67,no=68,missing=68
						67:leaf=0.800700188
						68:leaf=-0.284105539
					38:[RealPower_-1q<55.3919983] yes=69,no=70,missing=70
						69:leaf=0.44938463
						70:leaf=0.765282571
				20:[temp_min_-2h<11.3299999] yes=39,no=40,missing=40
					39:[RealPower_-14q<202.306] yes=71,no=72,missing=72
						71:leaf=-0.0645969883
						72:leaf=-0.517819881
					40:[hour<18] yes=73,no=74,missing=74
						73:leaf=0.492932677
						74:leaf=0.110287242
			10:leaf=2.15254259
	2:[RealPower_-1q<183.559998] yes=5,no=6,missing=6
		5:[RealPower_-1q<131.962997] yes=11,no=12,missing=12
			11:[RealPower_-3q<169.917007] yes=21,no=22,missing=22
				21:[RealPower_-4q<80.0439987] yes=41,no=42,missing=42
					41:[RealPower_-9q<10.4449997] yes=75,no=76,missing=76
						75:leaf=0.984452248
						76:leaf=1.6356473
					42:[RealPower_-17q<0.0209999997] yes=77,no=78,missing=78
						77:leaf=1.39676559
						78:leaf=0.69685638
				22:leaf=2.09354377
			12:[rain_1h<0.280000001] yes=23,no=24,missing=23
				23:[hour<14] yes=43,no=44,missing=44
					43:[year<2017] yes=79,no=80,missing=80
						79:leaf=1.87595904
						80:leaf=1.35888672
					44:[humidity_-2h<80] yes=81,no=82,missing=82
						81:leaf=1.00717127
						82:leaf=1.44257486
				24:leaf=-0.270008206
		6:[RealPower_-3q<253.322006] yes=13,no=14,missing=14
			13:[hour<14] yes=25,no=26,missing=26
				25:[rain_1h_-1h<0.180000007] yes=45,no=46,missing=45
					45:[dayofyear<285] yes=83,no=84,missing=84
						83:leaf=2.16310048
						84:leaf=1.57995403
					46:leaf=0.490618974
				26:[RealPower_-1q<242.195999] yes=47,no=48,missing=48
					47:[RealPower_-12q<139.809998] yes=85,no=86,missing=86
						85:leaf=0.797334313
						86:leaf=1.71520746
					48:leaf=0.630042732
			14:[hour<13] yes=27,no=28,missing=28
				27:[dayofyear<79] yes=49,no=50,missing=50
					49:leaf=2.23283911
					50:[temp_min<14.6700001] yes=87,no=88,missing=88
						87:leaf=3.28807187
						88:leaf=2.78892636
				28:[RealPower_-1q<287.21701] yes=51,no=52,missing=52
					51:[RealPower_-15q<90.2860031] yes=89,no=90,missing=90
						89:leaf=1.54454887
						90:leaf=2.27203321
					52:[humidity_-3h<77] yes=91,no=92,missing=92
						91:leaf=2.92783833
						92:leaf=2.50782371
booster[13]:
0:[RealPower_-1q<126.702003] yes=1,no=2,missing=1
	1:[RealPower_-1q<47.2280006] yes=3,no=4,missing=3
		3:[RealPower_-1q<21.2520008] yes=7,no=8,missing=7
			7:[RealPower_-1q<5.11499977] yes=15,no=16,missing=15
				15:[RealPower_-2q<1.09200001] yes=31,no=32,missing=31
					31:[RealPower_-1q<2.57999992] yes=59,no=60,missing=59
						59:leaf=-0.002234407
						60:leaf=0.184475258
					32:[temp_min<15.9300003] yes=61,no=62,missing=62
						61:leaf=0.00535933068
						62:leaf=-0.0543537326
				16:[RealPower_-8q<0.00499999989] yes=33,no=34,missing=34
					33:[clouds_all<20] yes=63,no=64,missing=64
						63:leaf=0.502575874
						64:leaf=0.100424364
					34:[temp_-9h<13.8699999] yes=65,no=66,missing=66
						65:leaf=-0.0996493548
						66:leaf=0.0266908947
			8:[RealPower_-21q<169.923004] yes=17,no=18,missing=18
				17:[year<2016] yes=35,no=36,missing=36
					35:[dayofmonth<11] yes=67,no=68,missing=68
						67:leaf=1.09873831
						68:leaf=0.347700298
					36:[RealPower_-5q<1.98099995] yes=69,no=70,missing=70
						69:leaf=0.467268556
						70:leaf=0.143401995
				18:[dayofyear<256] yes=37,no=38,missing=38
					37:[dayofyear<119] yes=71,no=72,missing=72
						71:leaf=-0.0822157487
						72:leaf=0.287051767
					38:[humidity_-1h<71] yes=73,no=74,missing=74
						73:leaf=-0.386193842
						74:leaf=-0.175253943
		4:[hour<17] yes=9,no=10,missing=10
			9:[dayofyear<253] yes=19,no=20,missing=20
				19:[dayofyear<49] yes=39,no=40,missing=40
					39:[feels_like<11.4700003] yes=75,no=76,missing=76
						75:leaf=0.797492087
						76:leaf=-0.0104980376
					40:[RealPower_-1q<68.4199982] yes=77,no=78,missing=78
						77:leaf=0.583305478
						78:leaf=1.13008952
				20:[RealPower_-22q<0] yes=41,no=42,missing=42
					41:leaf=1.92408073
					42:[temp_-12h<16.8799992] yes=79,no=80,missing=80
						79:leaf=-0.0376789793
						80:leaf=0.416552722
			10:[dayofyear<236] yes=21,no=22,missing=22
				21:[hour<18] yes=43,no=44,missing=44
					43:[dayofyear<115] yes=81,no=82,missing=82
						81:leaf=0.0219996441
						82:leaf=0.726003826
					44:[year<2017] yes=83,no=84,missing=84
						83:leaf=-0.190783262
						84:leaf=0.289510369
				22:[year<2017] yes=45,no=46,missing=46
					45:leaf=-0.564412355
					46:leaf=-0.00902643986
	2:[RealPower_-2q<222.964005] yes=5,no=6,missing=6
		5:[RealPower_-1q<172.718994] yes=11,no=12,missing=12
			11:[RealPower_-2q<145.559006] yes=23,no=24,missing=24
				23:[year<2017] yes=47,no=48,missing=48
					47:[RealPower_-14q<0.252000004] yes=85,no=86,missing=86
						85:leaf=1.03089535
						86:leaf=2.20682096
					48:[humidity_-2h<88] yes=87,no=88,missing=88
						87:leaf=1.09866953
						88:leaf=0.343503892
				24:[pressure_-2h<1011] yes=49,no=50,missing=50
					49:leaf=-0.0100690862
					50:[RealPower_-3q<205.098999] yes=89,no=90,missing=90
						89:leaf=0.806980193
						90:leaf=1.72463274
			12:[RealPower_-3q<124.050003] yes=25,no=26,missing=26
				25:leaf=-0.143372774
				26:[RealPower_-4q<199.619995] yes=51,no=52,missing=52
					51:[dayofyear<54] yes=91,no=92,missing=92
						91:leaf=1.05599153
						92:leaf=1.6512816
					52:[temp_-10h<23.6599998] yes=93,no=94,missing=94
						93:leaf=1.07072496
						94:leaf=1.97459877
		6:[hour<14] yes=13,no=14,missing=14
			13:[humidity<81] yes=27,no=28,missing=28
				27:[dayofyear<68] yes=53,no=54,missing=54
					53:[RealPower_-19q<17.0090008] yes=95,no=96,missing=96
						95:leaf=1.95008898
						96:leaf=1.40190554
					54:[dayofyear<236] yes=97,no=98,missing=98
						97:leaf=2.25888801
						98:leaf=1.55051684
				28:[RealPower_-15q<22.7420006] yes=55,no=56,missing=56
					55:leaf=2.41111398
					56:[RealPower_-7q<194.397995] yes=99,no=100,missing=100
						99:leaf=1.1210655
						100:leaf=1.80423295
			14:[RealPower_-4q<225.936005] yes=29,no=30,missing=30
				29:leaf=0.0543079153
				30:[RealPower_-2q<253.322006] yes=57,no=58,missing=58
					57:[RealPower_-10q<292.157013] yes=101,no=102,missing=102
						101:leaf=1.45190787
						102:leaf=0.599395096
					58:[RealPower_-7q<287.21701] yes=103,no=104,missing=104
						103:leaf=2.04062939
						104:leaf=1.5359453
booster[14]:
0:[RealPower_-1q<92.7109985] yes=1,no=2,missing=1
	1:[RealPower_-1q<24.2150002] yes=3,no=4,missing=3
		3:[RealPower_-1q<6.05900002] yes=7,no=8,missing=7
			7:[year<2017] yes=15,no=16,missing=16
				15:[RealPower_-1q<0.0599999987] yes=29,no=30,missing=29
					29:[RealPower_-1q<-0.0170000009] yes=53,no=54,missing=54
						53:leaf=0.0378519893
						54:leaf=-0.00432929629
					30:[RealPower_-2q<0.843999982] yes=55,no=56,missing=56
						55:leaf=0.206025943
						56:leaf=-0.0170828141
				16:[RealPower_-1q<0.0599999987] yes=31,no=32,missing=32
					31:[RealPower_-1q<-0.247999996] yes=57,no=58,missing=58
						57:leaf=-0.0200948101
						58:leaf=-0.00341896527
					32:[dayofyear<57] yes=59,no=60,missing=60
						59:leaf=0.070328176
						60:leaf=-0.061896272
			8:[RealPower_-24q<188.779999] yes=17,no=18,missing=18
				17:[clouds_all<20] yes=33,no=34,missing=34
					33:[year<2017] yes=61,no=62,missing=62
						61:leaf=0.518871903
						62:leaf=0.189726815
					34:[dayofyear<131] yes=63,no=64,missing=64
						63:leaf=0.168306813
						64:leaf=0.0274389312
				18:[year<2017] yes=35,no=36,missing=36
					35:[dayofyear<116] yes=65,no=66,missing=66
						65:leaf=-0.257089198
						66:leaf=-0.0474342257
					36:[humidity<65] yes=67,no=68,missing=68
						67:leaf=-0.0227613319
						68:leaf=0.118049696
		4:[RealPower_-3q<136.994995] yes=9,no=10,missing=10
			9:[temp_-9h<15.5] yes=19,no=20,missing=20
				19:[humidity<88] yes=37,no=38,missing=38
					37:[rain_1h_-1h<0.230000004] yes=69,no=70,missing=69
						69:leaf=0.047831282
						70:leaf=0.859953821
					38:[temp_-5h<13.6999998] yes=71,no=72,missing=72
						71:leaf=0.0472097099
						72:leaf=-0.830907166
				20:[hour<18] yes=39,no=40,missing=40
					39:[dayofyear<245] yes=73,no=74,missing=74
						73:leaf=0.450471044
						74:leaf=0.202505261
					40:[RealPower_-24q<277.862] yes=75,no=76,missing=76
						75:leaf=0.128266543
						76:leaf=-0.104513645
			10:leaf=1.61714089
	2:[RealPower_-3q<213.776993] yes=5,no=6,missing=6
		5:[RealPower_-1q<150.983002] yes=11,no=12,missing=12
			11:[RealPower_-6q<235.792007] yes=21,no=22,missing=22
				21:[RealPower_-21q<245.738007] yes=41,no=42,missing=42
					41:[dayofyear<249] yes=77,no=78,missing=78
						77:leaf=0.762556136
						78:leaf=0.445243537
					42:[dayofyear<101] yes=79,no=80,missing=80
						79:leaf=-0.365443408
						80:leaf=0.33793804
				22:leaf=1.74154401
			12:[rain_1h<0.300000012] yes=23,no=24,missing=23
				23:[wind_speed_-1h<3.5999999] yes=43,no=44,missing=44
					43:[temp_min_-2h<21.9300003] yes=81,no=82,missing=82
						81:leaf=1.05183184
						82:leaf=0.226601943
					44:[year<2017] yes=83,no=84,missing=84
						83:leaf=-0.426731706
						84:leaf=0.914175749
				24:leaf=-1.06966543
		6:[RealPower_-19q<21.2679996] yes=13,no=14,missing=14
			13:[feels_like<16.4799995] yes=25,no=26,missing=26
				25:[RealPower_-10q<139.807999] yes=45,no=46,missing=46
					45:[temp_min<12.9499998] yes=85,no=86,missing=86
						85:leaf=1.83526576
						86:leaf=2.61640382
					46:[temp_max_-1h<15.7299995] yes=87,no=88,missing=88
						87:leaf=1.23506367
						88:leaf=1.97509825
				26:[pressure_-3h<1012] yes=47,no=48,missing=48
					47:leaf=0.961459458
					48:[RealPower_-1q<238.847] yes=89,no=90,missing=90
						89:leaf=1.158602
						90:leaf=1.76921248
			14:[RealPower_-3q<260.372009] yes=27,no=28,missing=28
				27:[RealPower_-5q<273.859009] yes=49,no=50,missing=50
					49:[dayofyear<81] yes=91,no=92,missing=92
						91:leaf=0.669930816
						92:leaf=1.14104116
					50:leaf=0.15062353
				28:[dayofyear<75] yes=51,no=52,missing=52
					51:leaf=0.825555623
					52:[RealPower_-24q<1.495] yes=93,no=94,missing=94
						93:leaf=1.97450542
						94:leaf=1.43611157
booster[15]:
0:[RealPower_-3q<108.125999] yes=1,no=2,missing=1
	1:[RealPower_-3q<27.3299999] yes=3,no=4,missing=3
		3:[temp_min<11.0699997] yes=7,no=8,missing=8
			7:[RealPower_-3q<10.4440002] yes=15,no=16,missing=15
				15:[RealPower_-1q<4.20699978] yes=31,no=32,missing=31
					31:[feels_like_-12h<12.2399998] yes=59,no=60,missing=59
						59:leaf=-0.0114109293
						60:leaf=0.0354954414
					32:leaf=0.289077252
				16:[RealPower_-16q<39.5419998] yes=33,no=34,missing=34
					33:leaf=0.92397058
					34:leaf=-0.00527762854
			8:[temp_-12h<23.6599998] yes=17,no=18,missing=18
				17:[temp_min<13.9300003] yes=35,no=36,missing=36
					35:[temp_-12h<16.9400005] yes=61,no=62,missing=62
						61:leaf=-0.00992176495
						62:leaf=0.209972769
					36:[RealPower_-3q<25.7240009] yes=63,no=64,missing=64
						63:leaf=-0.0023481017
						64:leaf=-0.171821877
				18:[feels_like<19.4300003] yes=37,no=38,missing=38
					37:[RealPower_-2q<7.06899977] yes=65,no=66,missing=66
						65:leaf=0.150880158
						66:leaf=0.568055391
					38:[wind_speed_-3h<2.56999993] yes=67,no=68,missing=68
						67:leaf=0.10333591
						68:leaf=-0.00690298108
		4:[RealPower_-22q<6.93999984e-18] yes=9,no=10,missing=10
			9:[temp_max<11.9300003] yes=19,no=20,missing=20
				19:leaf=1.18502498
				20:[dayofyear<31] yes=39,no=40,missing=40
					39:[temp_min_-1h<12.9499998] yes=69,no=70,missing=70
						69:leaf=-0.00830580387
						70:leaf=-0.769652665
					40:[dayofyear<97] yes=71,no=72,missing=72
						71:leaf=0.804767132
						72:leaf=0.322958857
			10:[RealPower_-10q<235.792007] yes=21,no=22,missing=22
				21:[RealPower_-22q<9.31799984] yes=41,no=42,missing=42
					41:[feels_like_-3h<15.7600002] yes=73,no=74,missing=74
						73:leaf=-0.837701261
						74:leaf=0.00581649411
					42:[humidity<71] yes=75,no=76,missing=76
						75:leaf=-0.0121042542
						76:leaf=0.262751997
				22:leaf=1.46138918
	2:[hour<15] yes=5,no=6,missing=6
		5:[dayofyear<285] yes=11,no=12,missing=12
			11:[dayofyear<51] yes=23,no=24,missing=24
				23:[dayofyear<20] yes=43,no=44,missing=44
					43:[temp_min_-3h<12.1499996] yes=77,no=78,missing=78
						77:leaf=0.496857822
						78:leaf=-0.520352781
					44:[RealPower_-6q<139.806] yes=79,no=80,missing=80
						79:leaf=0.330501109
						80:leaf=0.713073254
				24:[temp_min<16.4099998] yes=45,no=46,missing=46
					45:[dayofyear<74] yes=81,no=82,missing=82
						81:leaf=0.827870071
						82:leaf=1.39754164
					46:[year<2018] yes=83,no=84,missing=84
						83:leaf=1.017856
						84:leaf=0.683094084
			12:[RealPower_-18q<0.0209999997] yes=25,no=26,missing=26
				25:[RealPower_-8q<85.1849976] yes=47,no=48,missing=48
					47:[RealPower_-12q<3.3599999] yes=85,no=86,missing=86
						85:leaf=1.51186252
						86:leaf=0.386487186
					48:leaf=1.87080121
				26:[RealPower_-9q<108.128998] yes=49,no=50,missing=50
					49:[hour<12] yes=87,no=88,missing=88
						87:leaf=0.353972882
						88:leaf=-1.14145911
					50:[RealPower_-17q<142.753998] yes=89,no=90,missing=90
						89:leaf=0.586394429
						90:leaf=0.166244462
		6:[RealPower_-3q<178.177994] yes=13,no=14,missing=14
			13:[dayofyear<71] yes=27,no=28,missing=28
				27:[hour<16] yes=51,no=52,missing=52
					51:[humidity<74] yes=91,no=92,missing=92
						91:leaf=0.164086342
						92:leaf=-0.356074542
					52:leaf=-0.716890275
				28:[hour<17] yes=53,no=54,missing=54
					53:[dayofyear<235] yes=93,no=94,missing=94
						93:leaf=0.836812198
						94:leaf=0.171682
					54:[year<2018] yes=95,no=96,missing=96
						95:leaf=0.0296628512
						96:leaf=0.576593995
			14:[year<2018] yes=29,no=30,missing=30
				29:[wind_speed_-3h<3.08999991] yes=55,no=56,missing=56
					55:[RealPower_-3q<213.776993] yes=97,no=98,missing=98
						97:leaf=0.37701422
						98:leaf=0.749182999
					56:[feels_like_-7h<16.4099998] yes=99,no=100,missing=100
						99:leaf=0.324124575
						100:leaf=-0.309375644
				30:[RealPower_-22q<202.307007] yes=57,no=58,missing=58
					57:[pressure_-1h<1015] yes=101,no=102,missing=102
						101:leaf=0.950647771
						102:leaf=1.43523264
					58:leaf=0.844537675
booster[16]:
0:[RealPower_-3q<108.125999] yes=1,no=2,missing=1
	1:[RealPower_-3q<32.3569984] yes=3,no=4,missing=3
		3:[temp_min<11.0699997] yes=7,no=8,missing=8
			7:[RealPower_-3q<10.4440002] yes=15,no=16,missing=15
				15:[RealPower_-1q<4.20699978] yes=29,no=30,missing=29
					29:[RealPower_-7q<0.00100000005] yes=55,no=56,missing=56
						55:leaf=0.0179487728
						56:leaf=-0.0281635728
					30:leaf=0.219707981
				16:[temp_-1h<11.4700003] yes=31,no=32,missing=32
					31:leaf=0.0919180512
					32:leaf=0.857878685
			8:[wind_deg<150] yes=17,no=18,missing=18
				17:[feels_like_-12h<17.2900009] yes=33,no=34,missing=34
					33:[RealPower_-4q<14.1730003] yes=57,no=58,missing=58
						57:leaf=0.00438080449
						58:leaf=-0.149999663
					34:[temp_min_-1h<14.6700001] yes=59,no=60,missing=60
						59:leaf=0.281117111
						60:leaf=0.0503996499
				18:[temp_-12h<24.9400005] yes=35,no=36,missing=36
					35:[rain_1h_-2h<0.150000006] yes=61,no=62,missing=62
						61:leaf=0.0903013721
						62:leaf=-0.0050052451
					36:[RealPower_-3q<10.4440002] yes=63,no=64,missing=64
						63:leaf=0.0140567031
						64:leaf=0.228664935
		4:[RealPower_-22q<6.93999984e-18] yes=9,no=10,missing=10
			9:[temp_max_-1h<23.5699997] yes=19,no=20,missing=20
				19:[rain_1h<0.159999996] yes=37,no=38,missing=38
					37:leaf=-0.508774757
					38:[rain_1h_-3h<0.170000002] yes=65,no=66,missing=65
						65:leaf=0.351014018
						66:leaf=1.1509701
				20:[clouds_all<40] yes=39,no=40,missing=40
					39:leaf=0.0704720989
					40:leaf=-0.725871801
			10:[RealPower_-8q<191.688995] yes=21,no=22,missing=22
				21:[RealPower_-22q<9.31799984] yes=41,no=42,missing=42
					41:[feels_like_-8h<17.0200005] yes=67,no=68,missing=68
						67:leaf=-0.674705267
						68:leaf=0.0787386298
					42:[dayofyear<268] yes=69,no=70,missing=70
						69:leaf=0.161895379
						70:leaf=-0.126205906
				22:[feels_like_-4h<16.7000008] yes=43,no=44,missing=44
					43:leaf=0.505929053
					44:leaf=1.21385467
	2:[hour<16] yes=5,no=6,missing=6
		5:[RealPower_-2q<92.7109985] yes=11,no=12,missing=12
			11:leaf=2.51696634
			12:[dayofyear<310] yes=23,no=24,missing=24
				23:[dayofyear<72] yes=45,no=46,missing=46
					45:[hour<14] yes=71,no=72,missing=72
						71:leaf=0.521300554
						72:leaf=-0.0185644869
					46:[dayofyear<208] yes=73,no=74,missing=74
						73:leaf=0.897464156
						74:leaf=0.612794101
				24:[RealPower_-18q<3.36400008] yes=47,no=48,missing=48
					47:[humidity_-2h<66] yes=75,no=76,missing=76
						75:leaf=0.946303248
						76:leaf=0.294240981
					48:[RealPower_-8q<108.128998] yes=77,no=78,missing=78
						77:leaf=-1.18367577
						78:leaf=0.181068122
		6:[RealPower_-19q<181.003998] yes=13,no=14,missing=14
			13:[dayofweek<5] yes=25,no=26,missing=26
				25:[RealPower_-18q<129.384003] yes=49,no=50,missing=50
					49:leaf=0.0793888047
					50:leaf=-0.832339704
				26:leaf=0.405080557
			14:[RealPower_-4q<169.917007] yes=27,no=28,missing=28
				27:[year<2017] yes=51,no=52,missing=52
					51:[dayofyear<102] yes=79,no=80,missing=80
						79:leaf=-0.764937878
						80:leaf=0.0113079427
					52:[feels_like_-2h<21.1399994] yes=81,no=82,missing=82
						81:leaf=0.256872147
						82:leaf=0.764919817
				28:[RealPower_-24q<216.975006] yes=53,no=54,missing=54
					53:[pressure_-1h<1014] yes=83,no=84,missing=84
						83:leaf=0.244447708
						84:leaf=0.734554768
					54:[clouds_all<43] yes=85,no=86,missing=86
						85:leaf=0.45705843
						86:leaf=0.027438784
booster[17]:
0:[RealPower_-1q<75.4260025] yes=1,no=2,missing=1
	1:[RealPower_-5q<153.815994] yes=3,no=4,missing=3
		3:[RealPower_-1q<24.2150002] yes=7,no=8,missing=7
			7:[RealPower_-8q<116.282997] yes=13,no=14,missing=13
				13:[RealPower_-1q<8.17599964] yes=23,no=24,missing=23
					23:[year<2017] yes=39,no=40,missing=40
						39:leaf=0.00293627917
						40:leaf=-0.00705069397
					24:[humidity_-3h<55] yes=41,no=42,missing=42
						41:leaf=0.242357999
						42:leaf=0.0281266347
				14:[dayofyear<141] yes=25,no=26,missing=26
					25:[wind_speed_-1h<2.56999993] yes=43,no=44,missing=44
						43:leaf=-0.110044859
						44:leaf=-0.238941059
					26:[pressure_-1h<1015] yes=45,no=46,missing=46
						45:leaf=-0.118325353
						46:leaf=0.0328096934
			8:[RealPower_-10q<0.0209999997] yes=15,no=16,missing=16
				15:[weather_main<8] yes=27,no=28,missing=28
					27:[RealPower_-1q<47.2280006] yes=47,no=48,missing=48
						47:leaf=0.161989689
						48:leaf=0.511992037
					28:leaf=-0.380445689
				16:[wind_deg_-3h<200] yes=29,no=30,missing=30
					29:[wind_deg_-1h<50] yes=49,no=50,missing=50
						49:leaf=-0.180490181
						50:leaf=0.0392982326
					30:[rain_1h<1.88] yes=51,no=52,missing=52
						51:leaf=0.578196466
						52:leaf=0.108680472
		4:leaf=1.50385392
	2:[RealPower_-3q<216.968002] yes=5,no=6,missing=6
		5:[rain_1h_-2h<0.379999995] yes=9,no=10,missing=9
			9:[hour<16] yes=17,no=18,missing=18
				17:[dayofyear<249] yes=31,no=32,missing=32
					31:[dayofyear<54] yes=53,no=54,missing=54
						53:leaf=0.169256717
						54:leaf=0.617054105
					32:[clouds_all<40] yes=55,no=56,missing=56
						55:leaf=0.448445022
						56:leaf=0.0873817354
				18:[RealPower_-12q<131.973999] yes=33,no=34,missing=34
					33:leaf=-0.755248845
					34:[wind_deg_-2h<330] yes=57,no=58,missing=58
						57:leaf=0.0865655765
						58:leaf=0.47402662
			10:[humidity_-2h<83] yes=19,no=20,missing=20
				19:leaf=-1.67233872
				20:leaf=0.25122568
		6:[RealPower_-6q<139.806] yes=11,no=12,missing=12
			11:leaf=1.80045819
			12:[hour<13] yes=21,no=22,missing=22
				21:[humidity<79] yes=35,no=36,missing=36
					35:[month<9] yes=59,no=60,missing=60
						59:leaf=0.963950336
						60:leaf=0.41189605
					36:[feels_like_-12h<18.5599995] yes=61,no=62,missing=62
						61:leaf=0.173058987
						62:leaf=0.711791217
				22:[year<2018] yes=37,no=38,missing=38
					37:[RealPower_-6q<222.970001] yes=63,no=64,missing=64
						63:leaf=-0.122693367
						64:leaf=0.487569571
					38:[temp_max<18.5300007] yes=65,no=66,missing=66
						65:leaf=0.537730634
						66:leaf=0.964055896
booster[18]:
0:[RealPower_-3q<113.595001] yes=1,no=2,missing=1
	1:[RealPower_-3q<70.8539963] yes=3,no=4,missing=3
		3:[RealPower_-6q<131.964996] yes=7,no=8,missing=7
			7:[temp_min<11.6400003] yes=13,no=14,missing=14
				13:[RealPower_-1q<66.2109985] yes=23,no=24,missing=23
					23:[RealPower_-1q<41.4399986] yes=39,no=40,missing=39
						39:leaf=0.0109276734
						40:leaf=0.273458064
					24:[quarter<2] yes=41,no=42,missing=42
						41:leaf=1.08867264
						42:leaf=0.152347222
				14:[RealPower_-3q<66.2109985] yes=25,no=26,missing=26
					25:[rain_1h_-1h<0.529999971] yes=43,no=44,missing=43
						43:leaf=0.00718524307
						44:leaf=-0.148381963
					26:[wind_deg_-3h<250] yes=45,no=46,missing=46
						45:leaf=-0.016946435
						46:leaf=-0.758269966
			8:leaf=1.30428278
		4:[feels_like_-10h<20.7800007] yes=9,no=10,missing=10
			9:[dayofyear<10] yes=15,no=16,missing=16
				15:leaf=-0.903599679
				16:[feels_like_-9h<11.6000004] yes=27,no=28,missing=28
					27:leaf=-0.617232978
					28:[temp_max<12.1300001] yes=47,no=48,missing=48
						47:leaf=0.615111589
						48:leaf=0.0633069426
			10:[temp_min<21.6499996] yes=17,no=18,missing=18
				17:[year<2016] yes=29,no=30,missing=30
					29:[feels_like_-7h<21.3500004] yes=49,no=50,missing=50
						49:leaf=1.73760247
						50:leaf=0.694670975
					30:[RealPower_-5q<57.4860001] yes=51,no=52,missing=52
						51:leaf=0.888293743
						52:leaf=0.177311674
				18:[wind_speed<3.08999991] yes=31,no=32,missing=32
					31:[RealPower_-8q<97.7979965] yes=53,no=54,missing=54
						53:leaf=-0.541097283
						54:leaf=0.07537058
					32:leaf=0.423924923
	2:[RealPower_-2q<92.7109985] yes=5,no=6,missing=6
		5:leaf=1.77084553
		6:[hour<15] yes=11,no=12,missing=12
			11:[humidity_-2h<80] yes=19,no=20,missing=20
				19:[temp_min_-2h<13.8500004] yes=33,no=34,missing=34
					33:[rain_1h<0.810000002] yes=55,no=56,missing=56
						55:leaf=-0.65476048
						56:leaf=0.38277939
					34:[feels_like_-4h<20.3299999] yes=57,no=58,missing=58
						57:leaf=0.712816
						58:leaf=0.257819027
				20:[RealPower_-1q<194.397995] yes=35,no=36,missing=36
					35:[RealPower_-7q<57.5040016] yes=59,no=60,missing=60
						59:leaf=0.764640808
						60:leaf=0.0153031247
					36:[temp_-8h<16.6800003] yes=61,no=62,missing=62
						61:leaf=0.205657512
						62:leaf=0.476115495
			12:[wind_speed_-2h<4.11999989] yes=21,no=22,missing=22
				21:[year<2018] yes=37,no=38,missing=38
					37:[humidity_-2h<85] yes=63,no=64,missing=64
						63:leaf=0.0546137132
						64:leaf=0.376766235
					38:[dayofmonth<15] yes=65,no=66,missing=66
						65:leaf=0.588118911
						66:leaf=0.240371183
				22:leaf=-0.550575674
booster[19]:
0:[RealPower_-3q<121.415001] yes=1,no=2,missing=1
	1:[RealPower_-3q<70.8539963] yes=3,no=4,missing=3
		3:[RealPower_-6q<131.964996] yes=7,no=8,missing=7
			7:[RealPower_-3q<63.9480019] yes=13,no=14,missing=13
				13:[RealPower_-3q<47.2280006] yes=23,no=24,missing=23
					23:[wind_deg<140] yes=37,no=38,missing=38
						37:leaf=0.0322096571
						38:leaf=-0.0044908477
					24:[RealPower_-9q<0.0610000007] yes=39,no=40,missing=40
						39:leaf=0.877706409
						40:leaf=0.0443430245
				14:[RealPower_-7q<14.1750002] yes=25,no=26,missing=26
					25:leaf=0.458302528
					26:[feels_like<16.1900005] yes=41,no=42,missing=42
						41:leaf=-0.615061402
						42:leaf=0.0023452295
			8:leaf=0.991321325
		4:[dayofyear<25] yes=9,no=10,missing=10
			9:[clouds_all<43] yes=15,no=16,missing=16
				15:leaf=0.136159956
				16:leaf=-0.901792169
			10:[dayofyear<239] yes=17,no=18,missing=18
				17:[hour<16] yes=27,no=28,missing=28
					27:[RealPower_-20q<47.2420006] yes=43,no=44,missing=44
						43:leaf=0.336778402
						44:leaf=1.43087125
					28:[month<3] yes=45,no=46,missing=46
						45:leaf=-0.722823203
						46:leaf=0.111071289
				18:[RealPower_-4q<87.6169968] yes=29,no=30,missing=30
					29:[RealPower_-3q<82.6819992] yes=47,no=48,missing=48
						47:leaf=-0
						48:leaf=0.599043906
					30:[RealPower_-6q<63.9480019] yes=49,no=50,missing=50
						49:leaf=0.545787752
						50:leaf=-0.307111472
	2:[RealPower_-2q<102.966003] yes=5,no=6,missing=6
		5:leaf=1.21127284
		6:[hour<14] yes=11,no=12,missing=12
			11:[humidity_-2h<79] yes=19,no=20,missing=20
				19:[wind_speed<4.11999989] yes=31,no=32,missing=32
					31:[dayofyear<28] yes=51,no=52,missing=52
						51:leaf=-0.102910198
						52:leaf=0.449508995
					32:leaf=1.05309045
				20:[RealPower_-13q<110.886002] yes=33,no=34,missing=34
					33:[RealPower_-1q<169.917007] yes=53,no=54,missing=54
						53:leaf=-0.257969528
						54:leaf=0.261222005
					34:[RealPower_-24q<43.1609993] yes=55,no=56,missing=56
						55:leaf=0.449783355
						56:leaf=-0.427932709
			12:[RealPower_-15q<73.1989975] yes=21,no=22,missing=22
				21:leaf=-0.986057937
				22:[RealPower_-21q<41.4570007] yes=35,no=36,missing=36
					35:leaf=-0.555451989
					36:[RealPower_-11q<164.513] yes=57,no=58,missing=58
						57:leaf=0.64569521
						58:leaf=0.172360003
booster[20]:
0:[RealPower_-3q<121.415001] yes=1,no=2,missing=1
	1:[RealPower_-3q<12.8570004] yes=3,no=4,missing=3
		3:[temp_-12h<25.8999996] yes=7,no=8,missing=7
			7:[dayofyear<131] yes=15,no=16,missing=16
				15:[RealPower_-3q<0.843999982] yes=27,no=28,missing=27
					27:[temp_-12h<17.5200005] yes=47,no=48,missing=47
						47:leaf=-0.00222544419
						48:leaf=0.0274757557
					28:[temp_-7h<18.4599991] yes=49,no=50,missing=50
						49:leaf=0.0328186899
						50:leaf=0.32497856
				16:[RealPower_-4q<3.35400009] yes=29,no=30,missing=30
					29:[RealPower_-3q<1.98000002] yes=51,no=52,missing=52
						51:leaf=-0.00625772262
						52:leaf=0.0530800223
					30:[RealPower_-8q<0.0610000007] yes=53,no=54,missing=54
						53:leaf=-0.334227145
						54:leaf=-0.0200780649
			8:[hour<7] yes=17,no=18,missing=18
				17:[year<2017] yes=31,no=32,missing=32
					31:leaf=-0.0151294302
					32:leaf=-0.0603956655
				18:[wind_speed_-3h<1.53999996] yes=33,no=34,missing=34
					33:leaf=0.261289209
					34:leaf=0.0600301623
		4:[dayofyear<12] yes=9,no=10,missing=10
			9:[RealPower_-2q<85.1849976] yes=19,no=20,missing=20
				19:[feels_like_-2h<12.6599998] yes=35,no=36,missing=36
					35:leaf=0.241690233
					36:leaf=-0.424173951
				20:leaf=-0.995454907
			10:[dayofyear<292] yes=21,no=22,missing=22
				21:[hour<17] yes=37,no=38,missing=38
					37:[RealPower_-6q<51.2970009] yes=55,no=56,missing=56
						55:leaf=0.0675467327
						56:leaf=0.380833328
					38:[year<2017] yes=57,no=58,missing=58
						57:leaf=-0.130212098
						58:leaf=0.0566756912
				22:[RealPower_-12q<5.12300014] yes=39,no=40,missing=40
					39:[RealPower_-3q<100.334] yes=59,no=60,missing=60
						59:leaf=0.0875483751
						60:leaf=0.93547219
					40:[RealPower_-11q<27.3470001] yes=61,no=62,missing=62
						61:leaf=-1.27023673
						62:leaf=-0.0942737758
	2:[RealPower_-5q<80.0459976] yes=5,no=6,missing=6
		5:[temp_-1h<16.5200005] yes=11,no=12,missing=12
			11:leaf=-1.17905772
			12:leaf=0.260883778
		6:[RealPower_-4q<124.050003] yes=13,no=14,missing=14
			13:[dayofyear<54] yes=23,no=24,missing=24
				23:leaf=-0.117963992
				24:[feels_like_-10h<22.25] yes=41,no=42,missing=42
					41:[pressure<1015] yes=63,no=64,missing=64
						63:leaf=1.51137388
						64:leaf=0.610319495
					42:[humidity<81] yes=65,no=66,missing=66
						65:leaf=0.469693661
						66:leaf=-0.287310272
			14:[RealPower_-1q<199.615005] yes=25,no=26,missing=26
				25:[RealPower_-12q<8.19200039] yes=43,no=44,missing=44
					43:leaf=0.652458727
					44:[RealPower_-12q<53.3479996] yes=67,no=68,missing=68
						67:leaf=-0.134917364
						68:leaf=0.131363794
				26:[RealPower_-10q<299.651001] yes=45,no=46,missing=46
					45:[clouds_all_-3h<40] yes=69,no=70,missing=70
						69:leaf=0.400710613
						70:leaf=0.242571935
					46:[wind_deg<190] yes=71,no=72,missing=72
						71:leaf=0.107961804
						72:leaf=-0.609146893
booster[21]:
0:[RealPower_-3q<175.531006] yes=1,no=2,missing=1
	1:[RealPower_-6q<232.085007] yes=3,no=4,missing=3
		3:[RealPower_-1q<225.936005] yes=7,no=8,missing=7
			7:[RealPower_-1q<55.3919983] yes=13,no=14,missing=13
				13:[rain_1h_-3h<0.209999993] yes=19,no=20,missing=20
					19:[temp_min_-2h<12.9499998] yes=29,no=30,missing=30
						29:leaf=0.483461142
						30:leaf=0.0269510653
					20:[RealPower_-15q<263.608002] yes=31,no=32,missing=31
						31:leaf=-0.000515715976
						32:leaf=0.197049767
				14:[RealPower_-18q<-0.0170000009] yes=21,no=22,missing=22
					21:leaf=1.15309691
					22:[wind_speed_-2h<3.5999999] yes=33,no=34,missing=34
						33:leaf=0.0996967927
						34:leaf=-0.224284962
			8:leaf=-1.62248373
		4:leaf=1.05255818
	2:[RealPower_-17q<0.136000007] yes=5,no=6,missing=6
		5:[feels_like_-2h<16.2299995] yes=9,no=10,missing=10
			9:leaf=0.951786697
			10:leaf=0.382949769
		6:[RealPower_-3q<256.860992] yes=11,no=12,missing=12
			11:[RealPower_-22q<0.00499999989] yes=15,no=16,missing=16
				15:[temp_-5h<14.4799995] yes=23,no=24,missing=24
					23:[clouds_all_-1h<40] yes=35,no=36,missing=36
						35:leaf=0.401171863
						36:leaf=1.1549623
					24:[RealPower_-3q<196.970001] yes=37,no=38,missing=38
						37:leaf=-0.220612153
						38:leaf=0.37802276
				16:[RealPower_-14q<66.2369995] yes=25,no=26,missing=26
					25:[RealPower_-1q<219.981003] yes=39,no=40,missing=40
						39:leaf=-0.676320195
						40:leaf=0.154768273
					26:[RealPower_-1q<267.02301] yes=41,no=42,missing=42
						41:leaf=0.155622154
						42:leaf=-0.845563352
			12:[RealPower_-2q<245.725998] yes=17,no=18,missing=18
				17:leaf=0.903497398
				18:[dayofmonth<13] yes=27,no=28,missing=28
					27:[humidity_-3h<84] yes=43,no=44,missing=44
						43:leaf=0.227213323
						44:leaf=-0.253307015
					28:[RealPower_-2q<299.651001] yes=45,no=46,missing=46
						45:leaf=0.29580155
						46:leaf=0.668174565
booster[22]:
0:[RealPower_-3q<121.415001] yes=1,no=2,missing=1
	1:[rain_3h_-1h<0.800000012] yes=3,no=4,missing=3
		3:[rain_1h_-1h<0.109999999] yes=7,no=8,missing=8
			7:leaf=-0.450333476
			8:[month<2] yes=13,no=14,missing=14
				13:[RealPower_-5q<100.347] yes=19,no=20,missing=19
					19:[temp_max<11.6300001] yes=27,no=28,missing=28
						27:leaf=0.382365495
						28:leaf=-0.0323230624
					20:[feels_like_-6h<12.54] yes=29,no=30,missing=30
						29:leaf=-0.253674865
						30:leaf=-0.98662591
				14:[humidity_-2h<81] yes=21,no=22,missing=22
					21:[rain_1h_-3h<0.170000002] yes=31,no=32,missing=31
						31:leaf=-0.000191666491
						32:leaf=0.182634056
					22:[dayofyear<310] yes=33,no=34,missing=34
						33:leaf=0.130452409
						34:leaf=-0.063955538
		4:leaf=-0.422052175
	2:[RealPower_-17q<0] yes=5,no=6,missing=6
		5:[wind_deg_-3h<20] yes=9,no=10,missing=10
			9:leaf=0.34498015
			10:leaf=1.06840074
		6:[RealPower_-5q<80.0459976] yes=11,no=12,missing=12
			11:[temp_-2h<16.3600006] yes=15,no=16,missing=16
				15:leaf=-1.31776869
				16:leaf=0.153556406
			12:[RealPower_-4q<110.875] yes=17,no=18,missing=18
				17:[dayofweek<4] yes=23,no=24,missing=24
					23:leaf=0.112411961
					24:leaf=1.52714503
				18:[dayofyear<72] yes=25,no=26,missing=26
					25:[weather_main<8] yes=35,no=36,missing=36
						35:leaf=0.0196479615
						36:leaf=-0.778783321
					26:[dayofyear<225] yes=37,no=38,missing=38
						37:leaf=0.20490396
						38:leaf=0.0270340759
booster[23]:
0:[RealPower_-3q<175.531006] yes=1,no=2,missing=1
	1:[RealPower_-6q<232.085007] yes=3,no=4,missing=3
		3:[wind_deg<110] yes=7,no=8,missing=8
			7:[RealPower_-24q<124.071999] yes=13,no=14,missing=14
				13:[RealPower_-3q<73.1910019] yes=21,no=22,missing=22
					21:[RealPower_-5q<75.4290009] yes=33,no=34,missing=34
						33:leaf=0.0129672429
						34:leaf=0.435650885
					22:[rain_1h_-1h<1.82000005] yes=35,no=36,missing=36
						35:leaf=1.07297504
						36:leaf=0.133258358
				14:[temp_-3h<18.2700005] yes=23,no=24,missing=23
					23:[RealPower_-6q<134.453003] yes=37,no=38,missing=38
						37:leaf=-0.0455131084
						38:leaf=-0.324701816
					24:[RealPower_-15q<205.115005] yes=39,no=40,missing=40
						39:leaf=-0.0421215519
						40:leaf=0.28095749
			8:[RealPower_-7q<186.181] yes=15,no=16,missing=16
				15:[RealPower_-7q<85.1849976] yes=25,no=26,missing=26
					25:[RealPower_-5q<85.1849976] yes=41,no=42,missing=42
						41:leaf=-0.00403436925
						42:leaf=-0.403986901
					26:[rain_1h<0.239999995] yes=43,no=44,missing=44
						43:leaf=1.16967094
						44:leaf=0.0598058589
				16:[RealPower_-15q<161.757004] yes=27,no=28,missing=28
					27:leaf=-0.999406338
					28:[RealPower_-15q<235.804993] yes=45,no=46,missing=46
						45:leaf=0.28020522
						46:leaf=-0.177971303
		4:leaf=0.766974747
	2:[RealPower_-9q<68.4309998] yes=5,no=6,missing=6
		5:[temp_max_-2h<16.3600006] yes=9,no=10,missing=10
			9:leaf=1.50106013
			10:[dayofweek<4] yes=17,no=18,missing=18
				17:leaf=-0.204949722
				18:leaf=0.583293915
		6:[RealPower_-5q<139.806] yes=11,no=12,missing=12
			11:leaf=-0.570217848
			12:[RealPower_-19q<0.372000009] yes=19,no=20,missing=20
				19:[RealPower_-9q<113.602997] yes=29,no=30,missing=30
					29:[temp_-9h<17.2800007] yes=47,no=48,missing=48
						47:leaf=-0.385960877
						48:leaf=0.40337044
					30:[temp_-12h<19.0499992] yes=49,no=50,missing=50
						49:leaf=1.0074631
						50:leaf=0.286411345
				20:[RealPower_-13q<37.7070007] yes=31,no=32,missing=32
					31:leaf=-0.54277432
					32:[RealPower_-6q<156.475006] yes=51,no=52,missing=52
						51:leaf=0.468125641
						52:leaf=0.0896914229
booster[24]:
0:[RealPower_-3q<216.968002] yes=1,no=2,missing=1
	1:[rain_1h_-1h<0.109999999] yes=3,no=4,missing=4
		3:leaf=-0.516330421
		4:[RealPower_-8q<273.859009] yes=7,no=8,missing=7
			7:[RealPower_-10q<277.839996] yes=11,no=12,missing=11
				11:[RealPower_-10q<263.608002] yes=17,no=18,missing=17
					17:[rain_3h_-1h<0.800000012] yes=25,no=26,missing=25
						25:leaf=0.0121087115
						26:leaf=-0.384600282
					18:[clouds_all<43] yes=27,no=28,missing=28
						27:leaf=0.0306273252
						28:leaf=-0.613041162
				12:leaf=0.52815032
			8:leaf=0.554464638
	2:[RealPower_-5q<167.220001] yes=5,no=6,missing=6
		5:leaf=0.9527753
		6:[humidity<82] yes=9,no=10,missing=10
			9:[rain_1h_-1h<0.150000006] yes=13,no=14,missing=13
				13:[RealPower_-8q<124.061996] yes=19,no=20,missing=20
					19:leaf=0.53686738
					20:[RealPower_-13q<63.9609985] yes=29,no=30,missing=30
						29:leaf=-0.322451085
						30:leaf=0.145901412
				14:leaf=0.84255147
			10:[feels_like_-11h<18.8099995] yes=15,no=16,missing=16
				15:[temp_min_-3h<14.7700005] yes=21,no=22,missing=22
					21:[humidity_-3h<84] yes=31,no=32,missing=32
						31:leaf=0.417883545
						32:leaf=-0.1676763
					22:[temp_-4h<16.7700005] yes=33,no=34,missing=34
						33:leaf=-1.08149886
						34:leaf=-0.524782896
				16:[temp_-6h<19.7099991] yes=23,no=24,missing=24
					23:[feels_like_-7h<19.2600002] yes=35,no=36,missing=36
						35:leaf=0.226724535
						36:leaf=0.60866493
					24:[feels_like_-9h<21.6499996] yes=37,no=38,missing=38
						37:leaf=-0.819963455
						38:leaf=0.142727807
booster[25]:
0:[rain_3h_-2h<2.29999995] yes=1,no=2,missing=1
	1:[RealPower_-3q<100.334] yes=3,no=4,missing=3
		3:[RealPower_-10q<225.949005] yes=5,no=6,missing=5
			5:[feels_like<12] yes=9,no=10,missing=10
				9:[year<2017] yes=15,no=16,missing=16
					15:[feels_like_-12h<14.9499998] yes=23,no=24,missing=23
						23:leaf=0.0386300907
						24:leaf=0.624433637
					16:[dayofyear<332] yes=25,no=26,missing=26
						25:leaf=0.0653470084
						26:leaf=-0.163922966
				10:[RealPower_-3q<57.4860001] yes=17,no=18,missing=18
					17:[RealPower_-3q<55.3989983] yes=27,no=28,missing=28
						27:leaf=-0.00221213326
						28:leaf=0.306320697
					18:[dayofyear<55] yes=29,no=30,missing=30
						29:leaf=-0.527668238
						30:leaf=-0.0318656713
			6:leaf=0.772099853
		4:[RealPower_-17q<-0.00400000019] yes=7,no=8,missing=8
			7:[clouds_all<40] yes=11,no=12,missing=12
				11:leaf=0.619594157
				12:leaf=0.765231311
			8:[rain_1h_-3h<0.300000012] yes=13,no=14,missing=13
				13:[rain_1h_-1h<0.219999999] yes=19,no=20,missing=19
					19:[RealPower_-13q<0.505999982] yes=31,no=32,missing=32
						31:leaf=0.421323568
						32:leaf=0.0340873636
					20:leaf=0.804129541
				14:[temp_min_-1h<12.75] yes=21,no=22,missing=22
					21:leaf=-1.31613028
					22:leaf=0.0138558336
	2:leaf=0.667204678
