booster[0]:
0:[RealPower_-1q<288.863007] yes=1,no=2,missing=1
	1:[RealPower_-1q<220.802002] yes=3,no=4,missing=3
		3:[RealPower_-1q<190.513] yes=7,no=8,missing=7
			7:[RealPower_-1q<170.798004] yes=15,no=16,missing=16
				15:[RealPower_-1q<158.080994] yes=31,no=32,missing=32
					31:[RealPower_-1q<148.319] yes=59,no=60,missing=60
						59:leaf=28.4608002
						60:leaf=30.8221283
					32:[RealPower_-1q<165.184998] yes=61,no=62,missing=62
						61:leaf=32.3983727
						62:leaf=33.6671677
				16:[RealPower_-1q<180.037994] yes=33,no=34,missing=33
					33:leaf=35.2305145
					34:[RealPower_-1q<185.389999] yes=63,no=64,missing=64
						63:leaf=36.7363701
						64:leaf=37.758625
			8:[RealPower_-1q<206.320999] yes=17,no=18,missing=18
				17:[RealPower_-1q<196.988998] yes=35,no=36,missing=36
					35:leaf=38.8742676
					36:leaf=40.4975548
				18:[RealPower_-1q<214.694] yes=37,no=38,missing=38
					37:leaf=42.1698685
					38:leaf=43.6528473
		4:[RealPower_-1q<255.475006] yes=9,no=10,missing=10
			9:[RealPower_-1q<238.057007] yes=19,no=20,missing=20
				19:[RealPower_-1q<230.348007] yes=39,no=40,missing=40
					39:[hour<6] yes=65,no=66,missing=66
						65:leaf=44.5362244
						66:[hour<7] yes=69,no=70,missing=70
							69:leaf=48.3908806
							70:leaf=45.1256523
					40:leaf=46.7368393
				20:[RealPower_-1q<246.593002] yes=41,no=42,missing=42
					41:leaf=48.2798119
					42:leaf=49.9601135
			10:[RealPower_-1q<270.963989] yes=21,no=22,missing=22
				21:[RealPower_-1q<262.38501] yes=43,no=44,missing=44
					43:leaf=51.4532967
					44:leaf=53.039608
				22:[RealPower_-1q<278.825989] yes=45,no=46,missing=46
					45:leaf=54.7270088
					46:leaf=56.5533752
	2:[RealPower_-1q<349.800995] yes=5,no=6,missing=6
		5:[RealPower_-1q<318.421997] yes=11,no=12,missing=12
			11:[RealPower_-1q<304.057007] yes=23,no=24,missing=24
				23:[RealPower_-1q<295.687012] yes=47,no=48,missing=48
					47:leaf=58.3055611
					48:leaf=59.887104
				24:leaf=62.1983299
			12:[RealPower_-1q<334.087006] yes=25,no=26,missing=26
				25:leaf=65.2861862
				26:[hour<23] yes=49,no=50,missing=50
					49:leaf=68.6631088
					50:leaf=65.2734451
		6:[RealPower_-1q<391.044006] yes=13,no=14,missing=14
			13:[RealPower_-1q<369.52301] yes=27,no=28,missing=28
				27:[hour<23] yes=51,no=52,missing=52
					51:[RealPower_-1q<359.720001] yes=67,no=68,missing=68
						67:leaf=71.1463776
						68:leaf=72.9949265
					52:leaf=67.5626144
				28:[RealPower_-1q<377.536011] yes=53,no=54,missing=54
					53:leaf=74.3272324
					54:leaf=76.3612747
			14:[RealPower_-1q<415.289001] yes=29,no=30,missing=30
				29:[RealPower_-1q<403.15799] yes=55,no=56,missing=56
					55:leaf=78.8459778
					56:leaf=81.2569962
				30:[RealPower_-1q<440.328003] yes=57,no=58,missing=58
					57:leaf=84.3071136
					58:leaf=89.1602707
booster[1]:
0:[RealPower_-1q<289.987] yes=1,no=2,missing=1
	1:[RealPower_-1q<223.212006] yes=3,no=4,missing=3
		3:[RealPower_-1q<192.197998] yes=7,no=8,missing=7
			7:[RealPower_-1q<172.878998] yes=15,no=16,missing=16
				15:[RealPower_-1q<161.063995] yes=31,no=32,missing=32
					31:[RealPower_-1q<148.319] yes=63,no=64,missing=64
						63:leaf=22.7788963
						64:leaf=24.9184113
					32:[RealPower_-1q<168.074005] yes=65,no=66,missing=66
						65:leaf=26.4006901
						66:leaf=27.3356533
				16:[RealPower_-1q<182.651001] yes=33,no=34,missing=33
					33:[RealPower_-1q<178.384995] yes=67,no=68,missing=68
						67:leaf=28.1985626
						68:leaf=29.035696
					34:[hour<6] yes=69,no=70,missing=70
						69:leaf=29.7349148
						70:[hour<7] yes=83,no=84,missing=84
							83:leaf=33.8508835
							84:leaf=29.8906155
			8:[RealPower_-1q<208.317993] yes=17,no=18,missing=18
				17:[RealPower_-1q<199.813004] yes=35,no=36,missing=36
					35:[hour<6] yes=71,no=72,missing=72
						71:leaf=30.9678288
						72:[hour<7] yes=85,no=86,missing=86
							85:leaf=35.4639359
							86:leaf=31.2180214
					36:leaf=32.7498779
				18:[RealPower_-1q<216.539993] yes=37,no=38,missing=38
					37:leaf=34.0587997
					38:leaf=35.2409859
		4:[RealPower_-1q<258.093994] yes=9,no=10,missing=10
			9:[RealPower_-1q<241.188004] yes=19,no=20,missing=20
				19:[RealPower_-1q<233.156006] yes=39,no=40,missing=40
					39:[hour<23] yes=73,no=74,missing=74
						73:[hour<6] yes=87,no=88,missing=88
							87:leaf=35.9989281
							88:leaf=37.0757828
						74:leaf=33.4090271
					40:[hour<23] yes=75,no=76,missing=76
						75:[hour<6] yes=89,no=90,missing=90
							89:leaf=37.1448441
							90:leaf=38.2701759
						76:leaf=34.4159393
				20:[RealPower_-1q<250.639999] yes=41,no=42,missing=42
					41:[RealPower_-11q<262.408997] yes=77,no=78,missing=78
						77:leaf=39.4469376
						78:leaf=38.4871635
					42:leaf=40.5102501
			10:[RealPower_-1q<274.309998] yes=21,no=22,missing=22
				21:[RealPower_-1q<265.274994] yes=43,no=44,missing=44
					43:leaf=41.6100502
					44:leaf=42.9474983
				22:[RealPower_-1q<283.695007] yes=45,no=46,missing=46
					45:leaf=44.4409103
					46:leaf=45.8159447
	2:[RealPower_-1q<346.342987] yes=5,no=6,missing=6
		5:[RealPower_-1q<315.651001] yes=11,no=12,missing=12
			11:[RealPower_-1q<301.734985] yes=23,no=24,missing=24
				23:[RealPower_-19q<306.424988] yes=47,no=48,missing=48
					47:leaf=47.6904297
					48:leaf=46.1732597
				24:[RealPower_-17q<332.781006] yes=49,no=50,missing=50
					49:leaf=49.7649727
					50:leaf=47.9777946
			12:[RealPower_-1q<328.833008] yes=25,no=26,missing=26
				25:[RealPower_-17q<351.964996] yes=51,no=52,missing=52
					51:leaf=51.8486748
					52:leaf=49.9790268
				26:[RealPower_-1q<339.158997] yes=53,no=54,missing=54
					53:leaf=53.4859009
					54:leaf=54.8747444
		6:[RealPower_-1q<386.389008] yes=13,no=14,missing=14
			13:[RealPower_-1q<365.105988] yes=27,no=28,missing=28
				27:[hour<23] yes=55,no=56,missing=56
					55:[RealPower_-1q<355.408997] yes=79,no=80,missing=80
						79:leaf=56.3355064
						80:leaf=57.7552261
					56:leaf=53.8037605
				28:[hour<23] yes=57,no=58,missing=58
					57:[RealPower_-1q<375.071991] yes=81,no=82,missing=82
						81:leaf=59.2311821
						82:leaf=60.7480354
					58:leaf=55.4163513
			14:[RealPower_-1q<411.803009] yes=29,no=30,missing=30
				29:[RealPower_-1q<398.67099] yes=59,no=60,missing=60
					59:leaf=62.3762398
					60:leaf=64.3699722
				30:[RealPower_-1q<430.233002] yes=61,no=62,missing=62
					61:leaf=66.6428757
					62:leaf=70.3055344
booster[2]:
0:[RealPower_-1q<291.080994] yes=1,no=2,missing=1
	1:[RealPower_-1q<224.858994] yes=3,no=4,missing=3
		3:[RealPower_-1q<193.035995] yes=7,no=8,missing=7
			7:[RealPower_-1q<173.839005] yes=15,no=16,missing=16
				15:[RealPower_-1q<161.063995] yes=31,no=32,missing=32
					31:[RealPower_-1q<154.742004] yes=63,no=64,missing=64
						63:leaf=18.7447109
						64:leaf=20.2763157
					32:[RealPower_-1q<168.074005] yes=65,no=66,missing=66
						65:leaf=21.1229382
						66:leaf=21.9351921
				16:[RealPower_-1q<184.511993] yes=33,no=34,missing=33
					33:[hour<6] yes=67,no=68,missing=68
						67:leaf=22.7368107
						68:[hour<7] yes=101,no=102,missing=102
							101:leaf=26.9239407
							102:leaf=22.8205547
					34:[hour<6] yes=69,no=70,missing=70
						69:leaf=23.9530182
						70:[hour<7] yes=103,no=104,missing=104
							103:leaf=27.2583656
							104:leaf=24.0802174
			8:[RealPower_-1q<211.076996] yes=17,no=18,missing=18
				17:[RealPower_-1q<201.593002] yes=35,no=36,missing=36
					35:[hour<6] yes=71,no=72,missing=72
						71:leaf=24.902998
						72:[hour<7] yes=105,no=106,missing=106
							105:leaf=28.6323891
							106:leaf=25.1661587
					36:[hour<6] yes=73,no=74,missing=74
						73:leaf=25.9650402
						74:[hour<7] yes=107,no=108,missing=108
							107:leaf=29.6270962
							108:leaf=26.2759151
				18:[hour<6] yes=37,no=38,missing=38
					37:[RealPower_-1q<219.128006] yes=75,no=76,missing=76
						75:leaf=27.1044865
						76:leaf=27.9711456
					38:[RealPower_-24q<283.618011] yes=77,no=78,missing=78
						77:[hour<23] yes=109,no=110,missing=110
							109:leaf=28.014349
							110:leaf=25.9268322
						78:[dayofweek<5] yes=111,no=112,missing=112
							111:leaf=32.9604492
							112:leaf=28.501236
		4:[RealPower_-1q<259.483002] yes=9,no=10,missing=10
			9:[RealPower_-1q<243.585007] yes=19,no=20,missing=20
				19:[RealPower_-1q<234.612] yes=39,no=40,missing=40
					39:[hour<23] yes=79,no=80,missing=80
						79:[hour<6] yes=113,no=114,missing=114
							113:leaf=28.9678841
							114:leaf=29.8215466
						80:leaf=27.0717907
					40:[hour<23] yes=81,no=82,missing=82
						81:[hour<6] yes=115,no=116,missing=116
							115:leaf=29.9429989
							116:leaf=30.8239193
						82:leaf=27.6150188
				20:[RealPower_-1q<251.238007] yes=41,no=42,missing=42
					41:[hour<23] yes=83,no=84,missing=84
						83:[hour<5] yes=117,no=118,missing=118
							117:leaf=30.866724
							118:leaf=31.7968044
						84:leaf=28.8308468
					42:[RealPower_-12q<276.114014] yes=85,no=86,missing=86
						85:leaf=32.75243
						86:leaf=31.6555271
			10:[RealPower_-1q<273.429993] yes=21,no=22,missing=22
				21:[hour<6] yes=43,no=44,missing=44
					43:leaf=33.0177422
					44:[RealPower_-1q<266.795013] yes=87,no=88,missing=88
						87:leaf=33.7220383
						88:leaf=34.7097969
				22:[RealPower_-1q<282.697998] yes=45,no=46,missing=46
					45:[hour<5] yes=89,no=90,missing=90
						89:leaf=34.4183693
						90:leaf=35.7573242
					46:[RealPower_-24q<330.045013] yes=91,no=92,missing=92
						91:leaf=36.9538345
						92:leaf=35.5220642
	2:[RealPower_-1q<352.037994] yes=5,no=6,missing=6
		5:[RealPower_-1q<322.371002] yes=11,no=12,missing=12
			11:[RealPower_-1q<309.135986] yes=23,no=24,missing=24
				23:[hour<8] yes=47,no=48,missing=48
					47:leaf=37.3137398
					48:[RealPower_-1q<297.984985] yes=93,no=94,missing=94
						93:leaf=37.9892464
						94:leaf=39.0935555
				24:[RealPower_-24q<335.257996] yes=49,no=50,missing=50
					49:leaf=40.7302094
					50:leaf=39.1545677
			12:[RealPower_-1q<340.337006] yes=25,no=26,missing=26
				25:[hour<23] yes=51,no=52,missing=52
					51:[RealPower_-1q<330.153015] yes=95,no=96,missing=96
						95:leaf=42.003994
						96:leaf=43.113945
					52:leaf=40.4214897
				26:[hour<23] yes=53,no=54,missing=54
					53:leaf=44.5395699
					54:leaf=41.9201279
		6:[RealPower_-1q<392.648987] yes=13,no=14,missing=14
			13:[RealPower_-1q<371.643005] yes=27,no=28,missing=28
				27:[hour<23] yes=55,no=56,missing=56
					55:[RealPower_-1q<361.860992] yes=97,no=98,missing=98
						97:leaf=45.8057213
						98:leaf=46.9854698
					56:leaf=43.4344025
				28:[hour<23] yes=57,no=58,missing=58
					57:[RealPower_-1q<382.286011] yes=99,no=100,missing=100
						99:leaf=48.141098
						100:leaf=49.4942017
					58:leaf=44.7867775
			14:[RealPower_-1q<419.095001] yes=29,no=30,missing=30
				29:[RealPower_-1q<405.654999] yes=59,no=60,missing=60
					59:leaf=50.7484398
					60:leaf=52.3769112
				30:[RealPower_-1q<440.328003] yes=61,no=62,missing=62
					61:leaf=54.3699722
					62:leaf=57.3244743
booster[3]:
0:[RealPower_-1q<286.786011] yes=1,no=2,missing=1
	1:[RealPower_-1q<219.128006] yes=3,no=4,missing=3
		3:[RealPower_-1q<187.841003] yes=7,no=8,missing=7
			7:[RealPower_-1q<169.488007] yes=15,no=16,missing=16
				15:[RealPower_-1q<154.742004] yes=31,no=32,missing=32
					31:[RealPower_-2q<148.319] yes=63,no=64,missing=64
						63:leaf=14.4692173
						64:leaf=15.5010939
					32:[RealPower_-1q<163.25] yes=65,no=66,missing=66
						65:leaf=16.2950726
						66:leaf=17.1174335
				16:[RealPower_-1q<179.244003] yes=33,no=34,missing=34
					33:[hour<6] yes=67,no=68,missing=68
						67:[RealPower_-1q<175.559006] yes=99,no=100,missing=100
							99:leaf=17.4362354
							100:leaf=18.0688305
						68:[hour<7] yes=101,no=102,missing=102
							101:leaf=20.9949017
							102:leaf=17.7340183
					34:[hour<6] yes=69,no=70,missing=70
						69:leaf=18.6050148
						70:[hour<7] yes=103,no=104,missing=104
							103:leaf=21.8751678
							104:leaf=18.6741028
			8:[RealPower_-1q<202.496994] yes=17,no=18,missing=18
				17:[RealPower_-1q<195.003998] yes=35,no=36,missing=36
					35:leaf=19.7057095
					36:[hour<6] yes=71,no=72,missing=72
						71:leaf=20.0668297
						72:[hour<7] yes=105,no=106,missing=106
							105:leaf=23.2633171
							106:leaf=20.267086
				18:[RealPower_-1q<211.940002] yes=37,no=38,missing=38
					37:[RealPower_-11q<231.768997] yes=73,no=74,missing=74
						73:[RealPower_-24q<265.240997] yes=107,no=108,missing=108
							107:leaf=21.2045536
							108:leaf=22.581213
						74:leaf=20.7893486
					38:[RealPower_-2q<213.811996] yes=75,no=76,missing=76
						75:[dayofweek<5] yes=109,no=110,missing=110
							109:leaf=23.5785694
							110:leaf=22.1142712
						76:leaf=21.8926773
		4:[RealPower_-1q<253.667007] yes=9,no=10,missing=10
			9:[RealPower_-1q<236.714005] yes=19,no=20,missing=20
				19:[RealPower_-1q<227.246002] yes=39,no=40,missing=40
					39:[RealPower_-9q<233.184006] yes=77,no=78,missing=78
						77:[RealPower_-23q<276.010986] yes=111,no=112,missing=112
							111:leaf=22.8446808
							112:leaf=24.5935879
						78:leaf=22.5197277
					40:[RealPower_-10q<251.248993] yes=79,no=80,missing=80
						79:[RealPower_-23q<277.720001] yes=113,no=114,missing=114
							113:leaf=23.7737122
							114:leaf=25.4501343
						80:leaf=23.3360119
				20:[RealPower_-1q<245.964996] yes=41,no=42,missing=42
					41:[hour<23] yes=81,no=82,missing=82
						81:[hour<6] yes=115,no=116,missing=116
							115:leaf=24.1745529
							116:leaf=24.8564529
						82:leaf=22.1427479
					42:[RealPower_-12q<276.960999] yes=83,no=84,missing=84
						83:leaf=25.6316929
						84:leaf=24.8543072
			10:[RealPower_-1q<268.424988] yes=21,no=22,missing=22
				21:[RealPower_-12q<277.813995] yes=43,no=44,missing=44
					43:[RealPower_-1q<260.964996] yes=85,no=86,missing=86
						85:leaf=26.3995724
						86:leaf=27.1833782
					44:leaf=25.889246
				22:[RealPower_-1q<277.790009] yes=45,no=46,missing=46
					45:[hour<6] yes=87,no=88,missing=88
						87:leaf=27.0959778
						88:leaf=28.0811462
					46:[hour<4] yes=89,no=90,missing=90
						89:leaf=27.9114265
						90:leaf=29.113306
	2:[RealPower_-1q<344.013] yes=5,no=6,missing=6
		5:[RealPower_-1q<313.033997] yes=11,no=12,missing=12
			11:[RealPower_-1q<297.984985] yes=23,no=24,missing=24
				23:[RealPower_-18q<309.032013] yes=47,no=48,missing=48
					47:leaf=30.1791325
					48:leaf=29.1372261
				24:[RealPower_-17q<315.574005] yes=49,no=50,missing=50
					49:leaf=31.5607185
					50:leaf=30.4292278
			12:[RealPower_-1q<326.259003] yes=25,no=26,missing=26
				25:[RealPower_-16q<348.54599] yes=51,no=52,missing=52
					51:leaf=32.9859886
					52:leaf=31.7240124
				26:[hour<21] yes=53,no=54,missing=54
					53:[hour<7] yes=91,no=92,missing=92
						91:leaf=32.1126518
						92:leaf=34.6806602
					54:leaf=33.2652817
		6:[RealPower_-1q<384.946991] yes=13,no=14,missing=14
			13:[RealPower_-1q<366.285004] yes=27,no=28,missing=28
				27:[hour<23] yes=55,no=56,missing=56
					55:[RealPower_-1q<356.48999] yes=93,no=94,missing=94
						93:leaf=36.0562248
						94:leaf=37.0665207
					56:leaf=34.3420677
				28:[hour<23] yes=57,no=58,missing=58
					57:[RealPower_-1q<376.358002] yes=95,no=96,missing=96
						95:leaf=38.0243759
						96:leaf=38.8715935
					58:leaf=35.5125122
			14:[RealPower_-1q<408.557007] yes=29,no=30,missing=30
				29:[hour<23] yes=59,no=60,missing=60
					59:[RealPower_-1q<396.541992] yes=97,no=98,missing=98
						97:leaf=39.8904724
						98:leaf=41.0499001
					60:leaf=36.1254234
				30:[RealPower_-1q<423.843994] yes=61,no=62,missing=62
					61:leaf=42.2321968
					62:leaf=44.6302338
booster[4]:
0:[RealPower_-1q<292.216003] yes=1,no=2,missing=1
	1:[RealPower_-1q<222.404007] yes=3,no=4,missing=3
		3:[RealPower_-1q<188.792007] yes=7,no=8,missing=7
			7:[RealPower_-1q<171.908005] yes=15,no=16,missing=16
				15:[RealPower_-1q<158.080994] yes=31,no=32,missing=32
					31:[RealPower_-2q<148.319] yes=63,no=64,missing=64
						63:leaf=11.5791712
						64:leaf=12.6192799
					32:[RealPower_-1q<163.25] yes=65,no=66,missing=66
						65:leaf=13.1422548
						66:leaf=13.7755251
				16:[RealPower_-1q<180.882996] yes=33,no=34,missing=34
					33:[RealPower_-15q<176.503006] yes=67,no=68,missing=68
						67:[hour<7] yes=105,no=106,missing=106
							105:leaf=15.6914186
							106:leaf=14.4157944
						68:[RealPower_-1q<176.505005] yes=107,no=108,missing=108
							107:leaf=14.0739241
							108:leaf=14.5807362
					34:[RealPower_-14q<182.707001] yes=69,no=70,missing=70
						69:[dayofweek<5] yes=109,no=110,missing=110
							109:leaf=16.7891903
							110:leaf=15.0456009
						70:leaf=15.049983
			8:[RealPower_-1q<207.337006] yes=17,no=18,missing=18
				17:[RealPower_-1q<198.871994] yes=35,no=36,missing=36
					35:[hour<6] yes=71,no=72,missing=72
						71:leaf=15.6916037
						72:[hour<7] yes=111,no=112,missing=112
							111:leaf=17.9482498
							112:leaf=15.8262577
					36:[RealPower_-2q<198.882004] yes=73,no=74,missing=74
						73:[RealPower_-24q<267.477997] yes=113,no=114,missing=114
							113:leaf=16.8815842
							114:leaf=21.3123913
						74:leaf=16.5466061
				18:[hour<6] yes=37,no=38,missing=38
					37:[RealPower_-1q<213.796997] yes=75,no=76,missing=76
						75:leaf=16.9129314
						76:leaf=17.5490532
					38:[hour<7] yes=77,no=78,missing=78
						77:[dayofweek<5] yes=115,no=116,missing=116
							115:leaf=21.8318539
							116:leaf=17.7495461
						78:[hour<23] yes=117,no=118,missing=118
							117:leaf=17.581646
							118:leaf=16.2878895
		4:[RealPower_-1q<256.774994] yes=9,no=10,missing=10
			9:[RealPower_-1q<239.977997] yes=19,no=20,missing=20
				19:[RealPower_-1q<231.020996] yes=39,no=40,missing=40
					39:[hour<23] yes=79,no=80,missing=80
						79:[hour<6] yes=119,no=120,missing=120
							119:leaf=18.2673588
							120:leaf=18.9104633
						80:leaf=16.7532787
					40:[RealPower_-2q<231.751999] yes=81,no=82,missing=82
						81:[RealPower_-24q<279.700989] yes=121,no=122,missing=122
							121:leaf=19.4216671
							122:leaf=21.4652481
						82:[hour<23] yes=123,no=124,missing=124
							123:leaf=19.1547375
							124:leaf=17.1865883
				20:[RealPower_-1q<248.306] yes=41,no=42,missing=42
					41:[hour<23] yes=83,no=84,missing=84
						83:[hour<4] yes=125,no=126,missing=126
							125:leaf=19.4677105
							126:leaf=20.06777
						84:leaf=18.1687794
					42:[hour<23] yes=85,no=86,missing=86
						85:[hour<6] yes=127,no=128,missing=128
							127:leaf=20.0751343
							128:leaf=20.7943707
						86:leaf=17.9627228
			10:[RealPower_-1q<272.61499] yes=21,no=22,missing=22
				21:[RealPower_-1q<263.757996] yes=43,no=44,missing=44
					43:[RealPower_-12q<276.114014] yes=87,no=88,missing=88
						87:leaf=21.3564167
						88:leaf=20.5209332
					44:[RealPower_-12q<285.670013] yes=89,no=90,missing=90
						89:leaf=22.0684948
						90:leaf=21.3638916
				22:[RealPower_-1q<284.696014] yes=45,no=46,missing=46
					45:[RealPower_-13q<252.466995] yes=91,no=92,missing=92
						91:leaf=23.1642818
						92:leaf=22.3976059
					46:[RealPower_-16q<294.40799] yes=93,no=94,missing=94
						93:leaf=23.8581085
						94:leaf=22.9933987
	2:[RealPower_-1q<354.260986] yes=5,no=6,missing=6
		5:[RealPower_-1q<323.679993] yes=11,no=12,missing=12
			11:[RealPower_-1q<306.605011] yes=23,no=24,missing=24
				23:[RealPower_-24q<268.364014] yes=47,no=48,missing=48
					47:leaf=24.8524246
					48:leaf=23.9958439
				24:[hour<8] yes=49,no=50,missing=50
					49:leaf=24.805212
					50:[hour<20] yes=95,no=96,missing=96
						95:leaf=26.3194427
						96:leaf=25.1353588
			12:[RealPower_-1q<341.562012] yes=25,no=26,missing=26
				25:[hour<20] yes=51,no=52,missing=52
					51:[hour<7] yes=97,no=98,missing=98
						97:leaf=25.5999584
						98:leaf=27.6212368
					52:leaf=26.4816933
				26:[hour<23] yes=53,no=54,missing=54
					53:leaf=28.6503506
					54:leaf=26.9340057
		6:[RealPower_-1q<394.562012] yes=13,no=14,missing=14
			13:[RealPower_-1q<372.764008] yes=27,no=28,missing=28
				27:[hour<23] yes=55,no=56,missing=56
					55:[RealPower_-1q<363.950989] yes=99,no=100,missing=100
						99:leaf=29.5023022
						100:leaf=30.1936684
					56:leaf=27.9444885
				28:[hour<23] yes=57,no=58,missing=58
					57:[RealPower_-1q<382.286011] yes=101,no=102,missing=102
						101:leaf=30.8706722
						102:leaf=31.7306461
					58:leaf=28.7615185
			14:[RealPower_-1q<423.843994] yes=29,no=30,missing=30
				29:[hour<23] yes=59,no=60,missing=60
					59:[RealPower_-1q<408.557007] yes=103,no=104,missing=104
						103:leaf=32.7698402
						104:leaf=33.8314171
					60:leaf=28.9362926
				30:[RealPower_-1q<440.328003] yes=61,no=62,missing=62
					61:leaf=35.0441246
					62:leaf=36.9702072
booster[5]:
0:[RealPower_-1q<294.489014] yes=1,no=2,missing=1
	1:[RealPower_-1q<225.677994] yes=3,no=4,missing=3
		3:[RealPower_-1q<191.403] yes=7,no=8,missing=7
			7:[RealPower_-1q<174.714005] yes=15,no=16,missing=16
				15:[RealPower_-1q<158.080994] yes=31,no=32,missing=32
					31:[RealPower_-1q<148.319] yes=63,no=64,missing=64
						63:leaf=9.24852848
						64:leaf=10.1072206
					32:[RealPower_-1q<166.723007] yes=65,no=66,missing=66
						65:leaf=10.6646357
						66:[RealPower_-14q<168.089996] yes=107,no=108,missing=108
							107:leaf=11.8049078
							108:leaf=11.097496
				16:[RealPower_-1q<182.651001] yes=33,no=34,missing=33
					33:[RealPower_-13q<175.557999] yes=67,no=68,missing=68
						67:[hour<7] yes=109,no=110,missing=110
							109:leaf=13.4556198
							110:leaf=11.7015448
						68:leaf=11.648057
					34:[RealPower_-9q<182.692993] yes=69,no=70,missing=70
						69:[dayofweek<5] yes=111,no=112,missing=112
							111:leaf=13.7628651
							112:leaf=12.1598234
						70:[RealPower_-1q<186.981003] yes=113,no=114,missing=114
							113:leaf=11.9997969
							114:leaf=12.3738565
			8:[RealPower_-1q<209.276993] yes=17,no=18,missing=18
				17:[hour<6] yes=35,no=36,missing=36
					35:[RealPower_-1q<204.380997] yes=71,no=72,missing=72
						71:leaf=12.7179155
						72:leaf=13.262044
					36:[hour<7] yes=73,no=74,missing=74
						73:[dayofweek<5] yes=115,no=116,missing=116
							115:leaf=17.1975231
							116:leaf=12.6787758
						74:[hour<21] yes=117,no=118,missing=118
							117:leaf=13.1843176
							118:leaf=12.483223
				18:[RealPower_-1q<215.595993] yes=37,no=38,missing=38
					37:[RealPower_-2q<209.283997] yes=75,no=76,missing=76
						75:[RealPower_-23q<257.411987] yes=119,no=120,missing=120
							119:leaf=14.041008
							120:leaf=16.0833244
						76:leaf=13.7793627
					38:[hour<6] yes=77,no=78,missing=78
						77:leaf=14.1904316
						78:[RealPower_-24q<283.618011] yes=121,no=122,missing=122
							121:leaf=14.41819
							122:leaf=16.92033
		4:[RealPower_-1q<260.964996] yes=9,no=10,missing=10
			9:[RealPower_-1q<244.201996] yes=19,no=20,missing=20
				19:[RealPower_-1q<234.612] yes=39,no=40,missing=40
					39:[RealPower_-2q<225.686005] yes=79,no=80,missing=80
						79:[RealPower_-23q<277.720001] yes=123,no=124,missing=124
							123:leaf=15.1002426
							124:leaf=17.4413261
						80:[hour<23] yes=125,no=126,missing=126
							125:leaf=14.9958849
							126:leaf=13.6379671
					40:[RealPower_-11q<256.14801] yes=81,no=82,missing=82
						81:[RealPower_-23q<289.882996] yes=127,no=128,missing=128
							127:leaf=15.7154608
							128:leaf=18.1598053
						82:[hour<23] yes=129,no=130,missing=130
							129:leaf=15.3909016
							130:leaf=14.0874014
				20:[hour<23] yes=41,no=42,missing=42
					41:[RealPower_-1q<252.451004] yes=83,no=84,missing=84
						83:[hour<6] yes=131,no=132,missing=132
							131:leaf=15.8525715
							132:leaf=16.3504162
						84:[hour<4] yes=133,no=134,missing=134
							133:leaf=16.2152882
							134:leaf=16.8947124
					42:leaf=14.4770889
			10:[RealPower_-1q<276.084991] yes=21,no=22,missing=22
				21:[temp_max_-3h<20.1299992] yes=43,no=44,missing=44
					43:[hour<6] yes=85,no=86,missing=86
						85:leaf=16.9870319
						86:leaf=17.8732986
					44:[hour<23] yes=87,no=88,missing=88
						87:leaf=17.2630272
						88:leaf=15.3736486
				22:[hour<4] yes=45,no=46,missing=46
					45:leaf=18.03055
					46:[hour<21] yes=89,no=90,missing=90
						89:[RealPower_-6q<215.610001] yes=135,no=136,missing=136
							135:leaf=17.9429474
							136:leaf=19.0181942
						90:leaf=18.0523434
	2:[RealPower_-1q<353.19101] yes=5,no=6,missing=6
		5:[RealPower_-1q<321.058014] yes=11,no=12,missing=12
			11:[RealPower_-1q<309.135986] yes=23,no=24,missing=24
				23:[hour<8] yes=47,no=48,missing=48
					47:leaf=19.1628151
					48:[hour<21] yes=91,no=92,missing=92
						91:leaf=20.1972237
						92:leaf=19.1553936
				24:[hour<23] yes=49,no=50,missing=50
					49:[hour<8] yes=93,no=94,missing=94
						93:leaf=19.8979263
						94:leaf=20.9384403
					50:leaf=19.6441689
			12:[RealPower_-1q<336.664001] yes=25,no=26,missing=26
				25:[hour<23] yes=51,no=52,missing=52
					51:[hour<7] yes=95,no=96,missing=96
						95:leaf=20.497797
						96:[dayofweek<5] yes=137,no=138,missing=138
							137:leaf=21.9344921
							138:leaf=21.287384
					52:leaf=20.3867455
				26:[hour<23] yes=53,no=54,missing=54
					53:[RealPower_-1q<344.013] yes=97,no=98,missing=98
						97:leaf=22.4046688
						98:leaf=23.0053329
					54:leaf=21.3034649
		6:[RealPower_-1q<389.394012] yes=13,no=14,missing=14
			13:[RealPower_-1q<368.436005] yes=27,no=28,missing=28
				27:[hour<21] yes=55,no=56,missing=56
					55:leaf=23.7901096
					56:leaf=22.8739929
				28:[hour<21] yes=57,no=58,missing=58
					57:[RealPower_-1q<378.669006] yes=99,no=100,missing=100
						99:leaf=24.5982857
						100:leaf=25.2435627
					58:[hour<23] yes=101,no=102,missing=102
						101:leaf=24.2201519
						102:leaf=22.8619919
			14:[RealPower_-1q<419.095001] yes=29,no=30,missing=30
				29:[hour<21] yes=59,no=60,missing=60
					59:[RealPower_-1q<400.868988] yes=103,no=104,missing=104
						103:leaf=26.0140057
						104:leaf=26.9567852
					60:[hour<23] yes=105,no=106,missing=106
						105:leaf=25.5608959
						106:leaf=23.142374
				30:[RealPower_-1q<440.328003] yes=61,no=62,missing=62
					61:leaf=27.8196011
					62:leaf=29.5894604
booster[6]:
0:[RealPower_-1q<285.690002] yes=1,no=2,missing=1
	1:[RealPower_-1q<218.311005] yes=3,no=4,missing=3
		3:[RealPower_-1q<185.389999] yes=7,no=8,missing=7
			7:[RealPower_-1q<168.074005] yes=15,no=16,missing=16
				15:[RealPower_-1q<154.742004] yes=31,no=32,missing=32
					31:[dayofweek<5] yes=63,no=64,missing=64
						63:[feels_like<10.4499998] yes=109,no=110,missing=110
							109:leaf=6.98089933
							110:leaf=7.67273664
						64:leaf=7.95053577
					32:[RealPower_-1q<163.25] yes=65,no=66,missing=66
						65:leaf=8.35166454
						66:leaf=8.70562363
				16:[RealPower_-1q<177.464005] yes=33,no=34,missing=34
					33:[hour<6] yes=67,no=68,missing=68
						67:leaf=8.89455509
						68:[hour<7] yes=111,no=112,missing=112
							111:leaf=11.6094303
							112:leaf=8.9252739
					34:[RealPower_-9q<178.389999] yes=69,no=70,missing=70
						69:[temp_-11h<24.0499992] yes=113,no=114,missing=113
							113:leaf=9.7653141
							114:leaf=11.3978376
						70:leaf=9.45331478
			8:[RealPower_-1q<201.593002] yes=17,no=18,missing=18
				17:[RealPower_-1q<195.003998] yes=35,no=36,missing=36
					35:[RealPower_-10q<202.496994] yes=71,no=72,missing=72
						71:[hour<6] yes=115,no=116,missing=116
							115:leaf=9.85246372
							116:leaf=10.3924417
						72:leaf=9.75149727
					36:[RealPower_-2q<195.007004] yes=73,no=74,missing=74
						73:[dayofweek<4] yes=117,no=118,missing=118
							117:leaf=12.6196852
							118:leaf=10.4410639
						74:leaf=10.3228111
				18:[hour<6] yes=37,no=38,missing=38
					37:[RealPower_-1q<209.276993] yes=75,no=76,missing=76
						75:leaf=10.5083971
						76:leaf=10.9535561
					38:[hour<7] yes=77,no=78,missing=78
						77:[dayofweek<5] yes=119,no=120,missing=120
							119:leaf=14.3463669
							120:leaf=11.0768471
						78:[hour<21] yes=121,no=122,missing=122
							121:leaf=11.0358343
							122:leaf=10.4590712
		4:[RealPower_-1q<249.494995] yes=9,no=10,missing=10
			9:[RealPower_-1q<233.878006] yes=19,no=20,missing=20
				19:[hour<6] yes=39,no=40,missing=40
					39:[RealPower_-1q<226.436996] yes=79,no=80,missing=80
						79:leaf=11.4358902
						80:leaf=11.7863865
					40:[RealPower_-23q<280.647003] yes=81,no=82,missing=82
						81:[hour<20] yes=123,no=124,missing=124
							123:leaf=11.9935474
							124:leaf=11.2310495
						82:[dayofweek<5] yes=125,no=126,missing=126
							125:leaf=15.5840597
							126:leaf=11.2866516
				20:[RealPower_-1q<242.397995] yes=41,no=42,missing=42
					41:[RealPower_-2q<231.751999] yes=83,no=84,missing=84
						83:[RealPower_-23q<276.855988] yes=127,no=128,missing=128
							127:leaf=12.7876768
							128:leaf=14.7593613
						84:[hour<23] yes=129,no=130,missing=130
							129:leaf=12.3967752
							130:leaf=11.0682812
					42:[RealPower_-2q<237.384995] yes=85,no=86,missing=86
						85:leaf=13.6354017
						86:[RealPower_-4q<211.983994] yes=131,no=132,missing=132
							131:leaf=10.9770308
							132:leaf=12.8439245
			10:[RealPower_-1q<266.795013] yes=21,no=22,missing=22
				21:[hour<23] yes=43,no=44,missing=44
					43:[hour<6] yes=87,no=88,missing=88
						87:leaf=13.0478792
						88:[feels_like<17.5499992] yes=133,no=134,missing=134
							133:leaf=13.9101048
							134:leaf=13.4152422
					44:[RealPower_-8q<270.997009] yes=89,no=90,missing=90
						89:leaf=10.3018503
						90:leaf=12.5718651
				22:[RealPower_-2q<239.981003] yes=45,no=46,missing=46
					45:leaf=16.0441952
					46:[hour<7] yes=91,no=92,missing=92
						91:[hour<1] yes=135,no=136,missing=136
							135:leaf=14.3244066
							136:leaf=13.7182617
						92:[hour<21] yes=137,no=138,missing=138
							137:leaf=14.6314726
							138:leaf=13.8743792
	2:[RealPower_-1q<345.174988] yes=5,no=6,missing=6
		5:[RealPower_-1q<311.700012] yes=11,no=12,missing=12
			11:[RealPower_-1q<300.583008] yes=23,no=24,missing=24
				23:[hour<8] yes=47,no=48,missing=48
					47:[RealPower_-2q<250.647995] yes=93,no=94,missing=94
						93:leaf=16.6420193
						94:[RealPower_-4q<231.033005] yes=139,no=140,missing=140
							139:leaf=14.0955048
							140:leaf=14.9956636
					48:[hour<10] yes=95,no=96,missing=96
						95:leaf=16.2548065
						96:leaf=15.2875643
				24:[RealPower_-17q<233.169006] yes=49,no=50,missing=50
					49:leaf=16.5595627
					50:[wind_speed_-2h<3.08999991] yes=97,no=98,missing=98
						97:leaf=16.1068382
						98:leaf=15.5773382
			12:[RealPower_-1q<331.57901] yes=25,no=26,missing=26
				25:[hour<20] yes=51,no=52,missing=52
					51:[hour<8] yes=99,no=100,missing=100
						99:leaf=16.1247063
						100:leaf=17.1481476
					52:leaf=16.3349361
				26:[RealPower_-14q<378.69101] yes=53,no=54,missing=54
					53:leaf=17.8902187
					54:leaf=16.8992615
		6:[RealPower_-1q<387.869995] yes=13,no=14,missing=14
			13:[RealPower_-1q<367.346008] yes=27,no=28,missing=28
				27:[hour<20] yes=55,no=56,missing=56
					55:[RealPower_-1q<357.571991] yes=101,no=102,missing=102
						101:leaf=18.6068687
						102:leaf=19.1361237
					56:leaf=18.1437664
				28:[hour<21] yes=57,no=58,missing=58
					57:[RealPower_-15q<353.128998] yes=103,no=104,missing=104
						103:leaf=19.6300507
						104:leaf=20.1408577
					58:[hour<23] yes=105,no=106,missing=106
						105:leaf=19.3128338
						106:leaf=18.2502365
			14:[RealPower_-1q<423.843994] yes=29,no=30,missing=30
				29:[RealPower_-1q<400.868988] yes=59,no=60,missing=60
					59:[hour<21] yes=107,no=108,missing=108
						107:leaf=20.7636089
						108:leaf=19.8519745
					60:leaf=21.4320908
				30:[hour<21] yes=61,no=62,missing=62
					61:leaf=23.0967369
					62:leaf=21.1613522
booster[7]:
0:[RealPower_-1q<285.690002] yes=1,no=2,missing=1
	1:[RealPower_-1q<219.955002] yes=3,no=4,missing=3
		3:[RealPower_-1q<187.841003] yes=7,no=8,missing=7
			7:[RealPower_-1q<171.908005] yes=15,no=16,missing=16
				15:[RealPower_-1q<154.742004] yes=31,no=32,missing=32
					31:[humidity_-3h<81] yes=63,no=64,missing=64
						63:leaf=6.34697819
						64:[temp_max<11.6300001] yes=109,no=110,missing=110
							109:leaf=5.21478271
							110:leaf=6.03952694
					32:[RealPower_-1q<163.25] yes=65,no=66,missing=66
						65:leaf=6.68233871
						66:[RealPower_-17q<169.511993] yes=111,no=112,missing=112
							111:leaf=7.33394623
							112:leaf=6.93039274
				16:[hour<6] yes=33,no=34,missing=34
					33:[RealPower_-1q<176.505005] yes=67,no=68,missing=68
						67:leaf=7.14184904
						68:[RealPower_-1q<183.602997] yes=113,no=114,missing=114
							113:leaf=7.43219519
							114:leaf=7.67646122
					34:[hour<7] yes=69,no=70,missing=70
						69:[dayofweek<5] yes=115,no=116,missing=116
							115:leaf=10.9676094
							116:leaf=7.19085264
						70:[RealPower_-1q<175.559006] yes=117,no=118,missing=118
							117:leaf=7.09459686
							118:leaf=7.5541954
			8:[RealPower_-1q<203.438995] yes=17,no=18,missing=18
				17:[hour<21] yes=35,no=36,missing=36
					35:[hour<6] yes=71,no=72,missing=72
						71:[RealPower_-1q<195.977997] yes=119,no=120,missing=120
							119:leaf=7.93565512
							120:leaf=8.20878983
						72:[dayofweek<4] yes=121,no=122,missing=122
							121:leaf=10.0004883
							122:leaf=8.23283195
					36:leaf=7.61820984
				18:[hour<6] yes=37,no=38,missing=38
					37:[RealPower_-1q<212.888] yes=73,no=74,missing=74
						73:leaf=8.53674221
						74:leaf=8.89796352
					38:[RealPower_-24q<270.886993] yes=75,no=76,missing=76
						75:[RealPower_-4q<184.524002] yes=123,no=124,missing=124
							123:leaf=7.39650726
							124:leaf=8.90187359
						76:[dayofweek<6] yes=125,no=126,missing=126
							125:leaf=11.1369495
							126:leaf=8.48390007
		4:[RealPower_-1q<254.899002] yes=9,no=10,missing=10
			9:[RealPower_-1q<239.330002] yes=19,no=20,missing=20
				19:[hour<6] yes=39,no=40,missing=40
					39:[RealPower_-1q<228.026993] yes=77,no=78,missing=78
						77:leaf=9.21414661
						78:leaf=9.4900198
					40:[RealPower_-24q<289.873993] yes=79,no=80,missing=80
						79:[hour<23] yes=127,no=128,missing=128
							127:leaf=9.71784878
							128:leaf=8.48438931
						80:[dayofweek<5] yes=129,no=130,missing=130
							129:leaf=12.9187822
							130:leaf=9.08730984
				20:[hour<21] yes=41,no=42,missing=42
					41:[hour<6] yes=81,no=82,missing=82
						81:leaf=10.0452337
						82:[RealPower_-19q<277.73999] yes=131,no=132,missing=132
							131:leaf=10.4438791
							132:leaf=12.3410864
					42:[RealPower_-8q<253.692993] yes=83,no=84,missing=84
						83:[RealPower_-5q<253.690002] yes=133,no=134,missing=134
							133:leaf=8.53682232
							134:leaf=9.59177399
						84:leaf=10.0111952
			10:[RealPower_-1q<269.298004] yes=21,no=22,missing=22
				21:[hour<23] yes=43,no=44,missing=44
					43:[RealPower_-2q<230.348007] yes=85,no=86,missing=86
						85:leaf=12.3283224
						86:[RealPower_-4q<223.229996] yes=135,no=136,missing=136
							135:leaf=9.43939972
							136:leaf=10.9626579
					44:leaf=9.20145702
				22:[RealPower_-2q<236.714005] yes=45,no=46,missing=46
					45:leaf=12.8930044
					46:[hour<7] yes=87,no=88,missing=88
						87:[RealPower_-5q<293.32901] yes=137,no=138,missing=138
							137:leaf=10.9110994
							138:leaf=11.3470259
						88:[hour<10] yes=139,no=140,missing=140
							139:leaf=12.0523138
							140:leaf=11.5585051
	2:[RealPower_-1q<348.602997] yes=5,no=6,missing=6
		5:[RealPower_-1q<317.10199] yes=11,no=12,missing=12
			11:[RealPower_-1q<300.583008] yes=23,no=24,missing=24
				23:[RealPower_-24q<339.087006] yes=47,no=48,missing=48
					47:[RealPower_-4q<252.464996] yes=89,no=90,missing=90
						89:[RealPower_-2q<250.647995] yes=141,no=142,missing=142
							141:leaf=13.3379126
							142:leaf=11.3812723
						90:[RealPower_-14q<239.350006] yes=143,no=144,missing=144
							143:leaf=12.8130589
							144:leaf=12.2807951
					48:[hour<1] yes=91,no=92,missing=92
						91:leaf=12.1118755
						92:leaf=11.5080347
				24:[temp_max_-2h<18.5699997] yes=49,no=50,missing=50
					49:[dayofweek<5] yes=93,no=94,missing=94
						93:[hour<8] yes=145,no=146,missing=146
							145:leaf=12.4474745
							146:leaf=13.4807405
						94:leaf=12.8742237
					50:leaf=12.690774
			12:[RealPower_-1q<331.57901] yes=25,no=26,missing=26
				25:[hour<23] yes=51,no=52,missing=52
					51:[hour<8] yes=95,no=96,missing=96
						95:leaf=13.0446339
						96:[dayofweek<5] yes=147,no=148,missing=148
							147:leaf=13.876482
							148:leaf=13.394742
					52:leaf=12.8265476
				26:[hour<20] yes=53,no=54,missing=54
					53:[hour<7] yes=97,no=98,missing=98
						97:leaf=12.7784643
						98:[RealPower_-5q<327.562012] yes=149,no=150,missing=150
							149:leaf=14.2252674
							150:leaf=14.672411
					54:leaf=13.7601576
		6:[RealPower_-1q<381.036011] yes=13,no=14,missing=14
			13:[RealPower_-1q<360.859985] yes=27,no=28,missing=28
				27:[hour<20] yes=55,no=56,missing=56
					55:leaf=14.9949026
					56:leaf=14.4125519
				28:[hour<23] yes=57,no=58,missing=58
					57:[RealPower_-12q<341.528015] yes=99,no=100,missing=100
						99:leaf=15.2846022
						100:[hour<20] yes=151,no=152,missing=152
							151:leaf=15.8228827
							152:leaf=15.3283405
					58:[RealPower_-8q<377.561005] yes=101,no=102,missing=102
						101:leaf=13.1069107
						102:leaf=14.6430254
			14:[RealPower_-1q<408.557007] yes=29,no=30,missing=30
				29:[hour<21] yes=59,no=60,missing=60
					59:[RealPower_-21q<343.962006] yes=103,no=104,missing=104
						103:leaf=16.1847668
						104:leaf=16.8457088
					60:[hour<23] yes=105,no=106,missing=106
						105:leaf=16.0564556
						106:[RealPower_-8q<411.825012] yes=153,no=154,missing=154
							153:leaf=14.1585388
							154:leaf=16.0892029
				30:[RealPower_-1q<430.233002] yes=61,no=62,missing=62
					61:[hour<21] yes=107,no=108,missing=108
						107:leaf=17.6375294
						108:leaf=16.5688915
					62:leaf=18.6665401
booster[8]:
0:[RealPower_-1q<293.32901] yes=1,no=2,missing=1
	1:[RealPower_-1q<226.436996] yes=3,no=4,missing=3
		3:[RealPower_-1q<195.977997] yes=7,no=8,missing=7
			7:[RealPower_-1q<175.559006] yes=15,no=16,missing=16
				15:[RealPower_-1q<163.25] yes=31,no=32,missing=32
					31:[RealPower_-3q<148.319] yes=63,no=64,missing=64
						63:[hour<15] yes=115,no=116,missing=116
							115:leaf=4.56060886
							116:leaf=5.30860901
						64:[RealPower_-1q<154.742004] yes=117,no=118,missing=118
							117:leaf=5.08625317
							118:leaf=5.34768391
					32:[RealPower_-15q<168.091995] yes=65,no=66,missing=66
						65:[hour<7] yes=119,no=120,missing=120
							119:leaf=6.81028748
							120:leaf=5.57522345
						66:[RealPower_-1q<166.723007] yes=121,no=122,missing=122
							121:leaf=5.37160206
							122:leaf=5.68643427
				16:[hour<6] yes=33,no=34,missing=34
					33:[RealPower_-1q<186.981003] yes=67,no=68,missing=67
						67:[RealPower_-13q<175.557999] yes=123,no=124,missing=124
							123:leaf=5.36875343
							124:leaf=6.00159788
						68:leaf=6.33739805
					34:[hour<7] yes=69,no=70,missing=70
						69:[dayofweek<6] yes=125,no=126,missing=126
							125:leaf=8.46458054
							126:leaf=4.81888723
						70:[hour<21] yes=127,no=128,missing=128
							127:leaf=6.2304225
							128:leaf=5.84191847
			8:[RealPower_-1q<212.888] yes=17,no=18,missing=18
				17:[RealPower_-3q<185.399002] yes=35,no=36,missing=36
					35:leaf=5.56206179
					36:[RealPower_-10q<219.970001] yes=71,no=72,missing=72
						71:[RealPower_-23q<263.026001] yes=129,no=130,missing=130
							129:leaf=6.90587473
							130:leaf=7.96962357
						72:[RealPower_-1q<204.380997] yes=131,no=132,missing=132
							131:leaf=6.48189497
							132:leaf=6.83013487
				18:[RealPower_-2q<218.324997] yes=37,no=38,missing=38
					37:[hour<6] yes=73,no=74,missing=74
						73:leaf=7.16878271
						74:[RealPower_-24q<278.748993] yes=133,no=134,missing=134
							133:leaf=7.48671484
							134:leaf=10.0790815
					38:[hour<23] yes=75,no=76,missing=76
						75:[RealPower_-4q<209.292999] yes=135,no=136,missing=136
							135:leaf=6.39988804
							136:leaf=7.30780792
						76:[RealPower_-6q<233.908005] yes=137,no=138,missing=138
							137:leaf=5.71760893
							138:leaf=6.71911764
		4:[RealPower_-1q<263.757996] yes=9,no=10,missing=10
			9:[RealPower_-1q<244.813995] yes=19,no=20,missing=20
				19:[hour<6] yes=39,no=40,missing=40
					39:[RealPower_-1q<236.024994] yes=77,no=78,missing=78
						77:leaf=7.53423834
						78:leaf=7.80910587
					40:[RealPower_-23q<289.882996] yes=79,no=80,missing=80
						79:[hour<21] yes=139,no=140,missing=140
							139:leaf=8.01518917
							140:leaf=7.46779394
						80:[dayofweek<5] yes=141,no=142,missing=142
							141:leaf=11.5980701
							142:leaf=7.64923334
				20:[hour<21] yes=41,no=42,missing=42
					41:[hour<6] yes=81,no=82,missing=82
						81:leaf=8.19291687
						82:[RealPower_-6q<185.408005] yes=143,no=144,missing=144
							143:leaf=7.55788422
							144:leaf=8.64780235
					42:[dayofweek<5] yes=83,no=84,missing=84
						83:[hour<23] yes=145,no=146,missing=146
							145:leaf=7.97349787
							146:leaf=6.49687815
						84:leaf=8.85660744
			10:[RealPower_-1q<280.743011] yes=21,no=22,missing=22
				21:[RealPower_-2q<232.419998] yes=43,no=44,missing=44
					43:leaf=10.2058678
					44:[RealPower_-4q<227.264999] yes=85,no=86,missing=86
						85:leaf=7.97735167
						86:[RealPower_-14q<233.184006] yes=147,no=148,missing=148
							147:leaf=9.49284649
							148:leaf=8.98865891
				22:[RealPower_-2q<285.67099] yes=45,no=46,missing=46
					45:[RealPower_-14q<233.184006] yes=87,no=88,missing=88
						87:[RealPower_-7q<264.544006] yes=149,no=150,missing=150
							149:leaf=9.84469318
							150:leaf=10.5801497
						88:[dayofweek<5] yes=151,no=152,missing=152
							151:leaf=9.49554348
							152:leaf=10.0019331
					46:[temp_max_-3h<20.1299992] yes=89,no=90,missing=90
						89:[RealPower_-4q<256.804993] yes=153,no=154,missing=154
							153:leaf=8.80218887
							154:leaf=9.69535637
						90:leaf=9.22928238
	2:[RealPower_-1q<356.48999] yes=5,no=6,missing=6
		5:[RealPower_-1q<324.942993] yes=11,no=12,missing=12
			11:[RealPower_-1q<307.90799] yes=23,no=24,missing=24
				23:[wind_speed_-2h<3.5999999] yes=47,no=48,missing=48
					47:[hour<8] yes=91,no=92,missing=92
						91:leaf=9.86851788
						92:[hour<11] yes=155,no=156,missing=156
							155:leaf=10.5523605
							156:leaf=10.1340837
					48:leaf=9.75664043
				24:[hour<23] yes=49,no=50,missing=50
					49:[hour<8] yes=93,no=94,missing=94
						93:leaf=10.204298
						94:[dayofweek<5] yes=157,no=158,missing=158
							157:leaf=10.9222555
							158:leaf=10.4984264
					50:[RealPower_-2q<337.975006] yes=95,no=96,missing=96
						95:[year<2017] yes=159,no=160,missing=160
							159:leaf=10.1215382
							160:leaf=9.19320202
						96:leaf=10.5735893
			12:[RealPower_-1q<342.81601] yes=25,no=26,missing=26
				25:[hour<23] yes=51,no=52,missing=52
					51:[dayofweek<4] yes=97,no=98,missing=98
						97:[hour<8] yes=161,no=162,missing=162
							161:leaf=10.5180702
							162:leaf=11.5199776
						98:leaf=11.0959368
					52:[dayofweek<5] yes=99,no=100,missing=100
						99:[RealPower_-8q<368.449005] yes=163,no=164,missing=164
							163:leaf=9.00151253
							164:leaf=10.7852526
						100:leaf=11.6408005
				26:[hour<20] yes=53,no=54,missing=54
					53:[RealPower_-5q<344.029999] yes=101,no=102,missing=102
						101:leaf=11.6576281
						102:leaf=12.0538092
					54:leaf=11.3108912
		6:[RealPower_-1q<394.562012] yes=13,no=14,missing=14
			13:[RealPower_-1q<376.358002] yes=27,no=28,missing=28
				27:[hour<23] yes=55,no=56,missing=56
					55:[dayofweek<5] yes=103,no=104,missing=104
						103:[RealPower_-12q<340.286011] yes=165,no=166,missing=166
							165:leaf=12.1194277
							166:leaf=12.4541531
						104:[hour<18] yes=167,no=168,missing=168
							167:leaf=12.7222538
							168:leaf=11.4572334
					56:[RealPower_-16q<378.69101] yes=105,no=106,missing=106
						105:leaf=12.2626905
						106:[year<2017] yes=169,no=170,missing=170
							169:leaf=11.5045462
							170:leaf=10.2393322
				28:[hour<21] yes=57,no=58,missing=58
					57:[RealPower_-24q<324.815002] yes=107,no=108,missing=108
						107:leaf=12.6946335
						108:[RealPower_-2q<381.035004] yes=171,no=172,missing=172
							171:leaf=13.4479523
							172:leaf=12.9593582
					58:[RealPower_-8q<403.186005] yes=109,no=110,missing=110
						109:[hour<23] yes=173,no=174,missing=174
							173:leaf=12.4295282
							174:leaf=11.1848631
						110:leaf=12.9063616
			14:[RealPower_-1q<430.233002] yes=29,no=30,missing=30
				29:[hour<21] yes=59,no=60,missing=60
					59:[RealPower_-24q<334.003998] yes=111,no=112,missing=112
						111:leaf=13.2371473
						112:[hour<19] yes=175,no=176,missing=176
							175:leaf=14.3062849
							176:leaf=13.6594419
					60:[hour<23] yes=113,no=114,missing=114
						113:leaf=13.2101393
						114:leaf=11.3820381
				30:[RealPower_-1q<440.328003] yes=61,no=62,missing=62
					61:leaf=14.4722204
					62:leaf=15.3724289
booster[9]:
0:[RealPower_-1q<284.696014] yes=1,no=2,missing=1
	1:[RealPower_-1q<218.311005] yes=3,no=4,missing=3
		3:[RealPower_-1q<185.389999] yes=7,no=8,missing=7
			7:[RealPower_-1q<169.488007] yes=15,no=16,missing=16
				15:[RealPower_-1q<154.742004] yes=31,no=32,missing=32
					31:[hour<15] yes=63,no=64,missing=64
						63:[dayofweek<5] yes=121,no=122,missing=122
							121:leaf=3.62994576
							122:leaf=4.08503294
						64:leaf=4.33674335
					32:[hour<7] yes=65,no=66,missing=66
						65:[hour<6] yes=123,no=124,missing=124
							123:leaf=4.28019476
							124:leaf=6.62960291
						66:[hour<8] yes=125,no=126,missing=126
							125:leaf=3.66010356
							126:leaf=4.32392645
				16:[hour<6] yes=33,no=34,missing=34
					33:[RealPower_-1q<176.505005] yes=67,no=68,missing=68
						67:[RealPower_-15q<176.503006] yes=127,no=128,missing=128
							127:leaf=4.36422157
							128:leaf=4.59459257
						68:leaf=4.78653479
					34:[hour<7] yes=69,no=70,missing=70
						69:[dayofweek<6] yes=129,no=130,missing=130
							129:leaf=6.79364395
							130:leaf=3.63781548
						70:[hour<8] yes=131,no=132,missing=132
							131:leaf=4.23665571
							132:leaf=4.74086905
			8:[RealPower_-1q<198.871994] yes=17,no=18,missing=18
				17:[RealPower_-16q<234.626007] yes=35,no=36,missing=36
					35:[dayofweek<5] yes=71,no=72,missing=72
						71:[hour<6] yes=133,no=134,missing=134
							133:leaf=5.1125741
							134:leaf=6.09549999
						72:[hour<8] yes=135,no=136,missing=136
							135:leaf=4.87410259
							136:leaf=5.19726181
					36:[hour<6] yes=73,no=74,missing=74
						73:[hour<3] yes=137,no=138,missing=138
							137:leaf=4.89789295
							138:leaf=5.19974661
						74:[dayofweek<4] yes=139,no=140,missing=140
							139:leaf=4.14056778
							140:leaf=4.8156004
				18:[RealPower_-2q<198.882004] yes=37,no=38,missing=38
					37:[RealPower_-24q<267.477997] yes=75,no=76,missing=76
						75:[dayofweek<5] yes=141,no=142,missing=142
							141:leaf=6.55791855
							142:leaf=5.50893736
						76:leaf=8.54472256
					38:[RealPower_-3q<190.514008] yes=77,no=78,missing=78
						77:leaf=3.57111979
						78:[RealPower_-1q<204.380997] yes=143,no=144,missing=144
							143:leaf=5.32859659
							144:leaf=5.69367361
		4:[RealPower_-1q<253.029007] yes=9,no=10,missing=10
			9:[RealPower_-1q<231.744003] yes=19,no=20,missing=20
				19:[RealPower_-2q<219.134003] yes=39,no=40,missing=40
					39:[dayofweek<5] yes=79,no=80,missing=80
						79:[hour<6] yes=145,no=146,missing=146
							145:leaf=5.88144732
							146:leaf=8.11936092
						80:[feels_like_-6h<20.7600002] yes=147,no=148,missing=148
							147:leaf=6.12358761
							148:leaf=5.56497431
					40:[RealPower_-4q<209.292999] yes=81,no=82,missing=82
						81:[temp_-9h<21.4799995] yes=149,no=150,missing=150
							149:leaf=5.2342329
							150:leaf=4.41543722
						82:[hour<23] yes=151,no=152,missing=152
							151:leaf=6.02499819
							152:leaf=5.07913876
				20:[RealPower_-2q<228.037003] yes=41,no=42,missing=42
					41:[dayofweek<5] yes=83,no=84,missing=84
						83:[temp_min<17.7600002] yes=153,no=154,missing=154
							153:leaf=8.56705379
							154:leaf=6.927948
						84:leaf=6.5317874
					42:[RealPower_-4q<211.983994] yes=85,no=86,missing=86
						85:[hour<7] yes=155,no=156,missing=156
							155:leaf=4.69802284
							156:leaf=5.51815939
						86:[hour<6] yes=157,no=158,missing=158
							157:leaf=6.27565813
							158:leaf=6.59003925
			10:[RealPower_-1q<271.791992] yes=21,no=22,missing=22
				21:[temp_-3h<18.1900005] yes=43,no=44,missing=44
					43:[hour<6] yes=87,no=88,missing=88
						87:leaf=6.76818609
						88:[dayofyear<346] yes=159,no=160,missing=160
							159:leaf=7.34289408
							160:leaf=6.88543272
					44:[hour<23] yes=89,no=90,missing=90
						89:[RealPower_-5q<193.035995] yes=161,no=162,missing=162
							161:leaf=6.01169348
							162:leaf=6.91942978
						90:leaf=5.7866478
				22:[RealPower_-2q<264.505005] yes=45,no=46,missing=46
					45:leaf=8.10798073
					46:[RealPower_-5q<218.330002] yes=91,no=92,missing=92
						91:leaf=6.55682516
						92:[RealPower_-14q<233.184006] yes=163,no=164,missing=164
							163:leaf=7.87818623
							164:leaf=7.3299346
	2:[RealPower_-1q<347.502014] yes=5,no=6,missing=6
		5:[RealPower_-1q<311.700012] yes=11,no=12,missing=12
			11:[hour<8] yes=23,no=24,missing=24
				23:[RealPower_-2q<256.112] yes=47,no=48,missing=48
					47:leaf=8.89620399
					48:[RealPower_-4q<249.509003] yes=93,no=94,missing=94
						93:leaf=7.15452814
						94:[RealPower_-19q<288.782013] yes=165,no=166,missing=166
							165:leaf=8.07371807
							166:leaf=7.67351913
				24:[hour<11] yes=49,no=50,missing=50
					49:[dayofweek<5] yes=95,no=96,missing=96
						95:leaf=8.50436306
						96:leaf=7.56352329
					50:[RealPower_-1q<294.489014] yes=97,no=98,missing=98
						97:[dayofweek<5] yes=167,no=168,missing=168
							167:leaf=7.33940125
							168:leaf=7.85043287
						98:[hour<23] yes=169,no=170,missing=170
							169:leaf=8.16015244
							170:leaf=7.59367514
			12:[RealPower_-1q<327.562012] yes=25,no=26,missing=26
				25:[RealPower_-14q<233.184006] yes=51,no=52,missing=52
					51:[RealPower_-11q<249.501999] yes=99,no=100,missing=100
						99:leaf=8.54957485
						100:leaf=9.25251293
					52:[hour<23] yes=101,no=102,missing=102
						101:[RealPower_-15q<265.290009] yes=171,no=172,missing=172
							171:leaf=8.30324841
							172:leaf=8.63520241
						102:[RealPower_-2q<345.178009] yes=173,no=174,missing=174
							173:leaf=7.84941959
							174:leaf=8.73367786
				26:[hour<23] yes=53,no=54,missing=54
					53:[dayofweek<5] yes=103,no=104,missing=104
						103:[hour<2] yes=175,no=176,missing=176
							175:leaf=8.28510571
							176:leaf=9.26545238
						104:[RealPower_-2q<334.087006] yes=177,no=178,missing=178
							177:leaf=9.11075115
							178:leaf=8.60041523
					54:[year<2017] yes=105,no=106,missing=106
						105:[quarter<3] yes=179,no=180,missing=180
							179:leaf=9.25921631
							180:leaf=8.15684128
						106:[RealPower_-8q<368.449005] yes=181,no=182,missing=182
							181:leaf=5.84567547
							182:leaf=8.64554214
		6:[RealPower_-1q<389.394012] yes=13,no=14,missing=14
			13:[RealPower_-1q<370.550995] yes=27,no=28,missing=28
				27:[hour<21] yes=55,no=56,missing=56
					55:[RealPower_-12q<354.226013] yes=107,no=108,missing=108
						107:[RealPower_-1q<360.859985] yes=183,no=184,missing=184
							183:leaf=9.47807217
							184:leaf=9.77802849
						108:[temp_min_-2h<13.25] yes=185,no=186,missing=186
							185:leaf=10.4426575
							186:leaf=9.85079765
					56:[RealPower_-8q<378.69101] yes=109,no=110,missing=110
						109:[RealPower_-21q<403.226013] yes=187,no=188,missing=188
							187:leaf=9.08855724
							188:leaf=7.24270391
						110:leaf=9.57906151
				28:[hour<20] yes=57,no=58,missing=58
					57:[hour<17] yes=111,no=112,missing=112
						111:[RealPower_-9q<377.557007] yes=189,no=190,missing=190
							189:leaf=10.0137835
							190:leaf=10.6266718
						112:[feels_like_-1h<13.5699997] yes=191,no=192,missing=192
							191:leaf=11.3654737
							192:leaf=10.4352942
					58:[RealPower_-8q<411.825012] yes=113,no=114,missing=114
						113:[year<2016] yes=193,no=194,missing=194
							193:leaf=10.2143583
							194:leaf=9.68158436
						114:leaf=10.34266
			14:[RealPower_-1q<411.803009] yes=29,no=30,missing=30
				29:[hour<23] yes=59,no=60,missing=60
					59:[hour<20] yes=115,no=116,missing=116
						115:[hour<17] yes=195,no=196,missing=196
							195:leaf=10.460372
							196:leaf=11.1857948
						116:leaf=10.4964962
					60:leaf=9.19629955
				30:[hour<19] yes=61,no=62,missing=62
					61:[hour<17] yes=117,no=118,missing=118
						117:leaf=10.8663588
						118:[hour<18] yes=197,no=198,missing=198
							197:leaf=12.9192553
							198:leaf=11.8141203
					62:[RealPower_-5q<430.277008] yes=119,no=120,missing=120
						119:[hour<21] yes=199,no=200,missing=200
							199:leaf=11.1659269
							200:leaf=10.3930683
						120:leaf=11.472373
booster[10]:
0:[RealPower_-1q<292.216003] yes=1,no=2,missing=1
	1:[RealPower_-1q<228.026993] yes=3,no=4,missing=3
		3:[RealPower_-1q<193.960999] yes=7,no=8,missing=7
			7:[RealPower_-1q<172.878998] yes=15,no=16,missing=16
				15:[RealPower_-1q<158.080994] yes=31,no=32,missing=32
					31:[RealPower_-3q<148.319] yes=63,no=64,missing=64
						63:[temp_min<7.82999992] yes=125,no=126,missing=126
							125:leaf=2.55666542
							126:leaf=3.12958932
						64:leaf=3.30925608
					32:[temp_-10h<23.1200008] yes=65,no=66,missing=65
						65:[RealPower_-15q<161.156998] yes=127,no=128,missing=128
							127:leaf=3.69613576
							128:leaf=3.4880414
						66:[temp_-2h<21.2999992] yes=129,no=130,missing=130
							129:leaf=4.25429106
							130:leaf=3.59306765
				16:[RealPower_-1q<181.720993] yes=33,no=34,missing=34
					33:[RealPower_-2q<171.912994] yes=67,no=68,missing=68
						67:[hour<7] yes=131,no=132,missing=132
							131:leaf=5.69081116
							132:leaf=3.89993668
						68:[humidity_-2h<69] yes=133,no=134,missing=134
							133:leaf=3.66782117
							134:leaf=3.84077954
					34:[RealPower_-2q<180.882996] yes=69,no=70,missing=70
						69:[temp_-8h<23.1200008] yes=135,no=136,missing=136
							135:leaf=4.12517548
							136:leaf=6.28326893
						70:[dayofyear<356] yes=137,no=138,missing=138
							137:leaf=4.04599047
							138:leaf=3.43736386
			8:[RealPower_-1q<213.796997] yes=17,no=18,missing=18
				17:[RealPower_-13q<224.891998] yes=35,no=36,missing=36
					35:[RealPower_-24q<265.240997] yes=71,no=72,missing=72
						71:[RealPower_-4q<181.733994] yes=139,no=140,missing=140
							139:leaf=3.43354726
							140:leaf=4.42066383
						72:[hour<6] yes=141,no=142,missing=142
							141:leaf=4.05055189
							142:leaf=6.85786152
					36:[RealPower_-1q<205.330994] yes=73,no=74,missing=74
						73:[temp_max<21.6499996] yes=143,no=144,missing=144
							143:leaf=4.17857027
							144:leaf=3.92814517
						74:[RealPower_-11q<220.817993] yes=145,no=146,missing=146
							145:leaf=4.98388433
							146:leaf=4.33409691
				18:[RealPower_-2q<213.811996] yes=37,no=38,missing=38
					37:[dayofweek<5] yes=75,no=76,missing=76
						75:[RealPower_-24q<243.563004] yes=147,no=148,missing=148
							147:leaf=4.6839323
							148:leaf=7.23669386
						76:[hour<7] yes=149,no=150,missing=150
							149:leaf=4.38308334
							150:leaf=5.00055838
					38:[hour<21] yes=77,no=78,missing=78
						77:[hour<4] yes=151,no=152,missing=152
							151:leaf=4.42428589
							152:leaf=4.82427025
						78:[RealPower_-8q<240.001999] yes=153,no=154,missing=154
							153:leaf=3.77556014
							154:leaf=4.626472
		4:[RealPower_-1q<260.251007] yes=9,no=10,missing=10
			9:[RealPower_-1q<242.996002] yes=19,no=20,missing=20
				19:[RealPower_-2q<228.037003] yes=39,no=40,missing=40
					39:[RealPower_-23q<277.720001] yes=79,no=80,missing=80
						79:[RealPower_-2q<205.335999] yes=155,no=156,missing=156
							155:leaf=5.90797567
							156:leaf=5.09433842
						80:[hour<6] yes=157,no=158,missing=158
							157:leaf=4.63749504
							158:leaf=8.37803173
					40:[RealPower_-5q<199.843994] yes=81,no=82,missing=82
						81:[dayofyear<228] yes=159,no=160,missing=160
							159:leaf=4.41423416
							160:leaf=3.79827499
						82:[hour<4] yes=161,no=162,missing=162
							161:leaf=4.77352953
							162:leaf=5.10917807
				20:[RealPower_-2q<237.384995] yes=41,no=42,missing=42
					41:[RealPower_-2q<213.811996] yes=83,no=84,missing=84
						83:[temp_max<20.9500008] yes=163,no=164,missing=164
							163:leaf=6.85246801
							164:leaf=5.87918043
						84:leaf=5.86006737
					42:[RealPower_-4q<221.591003] yes=85,no=86,missing=86
						85:[temp_max_-1h<19.9500008] yes=165,no=166,missing=166
							165:leaf=4.7660327
							166:leaf=3.7453301
						86:[hour<21] yes=167,no=168,missing=168
							167:leaf=5.41908503
							168:leaf=4.93317747
			10:[RealPower_-1q<277.790009] yes=21,no=22,missing=22
				21:[dayofweek<5] yes=43,no=44,missing=44
					43:[hour<23] yes=87,no=88,missing=88
						87:[RealPower_-2q<244.216003] yes=169,no=170,missing=170
							169:leaf=6.60197449
							170:leaf=5.65790224
						88:leaf=3.6995194
					44:[hour<8] yes=89,no=90,missing=90
						89:[RealPower_-5q<270.101013] yes=171,no=172,missing=172
							171:leaf=4.96062851
							172:leaf=5.7735858
						90:[RealPower_-5q<256.808014] yes=173,no=174,missing=174
							173:leaf=5.80891609
							174:leaf=6.27183819
				22:[temp_max_-3h<18.9699993] yes=45,no=46,missing=46
					45:[RealPower_-23q<268.364014] yes=91,no=92,missing=92
						91:[RealPower_-5q<257.447998] yes=175,no=176,missing=176
							175:leaf=5.94708395
							176:leaf=6.50209904
						92:[RealPower_-2q<270.093994] yes=177,no=178,missing=178
							177:leaf=6.70524693
							178:leaf=5.9618926
					46:[RealPower_-2q<276.917999] yes=93,no=94,missing=94
						93:leaf=6.33647776
						94:[dayofyear<265] yes=179,no=180,missing=180
							179:leaf=5.78960752
							180:leaf=6.0686965
	2:[RealPower_-1q<356.48999] yes=5,no=6,missing=6
		5:[RealPower_-1q<321.058014] yes=11,no=12,missing=12
			11:[RealPower_-1q<306.605011] yes=23,no=24,missing=24
				23:[RealPower_-22q<345.117004] yes=47,no=48,missing=48
					47:[hour<20] yes=95,no=96,missing=96
						95:[RealPower_-5q<270.970001] yes=181,no=182,missing=182
							181:leaf=6.26102686
							182:leaf=6.63533545
						96:[RealPower_-10q<312.946014] yes=183,no=184,missing=184
							183:leaf=5.90849876
							184:leaf=6.47956085
					48:[hour<1] yes=97,no=98,missing=98
						97:[year<2017] yes=185,no=186,missing=186
							185:leaf=6.50551558
							186:leaf=6.03189754
						98:leaf=5.95667601
				24:[RealPower_-14q<236.044998] yes=49,no=50,missing=50
					49:[RealPower_-11q<267.54599] yes=99,no=100,missing=100
						99:leaf=6.79641581
						100:leaf=7.36184454
					50:[temp_-3h<16.5799999] yes=101,no=102,missing=102
						101:[RealPower_-15q<251.248993] yes=187,no=188,missing=188
							187:leaf=6.3790946
							188:leaf=6.91659641
						102:leaf=6.57692719
			12:[RealPower_-1q<336.664001] yes=25,no=26,missing=26
				25:[temp_max_-2h<14.1700001] yes=51,no=52,missing=52
					51:[hour<17] yes=103,no=104,missing=104
						103:leaf=7.36335707
						104:leaf=8.05324841
					52:[temp_-11h<14.1800003] yes=105,no=106,missing=106
						105:[RealPower_-5q<324.94101] yes=189,no=190,missing=190
							189:leaf=6.10292149
							190:leaf=6.78507566
						106:[feels_like_-4h<18.1100006] yes=191,no=192,missing=192
							191:leaf=7.1506691
							192:leaf=6.85945225
				26:[RealPower_-24q<396.653015] yes=53,no=54,missing=54
					53:[dayofweek<4] yes=107,no=108,missing=108
						107:[feels_like_-5h<17.2999992] yes=193,no=194,missing=194
							193:leaf=7.70444441
							194:leaf=7.37170887
						108:[RealPower_-2q<336.666992] yes=195,no=196,missing=196
							195:leaf=7.56616926
							196:leaf=7.2224617
					54:[RealPower_-20q<419.145996] yes=109,no=110,missing=110
						109:leaf=5.56045341
						110:leaf=6.95214415
		6:[RealPower_-1q<400.868988] yes=13,no=14,missing=14
			13:[RealPower_-1q<381.036011] yes=27,no=28,missing=28
				27:[hour<21] yes=55,no=56,missing=56
					55:[RealPower_-12q<358.638] yes=111,no=112,missing=112
						111:[RealPower_-1q<362.927002] yes=197,no=198,missing=198
							197:leaf=7.65674686
							198:leaf=7.92101431
						112:[temp_min_-3h<13.25] yes=199,no=200,missing=200
							199:leaf=8.53585339
							200:leaf=8.0385704
					56:[RealPower_-8q<365.138] yes=113,no=114,missing=114
						113:[year<2017] yes=201,no=202,missing=202
							201:leaf=7.31347799
							202:leaf=6.26878214
						114:[RealPower_-8q<394.641998] yes=203,no=204,missing=204
							203:leaf=7.52822208
							204:leaf=7.94911718
				28:[RealPower_-2q<384.946991] yes=57,no=58,missing=58
					57:[hour<17] yes=115,no=116,missing=116
						115:[RealPower_-5q<379.89801] yes=205,no=206,missing=206
							205:leaf=8.06051731
							206:leaf=8.76576042
						116:[hour<20] yes=207,no=208,missing=208
							207:leaf=9.26365757
							208:leaf=8.43560314
					58:[hour<23] yes=117,no=118,missing=118
						117:[RealPower_-12q<354.226013] yes=209,no=210,missing=210
							209:leaf=7.92725325
							210:leaf=8.31615353
						118:leaf=7.48136377
			14:[RealPower_-1q<440.328003] yes=29,no=30,missing=30
				29:[temp_min_-2h<13.9499998] yes=59,no=60,missing=60
					59:[hour<18] yes=119,no=120,missing=120
						119:[hour<17] yes=211,no=212,missing=212
							211:leaf=8.79218769
							212:leaf=10.1910448
						120:leaf=8.9111042
					60:[feels_like_-4h<19.0599995] yes=121,no=122,missing=122
						121:[RealPower_-24q<323.588013] yes=213,no=214,missing=214
							213:leaf=7.97415876
							214:leaf=8.8179903
						122:[RealPower_-3q<411.82901] yes=215,no=216,missing=216
							215:leaf=8.5075655
							216:leaf=7.55875349
				30:[temp_max_-1h<20.5300007] yes=61,no=62,missing=62
					61:[year<2016] yes=123,no=124,missing=124
						123:leaf=10.7601738
						124:leaf=9.72268867
					62:leaf=9.01638889
booster[11]:
0:[RealPower_-1q<280.743011] yes=1,no=2,missing=1
	1:[RealPower_-1q<219.955002] yes=3,no=4,missing=3
		3:[RealPower_-1q<189.621994] yes=7,no=8,missing=7
			7:[RealPower_-1q<169.488007] yes=15,no=16,missing=16
				15:[hour<7] yes=31,no=32,missing=32
					31:[hour<6] yes=63,no=64,missing=64
						63:[RealPower_-15q<168.091995] yes=123,no=124,missing=124
							123:leaf=2.596102
							124:leaf=2.77516365
						64:leaf=4.57643986
					32:[hour<13] yes=65,no=66,missing=66
						65:[RealPower_-23q<163.309998] yes=125,no=126,missing=126
							125:leaf=2.13026524
							126:leaf=2.58549404
						66:[hour<16] yes=127,no=128,missing=128
							127:leaf=2.70149183
							128:leaf=2.93837929
				16:[hour<6] yes=33,no=34,missing=34
					33:[RealPower_-3q<180.044006] yes=67,no=68,missing=67
						67:[RealPower_-15q<176.503006] yes=129,no=130,missing=130
							129:leaf=2.74037027
							130:leaf=2.96510458
						68:[hour<3] yes=131,no=132,missing=132
							131:leaf=3.00836968
							132:leaf=3.18558764
					34:[hour<7] yes=69,no=70,missing=70
						69:[dayofweek<5] yes=133,no=134,missing=134
							133:leaf=5.07425404
							134:leaf=2.76266932
						70:[hour<21] yes=135,no=136,missing=136
							135:leaf=3.07007384
							136:leaf=2.78900814
			8:[RealPower_-1q<203.438995] yes=17,no=18,missing=18
				17:[RealPower_-2q<190.513] yes=35,no=36,missing=36
					35:[dayofweek<5] yes=71,no=72,missing=72
						71:[hour<6] yes=137,no=138,missing=138
							137:leaf=3.32048035
							138:leaf=5.41137695
						72:[hour<7] yes=139,no=140,missing=140
							139:leaf=2.85514021
							140:leaf=3.52609444
					36:[RealPower_-4q<180.895996] yes=73,no=74,missing=74
						73:leaf=2.13953733
						74:[RealPower_-13q<224.009995] yes=141,no=142,missing=142
							141:leaf=3.44851232
							142:leaf=3.23215723
				18:[RealPower_-2q<203.444] yes=37,no=38,missing=38
					37:[RealPower_-24q<257.417999] yes=75,no=76,missing=76
						75:[RealPower_-1q<208.317993] yes=143,no=144,missing=144
							143:leaf=3.64579749
							144:leaf=4.19683552
						76:leaf=5.48241377
					38:[RealPower_-1q<210.192001] yes=77,no=78,missing=78
						77:[RealPower_-2q<214.697998] yes=145,no=146,missing=146
							145:leaf=3.48280382
							146:leaf=3.02352643
						78:[RealPower_-2q<210.201996] yes=147,no=148,missing=148
							147:leaf=4.27273941
							148:leaf=3.62595987
		4:[RealPower_-1q<248.306] yes=9,no=10,missing=10
			9:[RealPower_-1q<236.024994] yes=19,no=20,missing=20
				19:[RealPower_-2q<222.417007] yes=39,no=40,missing=40
					39:[dayofweek<5] yes=79,no=80,missing=80
						79:[hour<6] yes=149,no=150,missing=150
							149:leaf=3.78273845
							150:leaf=5.39427233
						80:[RealPower_-3q<205.347] yes=151,no=152,missing=152
							151:leaf=3.12137079
							152:leaf=3.88277054
					40:[RealPower_-4q<216.552002] yes=81,no=82,missing=82
						81:[RealPower_-23q<251.800003] yes=153,no=154,missing=154
							153:leaf=3.48427129
							154:leaf=2.34392405
						82:[hour<21] yes=155,no=156,missing=156
							155:leaf=3.92635703
							156:leaf=3.52063346
				20:[RealPower_-2q<239.332993] yes=41,no=42,missing=42
					41:[RealPower_-23q<287.734985] yes=83,no=84,missing=84
						83:[RealPower_-12q<228.061005] yes=157,no=158,missing=158
							157:leaf=4.44373083
							158:leaf=4.14831829
						84:[hour<6] yes=159,no=160,missing=160
							159:leaf=4.09829664
							160:leaf=7.06885624
					42:[RealPower_-4q<219.139008] yes=85,no=86,missing=86
						85:[dayofyear<226] yes=161,no=162,missing=162
							161:leaf=3.42542505
							162:leaf=2.87996459
						86:[hour<23] yes=163,no=164,missing=164
							163:leaf=4.10878372
							164:leaf=3.3004837
			10:[RealPower_-1q<264.505005] yes=21,no=22,missing=22
				21:[RealPower_-2q<216.548996] yes=43,no=44,missing=44
					43:leaf=5.39306831
					44:[RealPower_-4q<224.884003] yes=87,no=88,missing=88
						87:[feels_like<19.1100006] yes=165,no=166,missing=166
							165:leaf=3.85181212
							166:leaf=2.96034694
						88:[hour<21] yes=167,no=168,missing=168
							167:leaf=4.43821239
							168:leaf=3.97530341
				22:[RealPower_-2q<256.112] yes=45,no=46,missing=46
					45:leaf=5.17223883
					46:[RealPower_-4q<241.8284] yes=89,no=90,missing=90
						89:[temp_max<19.9500008] yes=169,no=170,missing=170
							169:leaf=4.06701946
							170:leaf=3.35806894
						90:[RealPower_-9q<231.770996] yes=171,no=172,missing=172
							171:leaf=5.10278225
							172:leaf=4.61231184
	2:[RealPower_-1q<344.013] yes=5,no=6,missing=6
		5:[RealPower_-1q<310.429993] yes=11,no=12,missing=12
			11:[RealPower_-1q<296.822998] yes=23,no=24,missing=24
				23:[RealPower_-2q<289.983002] yes=47,no=48,missing=48
					47:[RealPower_-6q<205.360992] yes=91,no=92,missing=92
						91:leaf=4.15658903
						92:[RealPower_-13q<217.419006] yes=173,no=174,missing=174
							173:leaf=5.51716375
							174:leaf=5.04760265
					48:[RealPower_-1q<284.696014] yes=93,no=94,missing=94
						93:[temp_-9h<19.1700001] yes=175,no=176,missing=176
							175:leaf=4.58279371
							176:leaf=4.00985622
						94:[RealPower_-5q<301.733002] yes=177,no=178,missing=178
							177:leaf=4.71697378
							178:leaf=4.97379303
				24:[RealPower_-2q<301.737] yes=49,no=50,missing=50
					49:[wind_speed_-1h<4.11999989] yes=95,no=96,missing=96
						95:[temp_-5h<17.3799992] yes=179,no=180,missing=180
							179:leaf=5.57545567
							180:leaf=5.26377249
						96:leaf=4.99364281
					50:[RealPower_-20q<217.460007] yes=97,no=98,missing=98
						97:leaf=5.5000391
						98:[dayofyear<16] yes=181,no=182,missing=182
							181:leaf=4.38138199
							182:leaf=5.07417011
			12:[RealPower_-1q<330.153015] yes=25,no=26,missing=26
				25:[temp_max_-2h<18.25] yes=51,no=52,missing=52
					51:[RealPower_-14q<233.184006] yes=99,no=100,missing=100
						99:[RealPower_-12q<262.408997] yes=183,no=184,missing=184
							183:leaf=5.63801336
							184:leaf=6.12685919
						100:[RealPower_-6q<317.075989] yes=185,no=186,missing=186
							185:leaf=5.4328475
							186:leaf=5.74966717
					52:[hour<23] yes=101,no=102,missing=102
						101:[RealPower_-19q<415.380005] yes=187,no=188,missing=188
							187:leaf=5.45282745
							188:leaf=4.95219851
						102:[RealPower_-2q<346.342987] yes=189,no=190,missing=190
							189:leaf=4.86679935
							190:leaf=5.74488592
				26:[RealPower_-23q<386.450012] yes=53,no=54,missing=54
					53:[feels_like<18.5300007] yes=103,no=104,missing=104
						103:[RealPower_-5q<336.687988] yes=191,no=192,missing=192
							191:leaf=5.80634403
							192:leaf=6.11366796
						104:[year<2018] yes=193,no=194,missing=194
							193:leaf=5.72328329
							194:leaf=5.37062454
					54:[RealPower_-14q<398.722992] yes=105,no=106,missing=106
						105:leaf=4.77633858
						106:leaf=5.56509113
		6:[RealPower_-1q<384.946991] yes=13,no=14,missing=14
			13:[RealPower_-1q<363.950989] yes=27,no=28,missing=28
				27:[RealPower_-22q<391.157013] yes=55,no=56,missing=56
					55:[dayofweek<4] yes=107,no=108,missing=108
						107:[temp_-5h<16.4599991] yes=195,no=196,missing=196
							195:leaf=6.30644703
							196:leaf=6.07092619
						108:[RealPower_-15q<281.756989] yes=197,no=198,missing=198
							197:leaf=5.19992256
							198:leaf=5.9842062
					56:[RealPower_-2q<358.643005] yes=109,no=110,missing=110
						109:leaf=4.85152531
						110:[clouds_all<47] yes=199,no=200,missing=200
							199:leaf=5.45901394
							200:leaf=6.45488214
				28:[RealPower_-2q<361.855988] yes=57,no=58,missing=58
					57:[hour<17] yes=111,no=112,missing=112
						111:[RealPower_-6q<341.571991] yes=201,no=202,missing=202
							201:leaf=6.05298138
							202:leaf=6.62065649
						112:[hour<21] yes=203,no=204,missing=204
							203:leaf=7.32408905
							204:leaf=6.36854601
					58:[dayofweek<5] yes=113,no=114,missing=114
						113:[temp_-4h<18.3899994] yes=205,no=206,missing=206
							205:leaf=6.44617701
							206:leaf=6.11224079
						114:[dayofyear<95] yes=207,no=208,missing=208
							207:leaf=5.88956928
							208:leaf=5.14185286
			14:[RealPower_-1q<408.557007] yes=29,no=30,missing=30
				29:[temp_min_-2h<11.3299999] yes=59,no=60,missing=60
					59:[hour<17] yes=115,no=116,missing=116
						115:[dayofyear<129] yes=209,no=210,missing=210
							209:leaf=6.4257369
							210:leaf=7.36120224
						116:[hour<18] yes=211,no=212,missing=212
							211:leaf=8.69560146
							212:leaf=6.67971277
					60:[hour<23] yes=117,no=118,missing=118
						117:[temp_-11h<13.1599998] yes=213,no=214,missing=214
							213:leaf=6.3361392
							214:leaf=6.79674625
						118:[feels_like<18.6299992] yes=215,no=216,missing=216
							215:leaf=6.33443975
							216:leaf=5.45504475
				30:[RealPower_-1q<440.328003] yes=61,no=62,missing=62
					61:[RealPower_-2q<396.546997] yes=119,no=120,missing=120
						119:leaf=8.09072018
						120:[temp_min_-3h<19.4599991] yes=217,no=218,missing=218
							217:leaf=7.20981741
							218:leaf=6.39143658
					62:[dayofmonth<10] yes=121,no=122,missing=122
						121:[year<2016] yes=219,no=220,missing=220
							219:leaf=9.04043388
							220:leaf=7.91220093
						122:[temp_max_-1h<16.7299995] yes=221,no=222,missing=222
							221:leaf=8.21534252
							222:leaf=7.09779596
booster[12]:
0:[RealPower_-1q<294.489014] yes=1,no=2,missing=1
	1:[RealPower_-1q<228.828995] yes=3,no=4,missing=3
		3:[RealPower_-1q<195.977997] yes=7,no=8,missing=7
			7:[RealPower_-1q<179.244003] yes=15,no=16,missing=16
				15:[RealPower_-1q<165.184998] yes=31,no=32,missing=32
					31:[RealPower_-4q<148.319] yes=63,no=64,missing=64
						63:[pressure<1021] yes=121,no=122,missing=122
							121:leaf=1.79110491
							122:leaf=2.31160641
						64:[hour<15] yes=123,no=124,missing=124
							123:leaf=2.13405633
							124:leaf=2.33259487
					32:[RealPower_-14q<169.501007] yes=65,no=66,missing=65
						65:[temp_-10h<23.1900005] yes=125,no=126,missing=125
							125:leaf=2.36816716
							126:leaf=3.29686046
						66:[RealPower_-1q<173.839005] yes=127,no=128,missing=128
							127:leaf=2.26831508
							128:leaf=2.38041186
				16:[RealPower_-4q<170.809006] yes=33,no=34,missing=34
					33:leaf=1.47913682
					34:[RealPower_-2q<177.468002] yes=67,no=68,missing=68
						67:leaf=3.52575421
						68:[humidity<74] yes=129,no=130,missing=130
							129:leaf=2.48935127
							130:leaf=2.68649173
			8:[hour<21] yes=17,no=18,missing=18
				17:[hour<6] yes=35,no=36,missing=36
					35:[RealPower_-1q<217.419006] yes=69,no=70,missing=70
						69:[hour<4] yes=131,no=132,missing=132
							131:leaf=2.60587955
							132:leaf=2.79740691
						70:[hour<4] yes=133,no=134,missing=134
							133:leaf=2.82719111
							134:leaf=3.09495926
					36:[hour<7] yes=71,no=72,missing=72
						71:[dayofweek<5] yes=135,no=136,missing=136
							135:leaf=4.78340912
							136:leaf=2.60032845
						72:[hour<8] yes=137,no=138,missing=138
							137:leaf=2.47737575
							138:leaf=2.9864819
				18:[RealPower_-14q<252.466995] yes=37,no=38,missing=38
					37:[RealPower_-8q<231.770996] yes=73,no=74,missing=74
						73:[RealPower_-17q<229.574997] yes=139,no=140,missing=140
							139:leaf=2.59656811
							140:leaf=1.91165054
						74:[RealPower_-6q<231.039993] yes=141,no=142,missing=142
							141:leaf=3.36235428
							142:leaf=2.74159694
					38:[RealPower_-2q<236.024994] yes=75,no=76,missing=76
						75:[RealPower_-14q<267.545013] yes=143,no=144,missing=144
							143:leaf=1.83234823
							144:leaf=2.41838312
						76:leaf=2.82594705
		4:[RealPower_-1q<258.778015] yes=9,no=10,missing=10
			9:[hour<6] yes=19,no=20,missing=20
				19:[RealPower_-1q<238.667007] yes=39,no=40,missing=40
					39:[hour<4] yes=77,no=78,missing=78
						77:[RealPower_-2q<243.005997] yes=145,no=146,missing=146
							145:leaf=3.01473045
							146:leaf=2.7410686
						78:[RealPower_-10q<251.248993] yes=147,no=148,missing=148
							147:leaf=2.79786253
							148:leaf=3.31635547
					40:[hour<1] yes=79,no=80,missing=80
						79:[pressure_-2h<1015] yes=149,no=150,missing=150
							149:leaf=3.33099675
							150:leaf=3.84488797
						80:[year<2017] yes=151,no=152,missing=152
							151:leaf=3.31391382
							152:leaf=3.08971
				20:[RealPower_-24q<307.752991] yes=41,no=42,missing=42
					41:[hour<21] yes=81,no=82,missing=82
						81:[RealPower_-5q<218.330002] yes=153,no=154,missing=154
							153:leaf=3.07608199
							154:leaf=3.46326041
						82:[RealPower_-8q<247.763] yes=155,no=156,missing=156
							155:leaf=2.25709224
							156:leaf=3.28245044
					42:[RealPower_-20q<296.721985] yes=83,no=84,missing=84
						83:leaf=6.58078003
						84:leaf=4.91426086
			10:[RealPower_-1q<276.924011] yes=21,no=22,missing=22
				21:[hour<7] yes=43,no=44,missing=44
					43:[RealPower_-2q<229.565002] yes=85,no=86,missing=86
						85:[humidity_-3h<73] yes=157,no=158,missing=158
							157:leaf=3.79379725
							158:leaf=4.58102131
						86:[RealPower_-3q<211.981003] yes=159,no=160,missing=160
							159:leaf=2.48357654
							160:leaf=3.44097829
					44:[hour<21] yes=87,no=88,missing=88
						87:[RealPower_-5q<210.229004] yes=161,no=162,missing=162
							161:leaf=3.08491707
							162:leaf=3.82049155
						88:[RealPower_-8q<276.950012] yes=163,no=164,missing=164
							163:leaf=2.76226807
							164:leaf=3.80343938
				22:[RealPower_-2q<266.795013] yes=45,no=46,missing=46
					45:[RealPower_-2q<223.218994] yes=89,no=90,missing=90
						89:leaf=4.92374468
						90:[temp_-10h<19.5200005] yes=165,no=166,missing=166
							165:leaf=4.49629021
							166:leaf=3.98602796
					46:[hour<7] yes=91,no=92,missing=92
						91:[hour<1] yes=167,no=168,missing=168
							167:leaf=3.97729373
							168:leaf=3.50093579
						92:[hour<10] yes=169,no=170,missing=170
							169:leaf=4.20435381
							170:leaf=3.86417007
	2:[RealPower_-1q<354.260986] yes=5,no=6,missing=6
		5:[RealPower_-1q<324.942993] yes=11,no=12,missing=12
			11:[wind_speed_-2h<3.5999999] yes=23,no=24,missing=24
				23:[RealPower_-5q<270.970001] yes=47,no=48,missing=48
					47:[temp_-9h<21.7900009] yes=93,no=94,missing=94
						93:[hour<10] yes=171,no=172,missing=172
							171:leaf=4.21612167
							172:leaf=3.76360297
						94:leaf=3.66392517
					48:[dayofweek<5] yes=95,no=96,missing=96
						95:[temp_min_-1h<14.7299995] yes=173,no=174,missing=174
							173:leaf=4.59389257
							174:leaf=4.34931183
						96:[RealPower_-16q<261.679993] yes=175,no=176,missing=176
							175:leaf=3.901407
							176:leaf=4.36921883
				24:[RealPower_-21q<241.789993] yes=49,no=50,missing=50
					49:[dayofweek<5] yes=97,no=98,missing=98
						97:leaf=4.70962954
						98:leaf=3.96398926
					50:[RealPower_-5q<321.065002] yes=99,no=100,missing=100
						99:[RealPower_-3q<319.766998] yes=177,no=178,missing=178
							177:leaf=3.94734931
							178:leaf=3.25136828
						100:[year<2018] yes=179,no=180,missing=180
							179:leaf=4.25288343
							180:leaf=3.77195907
			12:[RealPower_-19q<384.988007] yes=25,no=26,missing=26
				25:[RealPower_-5q<336.687988] yes=51,no=52,missing=52
					51:[RealPower_-17q<233.893997] yes=101,no=102,missing=102
						101:[RealPower_-16q<254.272995] yes=181,no=182,missing=182
							181:leaf=4.73769379
							182:leaf=5.48618841
						102:[RealPower_-5q<318.428009] yes=183,no=184,missing=184
							183:leaf=4.3227706
							184:leaf=4.62258244
					52:[temp_max<16.6299992] yes=103,no=104,missing=104
						103:[RealPower_-15q<335.300995] yes=185,no=186,missing=186
							185:leaf=4.95263052
							186:leaf=5.33997679
						104:[temp_-12h<12.2600002] yes=187,no=188,missing=188
							187:leaf=3.91049242
							188:leaf=4.77261591
				26:[RealPower_-8q<359.723999] yes=53,no=54,missing=54
					53:leaf=3.08106971
					54:[RealPower_-2q<365.105988] yes=105,no=106,missing=106
						105:[hour<23] yes=189,no=190,missing=190
							189:leaf=4.55112791
							190:leaf=3.95446634
						106:leaf=5.01994181
		6:[RealPower_-1q<396.541992] yes=13,no=14,missing=14
			13:[RealPower_-1q<376.358002] yes=27,no=28,missing=28
				27:[hour<23] yes=55,no=56,missing=56
					55:[dayofweek<4] yes=107,no=108,missing=108
						107:[RealPower_-5q<357.579987] yes=191,no=192,missing=192
							191:leaf=4.93385458
							192:leaf=5.20374489
						108:[hour<20] yes=193,no=194,missing=194
							193:leaf=4.98031998
							194:leaf=4.4728694
					56:[RealPower_-9q<398.712006] yes=109,no=110,missing=110
						109:[RealPower_-8q<376.404999] yes=195,no=196,missing=196
							195:leaf=3.94805598
							196:leaf=5.51736403
						110:[RealPower_-2q<376.358002] yes=197,no=198,missing=198
							197:leaf=4.08308363
							198:leaf=3.11898994
				28:[RealPower_-2q<381.035004] yes=57,no=58,missing=58
					57:[hour<17] yes=111,no=112,missing=112
						111:[RealPower_-6q<366.302002] yes=199,no=200,missing=200
							199:leaf=4.97657442
							200:leaf=5.50321913
						112:[RealPower_-1q<384.946991] yes=201,no=202,missing=202
							201:leaf=5.45300102
							202:leaf=6.11310959
					58:[temp_max_-2h<14.3599997] yes=113,no=114,missing=114
						113:[RealPower_-15q<357.552002] yes=203,no=204,missing=204
							203:leaf=5.15629148
							204:leaf=5.68877459
						114:[RealPower_-5q<398.696014] yes=205,no=206,missing=206
							205:leaf=4.99973726
							206:leaf=5.36203051
			14:[RealPower_-1q<430.233002] yes=29,no=30,missing=30
				29:[temp_min_-2h<12.1700001] yes=59,no=60,missing=60
					59:[temp_max<14.9499998] yes=115,no=116,missing=116
						115:[dayofweek<1] yes=207,no=208,missing=208
							207:leaf=6.10586357
							208:leaf=5.50342131
						116:[hour<18] yes=209,no=210,missing=210
							209:leaf=6.84229374
							210:leaf=5.66157389
					60:[temp_max_-3h<20.1299992] yes=117,no=118,missing=118
						117:[RealPower_-21q<351.964996] yes=211,no=212,missing=212
							211:leaf=5.30448103
							212:leaf=5.71777487
						118:[wind_speed_-2h<3.5999999] yes=213,no=214,missing=214
							213:leaf=5.52436399
							214:leaf=5.09799957
				30:[hour<19] yes=61,no=62,missing=62
					61:[RealPower_-8q<408.584991] yes=119,no=120,missing=120
						119:leaf=6.1992197
						120:leaf=7.26935959
					62:leaf=5.84779263
booster[13]:
0:[RealPower_-1q<287.846985] yes=1,no=2,missing=1
	1:[RealPower_-1q<223.983002] yes=3,no=4,missing=3
		3:[RealPower_-1q<189.621994] yes=7,no=8,missing=7
			7:[RealPower_-1q<171.908005] yes=15,no=16,missing=16
				15:[hour<7] yes=31,no=32,missing=32
					31:[hour<6] yes=63,no=64,missing=64
						63:[RealPower_-14q<168.089996] yes=115,no=116,missing=116
							115:leaf=1.62630296
							116:leaf=1.80784822
						64:[RealPower_-2q<166.723007] yes=117,no=118,missing=118
							117:leaf=3.85756493
							118:leaf=2.14609385
					32:[hour<13] yes=65,no=66,missing=66
						65:[RealPower_-20q<165.253006] yes=119,no=120,missing=120
							119:leaf=1.34323955
							120:leaf=1.67231977
						66:[wind_deg<270] yes=121,no=122,missing=122
							121:leaf=1.86627007
							122:leaf=1.67804396
				16:[RealPower_-2q<170.800995] yes=33,no=34,missing=34
					33:[RealPower_-22q<171.945999] yes=67,no=68,missing=68
						67:leaf=1.91674101
						68:leaf=3.19567561
					34:[feels_like_-11h<25.7700005] yes=69,no=70,missing=69
						69:[RealPower_-1q<176.505005] yes=123,no=124,missing=124
							123:leaf=1.81649721
							124:leaf=2.00432611
						70:[RealPower_-16q<180.929001] yes=125,no=126,missing=126
							125:leaf=3.04745007
							126:leaf=1.9857769
			8:[RealPower_-4q<176.505997] yes=17,no=18,missing=18
				17:[temp_-7h<21.9300003] yes=35,no=36,missing=36
					35:leaf=1.74678314
					36:leaf=0.708871722
				18:[wind_speed_-1h<3.5999999] yes=37,no=38,missing=38
					37:[hour<6] yes=71,no=72,missing=72
						71:[RealPower_-2q<213.811996] yes=127,no=128,missing=128
							127:leaf=2.16089058
							128:leaf=2.3523252
						72:[hour<7] yes=129,no=130,missing=130
							129:leaf=3.2156117
							130:leaf=2.25674915
					38:[hour<23] yes=73,no=74,missing=74
						73:[hour<4] yes=131,no=132,missing=132
							131:leaf=2.06280637
							132:leaf=2.25888252
						74:[RealPower_-13q<233.182007] yes=133,no=134,missing=134
							133:leaf=2.05392432
							134:leaf=1.69215
		4:[RealPower_-1q<256.108002] yes=9,no=10,missing=10
			9:[RealPower_-1q<240.608002] yes=19,no=20,missing=20
				19:[RealPower_-2q<224.875] yes=39,no=40,missing=40
					39:[dayofweek<5] yes=75,no=76,missing=76
						75:[RealPower_-24q<268.364014] yes=135,no=136,missing=136
							135:leaf=2.6667645
							136:leaf=4.08934164
						76:[hour<8] yes=137,no=138,missing=138
							137:leaf=1.9013834
							138:leaf=2.68901277
					40:[RealPower_-4q<216.552002] yes=77,no=78,missing=78
						77:[RealPower_-18q<224.014999] yes=139,no=140,missing=140
							139:leaf=2.10171056
							140:leaf=1.17114615
						78:[hour<23] yes=141,no=142,missing=142
							141:leaf=2.54918909
							142:leaf=2.02083421
				20:[RealPower_-2q<241.817993] yes=41,no=42,missing=42
					41:[RealPower_-22q<285.592987] yes=79,no=80,missing=80
						79:[RealPower_-2q<210.201996] yes=143,no=144,missing=144
							143:leaf=3.35066152
							144:leaf=2.85800409
						80:[RealPower_-24q<332.725006] yes=145,no=146,missing=146
							145:leaf=4.88104296
							146:leaf=2.77352619
					42:[RealPower_-5q<184.526001] yes=81,no=82,missing=82
						81:leaf=1.6824398
						82:[hour<23] yes=147,no=148,missing=148
							147:leaf=2.69904423
							148:leaf=2.09922409
			10:[temp_max_-3h<20.1299992] yes=21,no=22,missing=22
				21:[RealPower_-19q<250.619003] yes=43,no=44,missing=44
					43:[RealPower_-5q<250.654007] yes=83,no=84,missing=84
						83:[RealPower_-2q<248.888] yes=149,no=150,missing=150
							149:leaf=3.41108108
							150:leaf=2.80111837
						84:[hour<9] yes=151,no=152,missing=152
							151:leaf=3.61417651
							152:leaf=3.17844105
					44:[dayofweek<5] yes=85,no=86,missing=86
						85:[RealPower_-2q<254.901001] yes=153,no=154,missing=154
							153:leaf=3.35523534
							154:leaf=2.80778122
						86:[temp_max<19.9300003] yes=155,no=156,missing=156
							155:leaf=3.10212493
							156:leaf=3.61121035
				22:[RealPower_-2q<240.615997] yes=45,no=46,missing=46
					45:leaf=3.82968211
					46:[RealPower_-5q<226.449997] yes=87,no=88,missing=88
						87:[RealPower_-24q<247.705002] yes=157,no=158,missing=158
							157:leaf=1.71961367
							158:leaf=2.46665645
						88:[dayofweek<5] yes=159,no=160,missing=160
							159:leaf=2.82118821
							160:leaf=3.09376669
	2:[RealPower_-1q<348.602997] yes=5,no=6,missing=6
		5:[RealPower_-1q<321.058014] yes=11,no=12,missing=12
			11:[hour<8] yes=23,no=24,missing=24
				23:[RealPower_-2q<256.112] yes=47,no=48,missing=48
					47:leaf=4.28783178
					48:[RealPower_-6q<210.227997] yes=89,no=90,missing=90
						89:leaf=2.14138126
						90:[RealPower_-5q<340.355011] yes=161,no=162,missing=162
							161:leaf=3.08098769
							162:leaf=3.37357116
				24:[hour<21] yes=49,no=50,missing=50
					49:[RealPower_-7q<293.32901] yes=91,no=92,missing=92
						91:[hour<10] yes=163,no=164,missing=164
							163:leaf=3.5616529
							164:leaf=3.21508193
						92:[RealPower_-21q<310.282013] yes=165,no=166,missing=166
							165:leaf=3.58178377
							166:leaf=4.08108473
					50:[RealPower_-5q<297.972992] yes=93,no=94,missing=94
						93:[feels_like_-8h<15.2200003] yes=167,no=168,missing=168
							167:leaf=2.84385753
							168:leaf=2.07346749
						94:[dayofweek<5] yes=169,no=170,missing=170
							169:leaf=3.05699301
							170:leaf=3.36727262
			12:[hour<20] yes=25,no=26,missing=26
				25:[RealPower_-5q<324.94101] yes=51,no=52,missing=52
					51:[RealPower_-14q<244.223999] yes=95,no=96,missing=96
						95:[RealPower_-11q<265.291992] yes=171,no=172,missing=172
							171:leaf=3.44190645
							172:leaf=4.14690113
						96:[RealPower_-15q<224.014999] yes=173,no=174,missing=174
							173:leaf=2.97386026
							174:leaf=3.5724771
					52:[hour<10] yes=97,no=98,missing=98
						97:[RealPower_-2q<339.164001] yes=175,no=176,missing=176
							175:leaf=3.61429644
							176:leaf=2.78268027
						98:[RealPower_-11q<336.636993] yes=177,no=178,missing=178
							177:leaf=3.81123924
							178:leaf=4.0948329
				26:[year<2017] yes=53,no=54,missing=54
					53:[dayofyear<159] yes=99,no=100,missing=100
						99:[RealPower_-9q<389.446014] yes=179,no=180,missing=180
							179:leaf=4.04972696
							180:leaf=3.45146346
						100:[temp_min_-3h<18.8899994] yes=181,no=182,missing=182
							181:leaf=2.89926243
							182:leaf=3.59773898
					54:[hour<23] yes=101,no=102,missing=102
						101:[dayofweek<5] yes=183,no=184,missing=184
							183:leaf=3.854213
							184:leaf=3.14426827
						102:[RealPower_-8q<368.449005] yes=185,no=186,missing=186
							185:leaf=1.63921642
							186:leaf=3.48530197
		6:[RealPower_-1q<389.394012] yes=13,no=14,missing=14
			13:[RealPower_-1q<370.550995] yes=27,no=28,missing=28
				27:[RealPower_-24q<411.911987] yes=55,no=56,missing=56
					55:[RealPower_-11q<311.606995] yes=103,no=104,missing=104
						103:[RealPower_-21q<242.382004] yes=187,no=188,missing=188
							187:leaf=3.88614821
							188:leaf=3.51009536
						104:[temp_min_-1h<11.8400002] yes=189,no=190,missing=190
							189:leaf=4.25310755
							190:leaf=3.95155334
					56:leaf=3.15646434
				28:[RealPower_-2q<373.951996] yes=57,no=58,missing=58
					57:[RealPower_-18q<354.225006] yes=105,no=106,missing=106
						105:[RealPower_-23q<244.785004] yes=191,no=192,missing=192
							191:leaf=4.74517775
							192:leaf=4.11974812
						106:[feels_like_-12h<17.8700008] yes=193,no=194,missing=194
							193:leaf=4.76268911
							194:leaf=4.11504507
					58:[temp_min_-1h<13.7700005] yes=107,no=108,missing=108
						107:[RealPower_-5q<360.859985] yes=195,no=196,missing=196
							195:leaf=3.83678222
							196:leaf=4.42661715
						108:[RealPower_-5q<356.48999] yes=197,no=198,missing=198
							197:leaf=3.57653403
							198:leaf=4.0383563
			14:[RealPower_-1q<419.095001] yes=29,no=30,missing=30
				29:[hour<23] yes=59,no=60,missing=60
					59:[dayofweek<5] yes=109,no=110,missing=110
						109:[year<2016] yes=199,no=200,missing=200
							199:leaf=4.65834951
							200:leaf=4.36516523
						110:leaf=3.48662162
					60:leaf=3.49886322
				30:[hour<19] yes=61,no=62,missing=62
					61:[RealPower_-13q<411.845001] yes=111,no=112,missing=112
						111:[year<2016] yes=201,no=202,missing=202
							201:leaf=5.43645144
							202:leaf=4.7764945
						112:leaf=6.23213387
					62:[RealPower_-6q<430.358002] yes=113,no=114,missing=114
						113:[feels_like_-11h<14.96] yes=203,no=204,missing=204
							203:leaf=3.99789858
							204:leaf=4.65169621
						114:[dayofweek<1] yes=205,no=206,missing=206
							205:leaf=5.21063328
							206:leaf=4.62790585
booster[14]:
0:[RealPower_-1q<280.743011] yes=1,no=2,missing=1
	1:[RealPower_-1q<213.796997] yes=3,no=4,missing=3
		3:[RealPower_-1q<183.602997] yes=7,no=8,missing=8
			7:[dayofyear<358] yes=15,no=16,missing=16
				15:[dayofweek<6] yes=31,no=32,missing=32
					31:[hour<6] yes=61,no=62,missing=62
						61:[RealPower_-7q<170.813004] yes=117,no=118,missing=118
							117:leaf=1.36579621
							118:leaf=1.49677563
						62:[hour<7] yes=119,no=120,missing=120
							119:leaf=3.2371583
							120:leaf=1.43138063
					32:[hour<16] yes=63,no=64,missing=64
						63:[RealPower_-11q<175.559006] yes=121,no=122,missing=122
							121:leaf=1.29405499
							122:leaf=1.52070045
						64:[hour<21] yes=123,no=124,missing=124
							123:leaf=1.69327962
							124:leaf=1.31724632
				16:[temp_-11h<16.3999996] yes=33,no=34,missing=34
					33:[temp_-11h<13.3999996] yes=65,no=66,missing=66
						65:[temp_max_-1h<17.7700005] yes=125,no=126,missing=126
							125:leaf=1.57096815
							126:leaf=1.2994045
						66:[temp_min<10.7299995] yes=127,no=128,missing=128
							127:leaf=1.0094198
							128:leaf=1.46886766
					34:[RealPower_-12q<169.501007] yes=67,no=68,missing=68
						67:[temp_-7h<16.2299995] yes=129,no=130,missing=130
							129:leaf=0.999061048
							130:leaf=0.481872886
						68:leaf=1.29420567
			8:[RealPower_-4q<172.891998] yes=17,no=18,missing=18
				17:leaf=0.763854027
				18:[hour<20] yes=35,no=36,missing=36
					35:[hour<6] yes=69,no=70,missing=70
						69:[RealPower_-1q<205.330994] yes=131,no=132,missing=131
							131:leaf=1.65147591
							132:leaf=1.80251968
						70:[hour<7] yes=133,no=134,missing=134
							133:leaf=2.5929575
							134:leaf=1.71735001
					36:[temp_-5h<14.9499998] yes=71,no=72,missing=72
						71:[clouds_all_-2h<40] yes=135,no=136,missing=136
							135:leaf=1.38647103
							136:leaf=1.05755234
						72:[hour<21] yes=137,no=138,missing=138
							137:leaf=1.89762306
							138:leaf=1.51185989
		4:[RealPower_-1q<247.735992] yes=9,no=10,missing=10
			9:[hour<4] yes=19,no=20,missing=20
				19:[RealPower_-5q<246.615005] yes=37,no=38,missing=38
					37:[RealPower_-16q<345.11499] yes=73,no=74,missing=74
						73:[RealPower_-5q<233.906006] yes=139,no=140,missing=140
							139:leaf=1.64780128
							140:leaf=1.82945848
						74:[temp_-10h<16.9400005] yes=141,no=142,missing=142
							141:leaf=1.55733383
							142:leaf=1.30954432
					38:[year<2017] yes=75,no=76,missing=76
						75:[quarter<3] yes=143,no=144,missing=144
							143:leaf=2.1453135
							144:leaf=1.90806329
						76:[dayofweek<4] yes=145,no=146,missing=146
							145:leaf=1.76071632
							146:leaf=1.97586524
				20:[RealPower_-5q<196.990005] yes=39,no=40,missing=40
					39:[RealPower_-2q<199.817001] yes=77,no=78,missing=78
						77:[wind_speed_-2h<2.56999993] yes=147,no=148,missing=148
							147:leaf=2.23395824
							148:leaf=2.665977
						78:[hour<7] yes=149,no=150,missing=150
							149:leaf=0.549492896
							150:leaf=1.7139014
					40:[hour<14] yes=79,no=80,missing=80
						79:[hour<6] yes=151,no=152,missing=152
							151:leaf=1.99558258
							152:leaf=2.2670958
						80:[RealPower_-8q<253.692993] yes=153,no=154,missing=154
							153:leaf=1.89745641
							154:leaf=2.19960427
			10:[dayofweek<5] yes=21,no=22,missing=22
				21:[hour<23] yes=41,no=42,missing=42
					41:[RealPower_-13q<228.854004] yes=81,no=82,missing=82
						81:[RealPower_-7q<263.787994] yes=155,no=156,missing=156
							155:leaf=2.37678313
							156:leaf=3.17267299
						82:[RealPower_-24q<351.97699] yes=157,no=158,missing=158
							157:leaf=2.25776792
							158:leaf=2.06098008
					42:[dayofyear<212] yes=83,no=84,missing=84
						83:leaf=0.391548485
						84:leaf=2.20953822
				22:[hour<8] yes=43,no=44,missing=44
					43:[RealPower_-5q<262.403015] yes=85,no=86,missing=86
						85:[RealPower_-4q<237.397995] yes=159,no=160,missing=160
							159:leaf=1.30807602
							160:leaf=1.86892724
						86:[RealPower_-5q<293.32901] yes=161,no=162,missing=162
							161:leaf=2.23881721
							162:leaf=2.57938409
					44:[RealPower_-5q<257.447998] yes=87,no=88,missing=88
						87:[RealPower_-2q<267.52301] yes=163,no=164,missing=164
							163:leaf=2.54267144
							164:leaf=1.85571086
						88:[wind_speed_-2h<1.5] yes=165,no=166,missing=166
							165:leaf=2.99094057
							166:leaf=2.66614556
	2:[RealPower_-1q<342.81601] yes=5,no=6,missing=6
		5:[RealPower_-1q<306.605011] yes=11,no=12,missing=12
			11:[RealPower_-2q<266.795013] yes=23,no=24,missing=24
				23:[dayofmonth<10] yes=45,no=46,missing=46
					45:leaf=2.72052598
					46:[temp_max_-3h<18.25] yes=89,no=90,missing=90
						89:leaf=3.05984426
						90:leaf=3.55058336
				24:[RealPower_-4q<250.651993] yes=47,no=48,missing=48
					47:[dayofyear<308] yes=91,no=92,missing=92
						91:[temp_-5h<21.6800003] yes=167,no=168,missing=168
							167:leaf=2.4052875
							168:leaf=1.66018522
						92:leaf=1.4850812
					48:[RealPower_-13q<237.404007] yes=93,no=94,missing=94
						93:[hour<10] yes=169,no=170,missing=170
							169:leaf=2.85061336
							170:leaf=2.1671834
						94:[dayofweek<5] yes=171,no=172,missing=172
							171:leaf=2.42756486
							172:leaf=2.64590621
			12:[temp_min_-2h<10.9700003] yes=25,no=26,missing=26
				25:[hour<17] yes=49,no=50,missing=50
					49:[hour<12] yes=95,no=96,missing=96
						95:[RealPower_-12q<276.960999] yes=173,no=174,missing=174
							173:leaf=3.08121896
							174:leaf=3.76175165
						96:[RealPower_-5q<332.841003] yes=175,no=176,missing=176
							175:leaf=2.53617001
							176:leaf=3.43677831
					50:leaf=4.31797075
				26:[RealPower_-23q<387.949005] yes=51,no=52,missing=52
					51:[RealPower_-5q<318.428009] yes=97,no=98,missing=98
						97:[hour<21] yes=177,no=178,missing=178
							177:leaf=2.81712222
							178:leaf=2.26933837
						98:[feels_like<18.5300007] yes=179,no=180,missing=180
							179:leaf=3.02720571
							180:leaf=2.83138466
					52:[RealPower_-8q<363.98999] yes=99,no=100,missing=100
						99:[feels_like_-5h<17.0799999] yes=181,no=182,missing=182
							181:leaf=1.68391383
							182:leaf=2.45887542
						100:[RealPower_-2q<361.855988] yes=183,no=184,missing=184
							183:leaf=2.61894584
							184:leaf=3.25094295
		6:[RealPower_-1q<381.036011] yes=13,no=14,missing=14
			13:[RealPower_-5q<352.026001] yes=27,no=28,missing=28
				27:[RealPower_-4q<360.846985] yes=53,no=54,missing=54
					53:[RealPower_-2q<337.975006] yes=101,no=102,missing=102
						101:[feels_like_-9h<16.4599991] yes=185,no=186,missing=186
							185:leaf=3.78182459
							186:leaf=3.09030604
						102:[RealPower_-5q<324.94101] yes=187,no=188,missing=188
							187:leaf=2.77275634
							188:leaf=3.09488893
					54:[dayofmonth<16] yes=103,no=104,missing=104
						103:leaf=2.23070693
						104:leaf=2.83129191
				28:[hour<23] yes=55,no=56,missing=56
					55:[dayofweek<4] yes=105,no=106,missing=106
						105:[dayofyear<63] yes=189,no=190,missing=190
							189:leaf=3.51847124
							190:leaf=3.28808403
						106:[hour<20] yes=191,no=192,missing=192
							191:leaf=3.2544229
							192:leaf=2.88630486
					56:[dayofyear<103] yes=107,no=108,missing=108
						107:[year<2017] yes=193,no=194,missing=194
							193:leaf=3.81456733
							194:leaf=2.59353328
						108:[RealPower_-8q<381.058014] yes=195,no=196,missing=196
							195:leaf=1.42937291
							196:leaf=2.74422789
			14:[RealPower_-1q<405.654999] yes=29,no=30,missing=30
				29:[RealPower_-2q<384.946991] yes=57,no=58,missing=58
					57:[RealPower_-20q<342.73999] yes=109,no=110,missing=110
						109:[RealPower_-24q<299.153992] yes=197,no=198,missing=198
							197:leaf=3.53995681
							198:leaf=3.21485019
						110:[year<2016] yes=199,no=200,missing=200
							199:leaf=4.19398069
							200:leaf=3.67874599
					58:[dayofweek<4] yes=111,no=112,missing=112
						111:[RealPower_-5q<396.572998] yes=201,no=202,missing=202
							201:leaf=3.30723119
							202:leaf=3.52532768
						112:[wind_deg_-3h<10] yes=203,no=204,missing=204
							203:leaf=3.26779366
							204:leaf=2.85457015
				30:[temp_min_-2h<12.7299995] yes=59,no=60,missing=60
					59:[year<2016] yes=113,no=114,missing=114
						113:[dayofweek<3] yes=205,no=206,missing=206
							205:leaf=4.92801046
							206:leaf=3.80546737
						114:[RealPower_-2q<400.871002] yes=207,no=208,missing=208
							207:leaf=4.67458296
							208:leaf=3.70884061
					60:[RealPower_-17q<359.688995] yes=115,no=116,missing=116
						115:[RealPower_-23q<320.937012] yes=209,no=210,missing=210
							209:leaf=2.85159492
							210:leaf=3.44677973
						116:[year<2016] yes=211,no=212,missing=212
							211:leaf=3.91258407
							212:leaf=3.63601565
booster[15]:
0:[RealPower_-1q<279.798004] yes=1,no=2,missing=1
	1:[RealPower_-1q<227.246002] yes=3,no=4,missing=3
		3:[RealPower_-1q<198.871994] yes=7,no=8,missing=7
			7:[dayofyear<358] yes=15,no=16,missing=16
				15:[RealPower_-1q<180.882996] yes=31,no=32,missing=32
					31:[dayofweek<6] yes=63,no=64,missing=64
						63:[RealPower_-18q<175.570007] yes=125,no=126,missing=126
							125:leaf=1.55543506
							126:leaf=1.17323101
						64:[hour<16] yes=127,no=128,missing=128
							127:leaf=1.09588337
							128:leaf=1.28885198
					32:[RealPower_-2q<180.042999] yes=65,no=66,missing=66
						65:[feels_like_-5h<22.9599991] yes=129,no=130,missing=130
							129:leaf=1.50880003
							130:leaf=2.97403407
						66:[RealPower_-13q<211.089005] yes=131,no=132,missing=131
							131:leaf=1.38143241
							132:leaf=1.23268163
				16:[temp_-10h<16.6399994] yes=33,no=34,missing=34
					33:[temp_-3h<9.98999977] yes=67,no=68,missing=68
						67:[temp_min<7.57000017] yes=133,no=134,missing=134
							133:leaf=1.07710576
							134:leaf=1.55917251
						68:[temp_min<9.72999954] yes=135,no=136,missing=136
							135:leaf=0.790524006
							136:leaf=1.1098485
					34:[temp_min_-1h<12.4700003] yes=69,no=70,missing=70
						69:[temp_-12h<16.6800003] yes=137,no=138,missing=138
							137:leaf=-0.125587806
							138:leaf=0.807820797
						70:leaf=1.26800668
			8:[RealPower_-4q<192.199005] yes=17,no=18,missing=18
				17:[hour<8] yes=35,no=36,missing=36
					35:[RealPower_-2q<197.921997] yes=71,no=72,missing=72
						71:leaf=1.42244637
						72:[RealPower_-12q<183.634003] yes=139,no=140,missing=140
							139:leaf=0.419885546
							140:leaf=-0.654661119
					36:[RealPower_-14q<182.707001] yes=73,no=74,missing=74
						73:leaf=1.84624314
						74:leaf=1.32469249
				18:[RealPower_-14q<243.014999] yes=37,no=38,missing=38
					37:[hour<7] yes=75,no=76,missing=76
						75:[hour<6] yes=141,no=142,missing=142
							141:leaf=1.35728014
							142:leaf=2.95440412
						76:[RealPower_-24q<265.240997] yes=143,no=144,missing=144
							143:leaf=1.51046538
							144:leaf=0.819800973
					38:[hour<6] yes=77,no=78,missing=78
						77:[hour<4] yes=145,no=146,missing=146
							145:leaf=1.34762764
							146:leaf=1.52749479
						78:[RealPower_-10q<229.587006] yes=147,no=148,missing=148
							147:leaf=1.88982511
							148:leaf=0.955493629
		4:[RealPower_-1q<249.494995] yes=9,no=10,missing=10
			9:[RealPower_-2q<227.25] yes=19,no=20,missing=20
				19:[dayofweek<5] yes=39,no=40,missing=40
					39:[RealPower_-22q<266.035004] yes=79,no=80,missing=80
						79:[RealPower_-1q<236.714005] yes=149,no=150,missing=150
							149:leaf=1.65894592
							150:leaf=2.15909719
						80:[hour<6] yes=151,no=152,missing=152
							151:leaf=1.29605246
							152:leaf=5.88312244
					40:[RealPower_-23q<272.529999] yes=81,no=82,missing=82
						81:[temp_-2h<19.9599991] yes=153,no=154,missing=154
							153:leaf=1.89727974
							154:leaf=1.36369169
						82:leaf=0.662139535
				20:[RealPower_-3q<221.587997] yes=41,no=42,missing=42
					41:[hour<7] yes=83,no=84,missing=84
						83:[RealPower_-21q<196.009003] yes=155,no=156,missing=156
							155:leaf=1.00244772
							156:leaf=0.199523896
						84:leaf=1.53546989
					42:[RealPower_-6q<186.983002] yes=85,no=86,missing=86
						85:[dayofyear<223] yes=157,no=158,missing=158
							157:leaf=1.40663767
							158:leaf=0.973664939
						86:[hour<4] yes=159,no=160,missing=160
							159:leaf=1.55221438
							160:leaf=1.71504486
